network unknown {
}
variable BMICategory {
    type discrete [ 4 ] { 0, 1, 2, 3 };
}
variable SESCategory {
    type discrete [ 3 ] { 1, 2, 3 };
}
variable ageGroupe {
    type discrete [ 11 ] { 3, 4, 5, 6, 7, 8, 9, 10, 11, 12, 13 };
}
variable comorbidity {
    type discrete [ 2 ] { 1, 2 };
}
variable durationcategory {
    type discrete [ 4 ] { 1, 2, 3, 4 };
}
variable educationlevel {
    type discrete [ 6 ] { 1, 2, 3, 4, 5, 6 };
}
variable employementstatus {
    type discrete [ 8 ] { 1, 2, 3, 4, 5, 6, 7, 8 };
}
variable ethnicity {
    type discrete [ 5 ] { 1, 2, 3, 4, 5 };
}
variable exercise {
    type discrete [ 2 ] { 0, 1 };
}
variable gender {
    type discrete [ 2 ] { 1, 2 };
}
variable homeOwnership {
    type discrete [ 2 ] { 1, 2 };
}
variable income {
    type discrete [ 8 ] { 1, 2, 3, 4, 5, 6, 7, 8 };
}
variable mentalhealthcategory {
    type discrete [ 5 ] { 1, 2, 3, 4, 5 };
}
variable scantMeal {
    type discrete [ 5 ] { 1, 2, 3, 4, 5 };
}
variable scantrent {
    type discrete [ 5 ] { 1, 2, 3, 4, 5 };
}
probability ( BMICategory | ageGroupe, exercise ) {
    ( 3, 0 ) 0.006157635467980296, 0.11453201970443351, 0.2770935960591133, 0.602216748768473;
    ( 3, 1 ) 0.002615062761506276, 0.09466527196652719, 0.30177824267782427, 0.6009414225941423;
    ( 4, 0 ) 0.001067463706233988, 0.03864218616567036, 0.26409052092228863, 0.6961998292058069;
    ( 4, 1 ) 0.0008090614886731392, 0.09336569579288026, 0.27135922330097095, 0.6344660194174758;
    ( 5, 0 ) 0.00040518638573743915, 0.08954619124797406, 0.29991896272285246, 0.6101296596434359;
    ( 5, 1 ) 0.0003242542153047989, 0.07451361867704279, 0.23715953307392992, 0.6880025940337224;
    ( 6, 0 ) 0.0002462568951930654, 0.0674251379038613, 0.2754629629629629, 0.6568656422379826;
    ( 6, 1 ) 0.002181656277827248, 0.08642030276046304, 0.2842831700801425, 0.6271148708815673;
    ( 7, 0 ) 0.00014232039166571785, 0.06526813161789821, 0.3382955709894114, 0.5962939770010247;
    ( 7, 1 ) 0.001122103141888797, 0.06963909498946597, 0.3175093890262893, 0.6117294128423559;
    ( 8, 0 ) 9.529618052908439e-05, 0.11330715864908135, 0.2852214683235496, 0.6013760768468399;
    ( 8, 1 ) 0.001392882818116463, 0.10353762281332375, 0.3473670021567218, 0.547702492211838;
    ( 9, 0 ) 0.0015092502434274587, 0.0936222005842259, 0.2942713404738721, 0.6105972086984746;
    ( 9, 1 ) 0.000604759083728278, 0.09726747630331754, 0.36879196287519744, 0.5333358017377567;
    ( 10, 0 ) 0.002736122868545168, 0.09851553996855726, 0.3106935542387229, 0.5880547829241746;
    ( 10, 1 ) 0.0015312052932761088, 0.13332662732474965, 0.37183699928469244, 0.4933051680972818;
    ( 11, 0 ) 0.0041658994660283555, 0.12062695636162768, 0.33532038298655864, 0.5398867611857853;
    ( 11, 1 ) 0.0007918040204253117, 0.16147954236959472, 0.4387725421756835, 0.39895611143429643;
    ( 12, 0 ) 0.005741657150107854, 0.14531785306433193, 0.43005329272934906, 0.41888719705621114;
    ( 12, 1 ) 0.002511884183232498, 0.2021661624891962, 0.4327193171996543, 0.36260263612791704;
    ( 13, 0 ) 0.00531832298136646, 0.24274068322981365, 0.40329968944099376, 0.3486413043478261;
    ( 13, 1 ) 0.012632308467741934, 0.30509702620967744, 0.44509198588709675, 0.23717867943548387;

}
probability ( SESCategory | educationlevel, employementstatus, homeOwnership, income, scantMeal, scantrent ) {
    ( 1, 1, 1, 1, 1, 1 ) 0.33333333333333337, 0.33333333333333337, 0.33333333333333337;
    ( 1, 1, 1, 1, 1, 2 ) 0.33333333333333337, 0.33333333333333337, 0.33333333333333337;
    ( 1, 1, 1, 1, 1, 3 ) 0.33333333333333337, 0.33333333333333337, 0.33333333333333337;
    ( 1, 1, 1, 1, 1, 4 ) 0.33333333333333337, 0.33333333333333337, 0.33333333333333337;
    ( 1, 1, 1, 1, 1, 5 ) 0.33333333333333337, 0.33333333333333337, 0.33333333333333337;
    ( 1, 1, 1, 1, 2, 1 ) 0.33333333333333337, 0.33333333333333337, 0.33333333333333337;
    ( 1, 1, 1, 1, 2, 2 ) 0.33333333333333337, 0.33333333333333337, 0.33333333333333337;
    ( 1, 1, 1, 1, 2, 3 ) 0.33333333333333337, 0.33333333333333337, 0.33333333333333337;
    ( 1, 1, 1, 1, 2, 4 ) 0.33333333333333337, 0.33333333333333337, 0.33333333333333337;
    ( 1, 1, 1, 1, 2, 5 ) 0.33333333333333337, 0.33333333333333337, 0.33333333333333337;
    ( 1, 1, 1, 1, 3, 1 ) 0.33333333333333337, 0.33333333333333337, 0.33333333333333337;
    ( 1, 1, 1, 1, 3, 2 ) 0.33333333333333337, 0.33333333333333337, 0.33333333333333337;
    ( 1, 1, 1, 1, 3, 3 ) 0.33333333333333337, 0.33333333333333337, 0.33333333333333337;
    ( 1, 1, 1, 1, 3, 4 ) 0.33333333333333337, 0.33333333333333337, 0.33333333333333337;
    ( 1, 1, 1, 1, 3, 5 ) 0.33333333333333337, 0.33333333333333337, 0.33333333333333337;
    ( 1, 1, 1, 1, 4, 1 ) 0.33333333333333337, 0.33333333333333337, 0.33333333333333337;
    ( 1, 1, 1, 1, 4, 2 ) 0.33333333333333337, 0.33333333333333337, 0.33333333333333337;
    ( 1, 1, 1, 1, 4, 3 ) 0.33333333333333337, 0.33333333333333337, 0.33333333333333337;
    ( 1, 1, 1, 1, 4, 4 ) 0.33333333333333337, 0.33333333333333337, 0.33333333333333337;
    ( 1, 1, 1, 1, 4, 5 ) 0.33333333333333337, 0.33333333333333337, 0.33333333333333337;
    ( 1, 1, 1, 1, 5, 1 ) 0.33333333333333337, 0.33333333333333337, 0.33333333333333337;
    ( 1, 1, 1, 1, 5, 2 ) 0.33333333333333337, 0.33333333333333337, 0.33333333333333337;
    ( 1, 1, 1, 1, 5, 3 ) 0.33333333333333337, 0.33333333333333337, 0.33333333333333337;
    ( 1, 1, 1, 1, 5, 4 ) 0.33333333333333337, 0.33333333333333337, 0.33333333333333337;
    ( 1, 1, 1, 1, 5, 5 ) 0.33333333333333337, 0.33333333333333337, 0.33333333333333337;
    ( 1, 1, 1, 2, 1, 1 ) 0.33333333333333337, 0.33333333333333337, 0.33333333333333337;
    ( 1, 1, 1, 2, 1, 2 ) 0.33333333333333337, 0.33333333333333337, 0.33333333333333337;
    ( 1, 1, 1, 2, 1, 3 ) 0.33333333333333337, 0.33333333333333337, 0.33333333333333337;
    ( 1, 1, 1, 2, 1, 4 ) 0.33333333333333337, 0.33333333333333337, 0.33333333333333337;
    ( 1, 1, 1, 2, 1, 5 ) 0.33333333333333337, 0.33333333333333337, 0.33333333333333337;
    ( 1, 1, 1, 2, 2, 1 ) 0.33333333333333337, 0.33333333333333337, 0.33333333333333337;
    ( 1, 1, 1, 2, 2, 2 ) 0.33333333333333337, 0.33333333333333337, 0.33333333333333337;
    ( 1, 1, 1, 2, 2, 3 ) 0.33333333333333337, 0.33333333333333337, 0.33333333333333337;
    ( 1, 1, 1, 2, 2, 4 ) 0.33333333333333337, 0.33333333333333337, 0.33333333333333337;
    ( 1, 1, 1, 2, 2, 5 ) 0.33333333333333337, 0.33333333333333337, 0.33333333333333337;
    ( 1, 1, 1, 2, 3, 1 ) 0.33333333333333337, 0.33333333333333337, 0.33333333333333337;
    ( 1, 1, 1, 2, 3, 2 ) 0.00017352073572791954, 0.9996529585285443, 0.00017352073572791954;
    ( 1, 1, 1, 2, 3, 3 ) 5.786032517502748e-05, 0.9998842793496499, 5.786032517502748e-05;
    ( 1, 1, 1, 2, 3, 4 ) 0.33333333333333337, 0.33333333333333337, 0.33333333333333337;
    ( 1, 1, 1, 2, 3, 5 ) 0.33333333333333337, 0.33333333333333337, 0.33333333333333337;
    ( 1, 1, 1, 2, 4, 1 ) 0.33333333333333337, 0.33333333333333337, 0.33333333333333337;
    ( 1, 1, 1, 2, 4, 2 ) 0.33333333333333337, 0.33333333333333337, 0.33333333333333337;
    ( 1, 1, 1, 2, 4, 3 ) 0.33333333333333337, 0.33333333333333337, 0.33333333333333337;
    ( 1, 1, 1, 2, 4, 4 ) 0.33333333333333337, 0.33333333333333337, 0.33333333333333337;
    ( 1, 1, 1, 2, 4, 5 ) 0.33333333333333337, 0.33333333333333337, 0.33333333333333337;
    ( 1, 1, 1, 2, 5, 1 ) 0.33333333333333337, 0.33333333333333337, 0.33333333333333337;
    ( 1, 1, 1, 2, 5, 2 ) 0.33333333333333337, 0.33333333333333337, 0.33333333333333337;
    ( 1, 1, 1, 2, 5, 3 ) 0.33333333333333337, 0.33333333333333337, 0.33333333333333337;
    ( 1, 1, 1, 2, 5, 4 ) 0.33333333333333337, 0.33333333333333337, 0.33333333333333337;
    ( 1, 1, 1, 2, 5, 5 ) 0.33333333333333337, 0.33333333333333337, 0.33333333333333337;
    ( 1, 1, 1, 3, 1, 1 ) 0.33333333333333337, 0.33333333333333337, 0.33333333333333337;
    ( 1, 1, 1, 3, 1, 2 ) 0.33333333333333337, 0.33333333333333337, 0.33333333333333337;
    ( 1, 1, 1, 3, 1, 3 ) 0.33333333333333337, 0.33333333333333337, 0.33333333333333337;
    ( 1, 1, 1, 3, 1, 4 ) 0.33333333333333337, 0.33333333333333337, 0.33333333333333337;
    ( 1, 1, 1, 3, 1, 5 ) 0.33333333333333337, 0.33333333333333337, 0.33333333333333337;
    ( 1, 1, 1, 3, 2, 1 ) 0.33333333333333337, 0.33333333333333337, 0.33333333333333337;
    ( 1, 1, 1, 3, 2, 2 ) 0.33333333333333337, 0.33333333333333337, 0.33333333333333337;
    ( 1, 1, 1, 3, 2, 3 ) 0.33333333333333337, 0.33333333333333337, 0.33333333333333337;
    ( 1, 1, 1, 3, 2, 4 ) 0.33333333333333337, 0.33333333333333337, 0.33333333333333337;
    ( 1, 1, 1, 3, 2, 5 ) 0.33333333333333337, 0.33333333333333337, 0.33333333333333337;
    ( 1, 1, 1, 3, 3, 1 ) 0.33333333333333337, 0.33333333333333337, 0.33333333333333337;
    ( 1, 1, 1, 3, 3, 2 ) 0.33333333333333337, 0.33333333333333337, 0.33333333333333337;
    ( 1, 1, 1, 3, 3, 3 ) 0.33333333333333337, 0.33333333333333337, 0.33333333333333337;
    ( 1, 1, 1, 3, 3, 4 ) 0.33333333333333337, 0.33333333333333337, 0.33333333333333337;
    ( 1, 1, 1, 3, 3, 5 ) 0.33333333333333337, 0.33333333333333337, 0.33333333333333337;
    ( 1, 1, 1, 3, 4, 1 ) 0.33333333333333337, 0.33333333333333337, 0.33333333333333337;
    ( 1, 1, 1, 3, 4, 2 ) 0.33333333333333337, 0.33333333333333337, 0.33333333333333337;
    ( 1, 1, 1, 3, 4, 3 ) 0.33333333333333337, 0.33333333333333337, 0.33333333333333337;
    ( 1, 1, 1, 3, 4, 4 ) 0.33333333333333337, 0.33333333333333337, 0.33333333333333337;
    ( 1, 1, 1, 3, 4, 5 ) 0.33333333333333337, 0.33333333333333337, 0.33333333333333337;
    ( 1, 1, 1, 3, 5, 1 ) 0.33333333333333337, 0.33333333333333337, 0.33333333333333337;
    ( 1, 1, 1, 3, 5, 2 ) 0.33333333333333337, 0.33333333333333337, 0.33333333333333337;
    ( 1, 1, 1, 3, 5, 3 ) 0.33333333333333337, 0.33333333333333337, 0.33333333333333337;
    ( 1, 1, 1, 3, 5, 4 ) 0.33333333333333337, 0.33333333333333337, 0.33333333333333337;
    ( 1, 1, 1, 3, 5, 5 ) 0.33333333333333337, 0.33333333333333337, 0.33333333333333337;
    ( 1, 1, 1, 4, 1, 1 ) 0.33333333333333337, 0.33333333333333337, 0.33333333333333337;
    ( 1, 1, 1, 4, 1, 2 ) 0.33333333333333337, 0.33333333333333337, 0.33333333333333337;
    ( 1, 1, 1, 4, 1, 3 ) 0.33333333333333337, 0.33333333333333337, 0.33333333333333337;
    ( 1, 1, 1, 4, 1, 4 ) 0.33333333333333337, 0.33333333333333337, 0.33333333333333337;
    ( 1, 1, 1, 4, 1, 5 ) 0.33333333333333337, 0.33333333333333337, 0.33333333333333337;
    ( 1, 1, 1, 4, 2, 1 ) 0.33333333333333337, 0.33333333333333337, 0.33333333333333337;
    ( 1, 1, 1, 4, 2, 2 ) 0.33333333333333337, 0.33333333333333337, 0.33333333333333337;
    ( 1, 1, 1, 4, 2, 3 ) 0.33333333333333337, 0.33333333333333337, 0.33333333333333337;
    ( 1, 1, 1, 4, 2, 4 ) 0.33333333333333337, 0.33333333333333337, 0.33333333333333337;
    ( 1, 1, 1, 4, 2, 5 ) 0.33333333333333337, 0.33333333333333337, 0.33333333333333337;
    ( 1, 1, 1, 4, 3, 1 ) 0.33333333333333337, 0.33333333333333337, 0.33333333333333337;
    ( 1, 1, 1, 4, 3, 2 ) 0.33333333333333337, 0.33333333333333337, 0.33333333333333337;
    ( 1, 1, 1, 4, 3, 3 ) 0.33333333333333337, 0.33333333333333337, 0.33333333333333337;
    ( 1, 1, 1, 4, 3, 4 ) 0.33333333333333337, 0.33333333333333337, 0.33333333333333337;
    ( 1, 1, 1, 4, 3, 5 ) 0.33333333333333337, 0.33333333333333337, 0.33333333333333337;
    ( 1, 1, 1, 4, 4, 1 ) 0.33333333333333337, 0.33333333333333337, 0.33333333333333337;
    ( 1, 1, 1, 4, 4, 2 ) 0.33333333333333337, 0.33333333333333337, 0.33333333333333337;
    ( 1, 1, 1, 4, 4, 3 ) 0.33333333333333337, 0.33333333333333337, 0.33333333333333337;
    ( 1, 1, 1, 4, 4, 4 ) 0.33333333333333337, 0.33333333333333337, 0.33333333333333337;
    ( 1, 1, 1, 4, 4, 5 ) 0.33333333333333337, 0.33333333333333337, 0.33333333333333337;
    ( 1, 1, 1, 4, 5, 1 ) 0.33333333333333337, 0.33333333333333337, 0.33333333333333337;
    ( 1, 1, 1, 4, 5, 2 ) 0.33333333333333337, 0.33333333333333337, 0.33333333333333337;
    ( 1, 1, 1, 4, 5, 3 ) 0.33333333333333337, 0.33333333333333337, 0.33333333333333337;
    ( 1, 1, 1, 4, 5, 4 ) 0.33333333333333337, 0.33333333333333337, 0.33333333333333337;
    ( 1, 1, 1, 4, 5, 5 ) 0.33333333333333337, 0.33333333333333337, 0.33333333333333337;
    ( 1, 1, 1, 5, 1, 1 ) 0.33333333333333337, 0.33333333333333337, 0.33333333333333337;
    ( 1, 1, 1, 5, 1, 2 ) 0.33333333333333337, 0.33333333333333337, 0.33333333333333337;
    ( 1, 1, 1, 5, 1, 3 ) 0.33333333333333337, 0.33333333333333337, 0.33333333333333337;
    ( 1, 1, 1, 5, 1, 4 ) 0.33333333333333337, 0.33333333333333337, 0.33333333333333337;
    ( 1, 1, 1, 5, 1, 5 ) 0.33333333333333337, 0.33333333333333337, 0.33333333333333337;
    ( 1, 1, 1, 5, 2, 1 ) 0.33333333333333337, 0.33333333333333337, 0.33333333333333337;
    ( 1, 1, 1, 5, 2, 2 ) 0.33333333333333337, 0.33333333333333337, 0.33333333333333337;
    ( 1, 1, 1, 5, 2, 3 ) 0.33333333333333337, 0.33333333333333337, 0.33333333333333337;
    ( 1, 1, 1, 5, 2, 4 ) 0.33333333333333337, 0.33333333333333337, 0.33333333333333337;
    ( 1, 1, 1, 5, 2, 5 ) 0.33333333333333337, 0.33333333333333337, 0.33333333333333337;
    ( 1, 1, 1, 5, 3, 1 ) 0.33333333333333337, 0.33333333333333337, 0.33333333333333337;
    ( 1, 1, 1, 5, 3, 2 ) 0.33333333333333337, 0.33333333333333337, 0.33333333333333337;
    ( 1, 1, 1, 5, 3, 3 ) 0.33333333333333337, 0.33333333333333337, 0.33333333333333337;
    ( 1, 1, 1, 5, 3, 4 ) 0.33333333333333337, 0.33333333333333337, 0.33333333333333337;
    ( 1, 1, 1, 5, 3, 5 ) 0.33333333333333337, 0.33333333333333337, 0.33333333333333337;
    ( 1, 1, 1, 5, 4, 1 ) 0.33333333333333337, 0.33333333333333337, 0.33333333333333337;
    ( 1, 1, 1, 5, 4, 2 ) 0.33333333333333337, 0.33333333333333337, 0.33333333333333337;
    ( 1, 1, 1, 5, 4, 3 ) 0.33333333333333337, 0.33333333333333337, 0.33333333333333337;
    ( 1, 1, 1, 5, 4, 4 ) 0.33333333333333337, 0.33333333333333337, 0.33333333333333337;
    ( 1, 1, 1, 5, 4, 5 ) 0.33333333333333337, 0.33333333333333337, 0.33333333333333337;
    ( 1, 1, 1, 5, 5, 1 ) 0.33333333333333337, 0.33333333333333337, 0.33333333333333337;
    ( 1, 1, 1, 5, 5, 2 ) 0.33333333333333337, 0.33333333333333337, 0.33333333333333337;
    ( 1, 1, 1, 5, 5, 3 ) 0.33333333333333337, 0.33333333333333337, 0.33333333333333337;
    ( 1, 1, 1, 5, 5, 4 ) 0.33333333333333337, 0.33333333333333337, 0.33333333333333337;
    ( 1, 1, 1, 5, 5, 5 ) 0.33333333333333337, 0.33333333333333337, 0.33333333333333337;
    ( 1, 1, 1, 6, 1, 1 ) 0.33333333333333337, 0.33333333333333337, 0.33333333333333337;
    ( 1, 1, 1, 6, 1, 2 ) 0.33333333333333337, 0.33333333333333337, 0.33333333333333337;
    ( 1, 1, 1, 6, 1, 3 ) 0.33333333333333337, 0.33333333333333337, 0.33333333333333337;
    ( 1, 1, 1, 6, 1, 4 ) 0.33333333333333337, 0.33333333333333337, 0.33333333333333337;
    ( 1, 1, 1, 6, 1, 5 ) 0.33333333333333337, 0.33333333333333337, 0.33333333333333337;
    ( 1, 1, 1, 6, 2, 1 ) 0.33333333333333337, 0.33333333333333337, 0.33333333333333337;
    ( 1, 1, 1, 6, 2, 2 ) 0.33333333333333337, 0.33333333333333337, 0.33333333333333337;
    ( 1, 1, 1, 6, 2, 3 ) 0.33333333333333337, 0.33333333333333337, 0.33333333333333337;
    ( 1, 1, 1, 6, 2, 4 ) 0.33333333333333337, 0.33333333333333337, 0.33333333333333337;
    ( 1, 1, 1, 6, 2, 5 ) 0.33333333333333337, 0.33333333333333337, 0.33333333333333337;
    ( 1, 1, 1, 6, 3, 1 ) 0.33333333333333337, 0.33333333333333337, 0.33333333333333337;
    ( 1, 1, 1, 6, 3, 2 ) 0.33333333333333337, 0.33333333333333337, 0.33333333333333337;
    ( 1, 1, 1, 6, 3, 3 ) 0.33333333333333337, 0.33333333333333337, 0.33333333333333337;
    ( 1, 1, 1, 6, 3, 4 ) 0.33333333333333337, 0.33333333333333337, 0.33333333333333337;
    ( 1, 1, 1, 6, 3, 5 ) 0.33333333333333337, 0.33333333333333337, 0.33333333333333337;
    ( 1, 1, 1, 6, 4, 1 ) 0.33333333333333337, 0.33333333333333337, 0.33333333333333337;
    ( 1, 1, 1, 6, 4, 2 ) 0.33333333333333337, 0.33333333333333337, 0.33333333333333337;
    ( 1, 1, 1, 6, 4, 3 ) 0.33333333333333337, 0.33333333333333337, 0.33333333333333337;
    ( 1, 1, 1, 6, 4, 4 ) 0.33333333333333337, 0.33333333333333337, 0.33333333333333337;
    ( 1, 1, 1, 6, 4, 5 ) 0.33333333333333337, 0.33333333333333337, 0.33333333333333337;
    ( 1, 1, 1, 6, 5, 1 ) 0.33333333333333337, 0.33333333333333337, 0.33333333333333337;
    ( 1, 1, 1, 6, 5, 2 ) 0.33333333333333337, 0.33333333333333337, 0.33333333333333337;
    ( 1, 1, 1, 6, 5, 3 ) 0.33333333333333337, 0.33333333333333337, 0.33333333333333337;
    ( 1, 1, 1, 6, 5, 4 ) 0.33333333333333337, 0.33333333333333337, 0.33333333333333337;
    ( 1, 1, 1, 6, 5, 5 ) 0.33333333333333337, 0.33333333333333337, 0.33333333333333337;
    ( 1, 1, 1, 7, 1, 1 ) 0.33333333333333337, 0.33333333333333337, 0.33333333333333337;
    ( 1, 1, 1, 7, 1, 2 ) 0.33333333333333337, 0.33333333333333337, 0.33333333333333337;
    ( 1, 1, 1, 7, 1, 3 ) 0.33333333333333337, 0.33333333333333337, 0.33333333333333337;
    ( 1, 1, 1, 7, 1, 4 ) 0.33333333333333337, 0.33333333333333337, 0.33333333333333337;
    ( 1, 1, 1, 7, 1, 5 ) 0.33333333333333337, 0.33333333333333337, 0.33333333333333337;
    ( 1, 1, 1, 7, 2, 1 ) 0.33333333333333337, 0.33333333333333337, 0.33333333333333337;
    ( 1, 1, 1, 7, 2, 2 ) 0.33333333333333337, 0.33333333333333337, 0.33333333333333337;
    ( 1, 1, 1, 7, 2, 3 ) 0.33333333333333337, 0.33333333333333337, 0.33333333333333337;
    ( 1, 1, 1, 7, 2, 4 ) 0.33333333333333337, 0.33333333333333337, 0.33333333333333337;
    ( 1, 1, 1, 7, 2, 5 ) 0.33333333333333337, 0.33333333333333337, 0.33333333333333337;
    ( 1, 1, 1, 7, 3, 1 ) 0.33333333333333337, 0.33333333333333337, 0.33333333333333337;
    ( 1, 1, 1, 7, 3, 2 ) 0.33333333333333337, 0.33333333333333337, 0.33333333333333337;
    ( 1, 1, 1, 7, 3, 3 ) 0.33333333333333337, 0.33333333333333337, 0.33333333333333337;
    ( 1, 1, 1, 7, 3, 4 ) 0.33333333333333337, 0.33333333333333337, 0.33333333333333337;
    ( 1, 1, 1, 7, 3, 5 ) 0.33333333333333337, 0.33333333333333337, 0.33333333333333337;
    ( 1, 1, 1, 7, 4, 1 ) 0.33333333333333337, 0.33333333333333337, 0.33333333333333337;
    ( 1, 1, 1, 7, 4, 2 ) 0.33333333333333337, 0.33333333333333337, 0.33333333333333337;
    ( 1, 1, 1, 7, 4, 3 ) 0.33333333333333337, 0.33333333333333337, 0.33333333333333337;
    ( 1, 1, 1, 7, 4, 4 ) 0.33333333333333337, 0.33333333333333337, 0.33333333333333337;
    ( 1, 1, 1, 7, 4, 5 ) 0.33333333333333337, 0.33333333333333337, 0.33333333333333337;
    ( 1, 1, 1, 7, 5, 1 ) 0.33333333333333337, 0.33333333333333337, 0.33333333333333337;
    ( 1, 1, 1, 7, 5, 2 ) 0.33333333333333337, 0.33333333333333337, 0.33333333333333337;
    ( 1, 1, 1, 7, 5, 3 ) 0.33333333333333337, 0.33333333333333337, 0.33333333333333337;
    ( 1, 1, 1, 7, 5, 4 ) 0.33333333333333337, 0.33333333333333337, 0.33333333333333337;
    ( 1, 1, 1, 7, 5, 5 ) 0.33333333333333337, 0.33333333333333337, 0.33333333333333337;
    ( 1, 1, 1, 8, 1, 1 ) 0.33333333333333337, 0.33333333333333337, 0.33333333333333337;
    ( 1, 1, 1, 8, 1, 2 ) 0.33333333333333337, 0.33333333333333337, 0.33333333333333337;
    ( 1, 1, 1, 8, 1, 3 ) 0.33333333333333337, 0.33333333333333337, 0.33333333333333337;
    ( 1, 1, 1, 8, 1, 4 ) 0.33333333333333337, 0.33333333333333337, 0.33333333333333337;
    ( 1, 1, 1, 8, 1, 5 ) 0.33333333333333337, 0.33333333333333337, 0.33333333333333337;
    ( 1, 1, 1, 8, 2, 1 ) 0.33333333333333337, 0.33333333333333337, 0.33333333333333337;
    ( 1, 1, 1, 8, 2, 2 ) 0.33333333333333337, 0.33333333333333337, 0.33333333333333337;
    ( 1, 1, 1, 8, 2, 3 ) 0.33333333333333337, 0.33333333333333337, 0.33333333333333337;
    ( 1, 1, 1, 8, 2, 4 ) 0.33333333333333337, 0.33333333333333337, 0.33333333333333337;
    ( 1, 1, 1, 8, 2, 5 ) 0.33333333333333337, 0.33333333333333337, 0.33333333333333337;
    ( 1, 1, 1, 8, 3, 1 ) 0.33333333333333337, 0.33333333333333337, 0.33333333333333337;
    ( 1, 1, 1, 8, 3, 2 ) 0.33333333333333337, 0.33333333333333337, 0.33333333333333337;
    ( 1, 1, 1, 8, 3, 3 ) 0.33333333333333337, 0.33333333333333337, 0.33333333333333337;
    ( 1, 1, 1, 8, 3, 4 ) 0.33333333333333337, 0.33333333333333337, 0.33333333333333337;
    ( 1, 1, 1, 8, 3, 5 ) 0.33333333333333337, 0.33333333333333337, 0.33333333333333337;
    ( 1, 1, 1, 8, 4, 1 ) 0.33333333333333337, 0.33333333333333337, 0.33333333333333337;
    ( 1, 1, 1, 8, 4, 2 ) 0.33333333333333337, 0.33333333333333337, 0.33333333333333337;
    ( 1, 1, 1, 8, 4, 3 ) 0.33333333333333337, 0.33333333333333337, 0.33333333333333337;
    ( 1, 1, 1, 8, 4, 4 ) 0.33333333333333337, 0.33333333333333337, 0.33333333333333337;
    ( 1, 1, 1, 8, 4, 5 ) 0.33333333333333337, 0.33333333333333337, 0.33333333333333337;
    ( 1, 1, 1, 8, 5, 1 ) 0.33333333333333337, 0.33333333333333337, 0.33333333333333337;
    ( 1, 1, 1, 8, 5, 2 ) 0.33333333333333337, 0.33333333333333337, 0.33333333333333337;
    ( 1, 1, 1, 8, 5, 3 ) 0.33333333333333337, 0.33333333333333337, 0.33333333333333337;
    ( 1, 1, 1, 8, 5, 4 ) 0.33333333333333337, 0.33333333333333337, 0.33333333333333337;
    ( 1, 1, 1, 8, 5, 5 ) 0.33333333333333337, 0.33333333333333337, 0.33333333333333337;
    ( 1, 1, 2, 1, 1, 1 ) 0.33333333333333337, 0.33333333333333337, 0.33333333333333337;
    ( 1, 1, 2, 1, 1, 2 ) 0.33333333333333337, 0.33333333333333337, 0.33333333333333337;
    ( 1, 1, 2, 1, 1, 3 ) 0.33333333333333337, 0.33333333333333337, 0.33333333333333337;
    ( 1, 1, 2, 1, 1, 4 ) 0.33333333333333337, 0.33333333333333337, 0.33333333333333337;
    ( 1, 1, 2, 1, 1, 5 ) 0.33333333333333337, 0.33333333333333337, 0.33333333333333337;
    ( 1, 1, 2, 1, 2, 1 ) 0.33333333333333337, 0.33333333333333337, 0.33333333333333337;
    ( 1, 1, 2, 1, 2, 2 ) 0.33333333333333337, 0.33333333333333337, 0.33333333333333337;
    ( 1, 1, 2, 1, 2, 3 ) 0.33333333333333337, 0.33333333333333337, 0.33333333333333337;
    ( 1, 1, 2, 1, 2, 4 ) 0.33333333333333337, 0.33333333333333337, 0.33333333333333337;
    ( 1, 1, 2, 1, 2, 5 ) 0.33333333333333337, 0.33333333333333337, 0.33333333333333337;
    ( 1, 1, 2, 1, 3, 1 ) 0.33333333333333337, 0.33333333333333337, 0.33333333333333337;
    ( 1, 1, 2, 1, 3, 2 ) 0.33333333333333337, 0.33333333333333337, 0.33333333333333337;
    ( 1, 1, 2, 1, 3, 3 ) 0.33333333333333337, 0.33333333333333337, 0.33333333333333337;
    ( 1, 1, 2, 1, 3, 4 ) 0.33333333333333337, 0.33333333333333337, 0.33333333333333337;
    ( 1, 1, 2, 1, 3, 5 ) 0.33333333333333337, 0.33333333333333337, 0.33333333333333337;
    ( 1, 1, 2, 1, 4, 1 ) 0.33333333333333337, 0.33333333333333337, 0.33333333333333337;
    ( 1, 1, 2, 1, 4, 2 ) 0.33333333333333337, 0.33333333333333337, 0.33333333333333337;
    ( 1, 1, 2, 1, 4, 3 ) 0.33333333333333337, 0.33333333333333337, 0.33333333333333337;
    ( 1, 1, 2, 1, 4, 4 ) 0.33333333333333337, 0.33333333333333337, 0.33333333333333337;
    ( 1, 1, 2, 1, 4, 5 ) 0.33333333333333337, 0.33333333333333337, 0.33333333333333337;
    ( 1, 1, 2, 1, 5, 1 ) 0.33333333333333337, 0.33333333333333337, 0.33333333333333337;
    ( 1, 1, 2, 1, 5, 2 ) 0.33333333333333337, 0.33333333333333337, 0.33333333333333337;
    ( 1, 1, 2, 1, 5, 3 ) 0.33333333333333337, 0.33333333333333337, 0.33333333333333337;
    ( 1, 1, 2, 1, 5, 4 ) 0.33333333333333337, 0.33333333333333337, 0.33333333333333337;
    ( 1, 1, 2, 1, 5, 5 ) 0.33333333333333337, 0.33333333333333337, 0.33333333333333337;
    ( 1, 1, 2, 2, 1, 1 ) 0.33333333333333337, 0.33333333333333337, 0.33333333333333337;
    ( 1, 1, 2, 2, 1, 2 ) 0.33333333333333337, 0.33333333333333337, 0.33333333333333337;
    ( 1, 1, 2, 2, 1, 3 ) 0.33333333333333337, 0.33333333333333337, 0.33333333333333337;
    ( 1, 1, 2, 2, 1, 4 ) 0.33333333333333337, 0.33333333333333337, 0.33333333333333337;
    ( 1, 1, 2, 2, 1, 5 ) 0.33333333333333337, 0.33333333333333337, 0.33333333333333337;
    ( 1, 1, 2, 2, 2, 1 ) 0.33333333333333337, 0.33333333333333337, 0.33333333333333337;
    ( 1, 1, 2, 2, 2, 2 ) 0.33333333333333337, 0.33333333333333337, 0.33333333333333337;
    ( 1, 1, 2, 2, 2, 3 ) 0.33333333333333337, 0.33333333333333337, 0.33333333333333337;
    ( 1, 1, 2, 2, 2, 4 ) 0.33333333333333337, 0.33333333333333337, 0.33333333333333337;
    ( 1, 1, 2, 2, 2, 5 ) 0.33333333333333337, 0.33333333333333337, 0.33333333333333337;
    ( 1, 1, 2, 2, 3, 1 ) 0.33333333333333337, 0.33333333333333337, 0.33333333333333337;
    ( 1, 1, 2, 2, 3, 2 ) 0.33333333333333337, 0.33333333333333337, 0.33333333333333337;
    ( 1, 1, 2, 2, 3, 3 ) 0.33333333333333337, 0.33333333333333337, 0.33333333333333337;
    ( 1, 1, 2, 2, 3, 4 ) 0.33333333333333337, 0.33333333333333337, 0.33333333333333337;
    ( 1, 1, 2, 2, 3, 5 ) 0.33333333333333337, 0.33333333333333337, 0.33333333333333337;
    ( 1, 1, 2, 2, 4, 1 ) 0.33333333333333337, 0.33333333333333337, 0.33333333333333337;
    ( 1, 1, 2, 2, 4, 2 ) 0.33333333333333337, 0.33333333333333337, 0.33333333333333337;
    ( 1, 1, 2, 2, 4, 3 ) 0.33333333333333337, 0.33333333333333337, 0.33333333333333337;
    ( 1, 1, 2, 2, 4, 4 ) 0.33333333333333337, 0.33333333333333337, 0.33333333333333337;
    ( 1, 1, 2, 2, 4, 5 ) 0.33333333333333337, 0.33333333333333337, 0.33333333333333337;
    ( 1, 1, 2, 2, 5, 1 ) 0.33333333333333337, 0.33333333333333337, 0.33333333333333337;
    ( 1, 1, 2, 2, 5, 2 ) 0.33333333333333337, 0.33333333333333337, 0.33333333333333337;
    ( 1, 1, 2, 2, 5, 3 ) 0.33333333333333337, 0.33333333333333337, 0.33333333333333337;
    ( 1, 1, 2, 2, 5, 4 ) 0.33333333333333337, 0.33333333333333337, 0.33333333333333337;
    ( 1, 1, 2, 2, 5, 5 ) 0.33333333333333337, 0.33333333333333337, 0.33333333333333337;
    ( 1, 1, 2, 3, 1, 1 ) 0.33333333333333337, 0.33333333333333337, 0.33333333333333337;
    ( 1, 1, 2, 3, 1, 2 ) 0.33333333333333337, 0.33333333333333337, 0.33333333333333337;
    ( 1, 1, 2, 3, 1, 3 ) 0.33333333333333337, 0.33333333333333337, 0.33333333333333337;
    ( 1, 1, 2, 3, 1, 4 ) 0.33333333333333337, 0.33333333333333337, 0.33333333333333337;
    ( 1, 1, 2, 3, 1, 5 ) 0.33333333333333337, 0.33333333333333337, 0.33333333333333337;
    ( 1, 1, 2, 3, 2, 1 ) 0.33333333333333337, 0.33333333333333337, 0.33333333333333337;
    ( 1, 1, 2, 3, 2, 2 ) 0.33333333333333337, 0.33333333333333337, 0.33333333333333337;
    ( 1, 1, 2, 3, 2, 3 ) 0.33333333333333337, 0.33333333333333337, 0.33333333333333337;
    ( 1, 1, 2, 3, 2, 4 ) 0.33333333333333337, 0.33333333333333337, 0.33333333333333337;
    ( 1, 1, 2, 3, 2, 5 ) 0.33333333333333337, 0.33333333333333337, 0.33333333333333337;
    ( 1, 1, 2, 3, 3, 1 ) 0.33333333333333337, 0.33333333333333337, 0.33333333333333337;
    ( 1, 1, 2, 3, 3, 2 ) 0.33333333333333337, 0.33333333333333337, 0.33333333333333337;
    ( 1, 1, 2, 3, 3, 3 ) 0.00017352073572791954, 0.9996529585285443, 0.00017352073572791954;
    ( 1, 1, 2, 3, 3, 4 ) 0.33333333333333337, 0.33333333333333337, 0.33333333333333337;
    ( 1, 1, 2, 3, 3, 5 ) 0.33333333333333337, 0.33333333333333337, 0.33333333333333337;
    ( 1, 1, 2, 3, 4, 1 ) 0.33333333333333337, 0.33333333333333337, 0.33333333333333337;
    ( 1, 1, 2, 3, 4, 2 ) 0.33333333333333337, 0.33333333333333337, 0.33333333333333337;
    ( 1, 1, 2, 3, 4, 3 ) 0.33333333333333337, 0.33333333333333337, 0.33333333333333337;
    ( 1, 1, 2, 3, 4, 4 ) 0.33333333333333337, 0.33333333333333337, 0.33333333333333337;
    ( 1, 1, 2, 3, 4, 5 ) 0.33333333333333337, 0.33333333333333337, 0.33333333333333337;
    ( 1, 1, 2, 3, 5, 1 ) 0.33333333333333337, 0.33333333333333337, 0.33333333333333337;
    ( 1, 1, 2, 3, 5, 2 ) 0.33333333333333337, 0.33333333333333337, 0.33333333333333337;
    ( 1, 1, 2, 3, 5, 3 ) 0.33333333333333337, 0.33333333333333337, 0.33333333333333337;
    ( 1, 1, 2, 3, 5, 4 ) 0.33333333333333337, 0.33333333333333337, 0.33333333333333337;
    ( 1, 1, 2, 3, 5, 5 ) 0.33333333333333337, 0.33333333333333337, 0.33333333333333337;
    ( 1, 1, 2, 4, 1, 1 ) 0.33333333333333337, 0.33333333333333337, 0.33333333333333337;
    ( 1, 1, 2, 4, 1, 2 ) 0.33333333333333337, 0.33333333333333337, 0.33333333333333337;
    ( 1, 1, 2, 4, 1, 3 ) 0.33333333333333337, 0.33333333333333337, 0.33333333333333337;
    ( 1, 1, 2, 4, 1, 4 ) 0.33333333333333337, 0.33333333333333337, 0.33333333333333337;
    ( 1, 1, 2, 4, 1, 5 ) 0.33333333333333337, 0.33333333333333337, 0.33333333333333337;
    ( 1, 1, 2, 4, 2, 1 ) 0.33333333333333337, 0.33333333333333337, 0.33333333333333337;
    ( 1, 1, 2, 4, 2, 2 ) 0.33333333333333337, 0.33333333333333337, 0.33333333333333337;
    ( 1, 1, 2, 4, 2, 3 ) 0.33333333333333337, 0.33333333333333337, 0.33333333333333337;
    ( 1, 1, 2, 4, 2, 4 ) 0.33333333333333337, 0.33333333333333337, 0.33333333333333337;
    ( 1, 1, 2, 4, 2, 5 ) 0.33333333333333337, 0.33333333333333337, 0.33333333333333337;
    ( 1, 1, 2, 4, 3, 1 ) 0.33333333333333337, 0.33333333333333337, 0.33333333333333337;
    ( 1, 1, 2, 4, 3, 2 ) 0.33333333333333337, 0.33333333333333337, 0.33333333333333337;
    ( 1, 1, 2, 4, 3, 3 ) 0.33333333333333337, 0.33333333333333337, 0.33333333333333337;
    ( 1, 1, 2, 4, 3, 4 ) 0.33333333333333337, 0.33333333333333337, 0.33333333333333337;
    ( 1, 1, 2, 4, 3, 5 ) 0.33333333333333337, 0.33333333333333337, 0.33333333333333337;
    ( 1, 1, 2, 4, 4, 1 ) 0.33333333333333337, 0.33333333333333337, 0.33333333333333337;
    ( 1, 1, 2, 4, 4, 2 ) 0.33333333333333337, 0.33333333333333337, 0.33333333333333337;
    ( 1, 1, 2, 4, 4, 3 ) 0.33333333333333337, 0.33333333333333337, 0.33333333333333337;
    ( 1, 1, 2, 4, 4, 4 ) 0.33333333333333337, 0.33333333333333337, 0.33333333333333337;
    ( 1, 1, 2, 4, 4, 5 ) 0.33333333333333337, 0.33333333333333337, 0.33333333333333337;
    ( 1, 1, 2, 4, 5, 1 ) 0.33333333333333337, 0.33333333333333337, 0.33333333333333337;
    ( 1, 1, 2, 4, 5, 2 ) 0.33333333333333337, 0.33333333333333337, 0.33333333333333337;
    ( 1, 1, 2, 4, 5, 3 ) 0.33333333333333337, 0.33333333333333337, 0.33333333333333337;
    ( 1, 1, 2, 4, 5, 4 ) 0.33333333333333337, 0.33333333333333337, 0.33333333333333337;
    ( 1, 1, 2, 4, 5, 5 ) 0.33333333333333337, 0.33333333333333337, 0.33333333333333337;
    ( 1, 1, 2, 5, 1, 1 ) 0.33333333333333337, 0.33333333333333337, 0.33333333333333337;
    ( 1, 1, 2, 5, 1, 2 ) 0.33333333333333337, 0.33333333333333337, 0.33333333333333337;
    ( 1, 1, 2, 5, 1, 3 ) 0.33333333333333337, 0.33333333333333337, 0.33333333333333337;
    ( 1, 1, 2, 5, 1, 4 ) 0.33333333333333337, 0.33333333333333337, 0.33333333333333337;
    ( 1, 1, 2, 5, 1, 5 ) 0.33333333333333337, 0.33333333333333337, 0.33333333333333337;
    ( 1, 1, 2, 5, 2, 1 ) 0.33333333333333337, 0.33333333333333337, 0.33333333333333337;
    ( 1, 1, 2, 5, 2, 2 ) 0.33333333333333337, 0.33333333333333337, 0.33333333333333337;
    ( 1, 1, 2, 5, 2, 3 ) 0.33333333333333337, 0.33333333333333337, 0.33333333333333337;
    ( 1, 1, 2, 5, 2, 4 ) 0.33333333333333337, 0.33333333333333337, 0.33333333333333337;
    ( 1, 1, 2, 5, 2, 5 ) 0.33333333333333337, 0.33333333333333337, 0.33333333333333337;
    ( 1, 1, 2, 5, 3, 1 ) 0.33333333333333337, 0.33333333333333337, 0.33333333333333337;
    ( 1, 1, 2, 5, 3, 2 ) 0.33333333333333337, 0.33333333333333337, 0.33333333333333337;
    ( 1, 1, 2, 5, 3, 3 ) 0.33333333333333337, 0.33333333333333337, 0.33333333333333337;
    ( 1, 1, 2, 5, 3, 4 ) 0.33333333333333337, 0.33333333333333337, 0.33333333333333337;
    ( 1, 1, 2, 5, 3, 5 ) 0.33333333333333337, 0.33333333333333337, 0.33333333333333337;
    ( 1, 1, 2, 5, 4, 1 ) 0.33333333333333337, 0.33333333333333337, 0.33333333333333337;
    ( 1, 1, 2, 5, 4, 2 ) 0.33333333333333337, 0.33333333333333337, 0.33333333333333337;
    ( 1, 1, 2, 5, 4, 3 ) 0.33333333333333337, 0.33333333333333337, 0.33333333333333337;
    ( 1, 1, 2, 5, 4, 4 ) 0.33333333333333337, 0.33333333333333337, 0.33333333333333337;
    ( 1, 1, 2, 5, 4, 5 ) 0.33333333333333337, 0.33333333333333337, 0.33333333333333337;
    ( 1, 1, 2, 5, 5, 1 ) 0.33333333333333337, 0.33333333333333337, 0.33333333333333337;
    ( 1, 1, 2, 5, 5, 2 ) 0.33333333333333337, 0.33333333333333337, 0.33333333333333337;
    ( 1, 1, 2, 5, 5, 3 ) 0.33333333333333337, 0.33333333333333337, 0.33333333333333337;
    ( 1, 1, 2, 5, 5, 4 ) 0.33333333333333337, 0.33333333333333337, 0.33333333333333337;
    ( 1, 1, 2, 5, 5, 5 ) 0.33333333333333337, 0.33333333333333337, 0.33333333333333337;
    ( 1, 1, 2, 6, 1, 1 ) 0.33333333333333337, 0.33333333333333337, 0.33333333333333337;
    ( 1, 1, 2, 6, 1, 2 ) 0.33333333333333337, 0.33333333333333337, 0.33333333333333337;
    ( 1, 1, 2, 6, 1, 3 ) 0.33333333333333337, 0.33333333333333337, 0.33333333333333337;
    ( 1, 1, 2, 6, 1, 4 ) 0.33333333333333337, 0.33333333333333337, 0.33333333333333337;
    ( 1, 1, 2, 6, 1, 5 ) 0.33333333333333337, 0.33333333333333337, 0.33333333333333337;
    ( 1, 1, 2, 6, 2, 1 ) 0.33333333333333337, 0.33333333333333337, 0.33333333333333337;
    ( 1, 1, 2, 6, 2, 2 ) 0.33333333333333337, 0.33333333333333337, 0.33333333333333337;
    ( 1, 1, 2, 6, 2, 3 ) 0.33333333333333337, 0.33333333333333337, 0.33333333333333337;
    ( 1, 1, 2, 6, 2, 4 ) 0.33333333333333337, 0.33333333333333337, 0.33333333333333337;
    ( 1, 1, 2, 6, 2, 5 ) 0.33333333333333337, 0.33333333333333337, 0.33333333333333337;
    ( 1, 1, 2, 6, 3, 1 ) 0.33333333333333337, 0.33333333333333337, 0.33333333333333337;
    ( 1, 1, 2, 6, 3, 2 ) 0.33333333333333337, 0.33333333333333337, 0.33333333333333337;
    ( 1, 1, 2, 6, 3, 3 ) 0.33333333333333337, 0.33333333333333337, 0.33333333333333337;
    ( 1, 1, 2, 6, 3, 4 ) 0.33333333333333337, 0.33333333333333337, 0.33333333333333337;
    ( 1, 1, 2, 6, 3, 5 ) 0.33333333333333337, 0.33333333333333337, 0.33333333333333337;
    ( 1, 1, 2, 6, 4, 1 ) 0.33333333333333337, 0.33333333333333337, 0.33333333333333337;
    ( 1, 1, 2, 6, 4, 2 ) 0.33333333333333337, 0.33333333333333337, 0.33333333333333337;
    ( 1, 1, 2, 6, 4, 3 ) 0.33333333333333337, 0.33333333333333337, 0.33333333333333337;
    ( 1, 1, 2, 6, 4, 4 ) 0.33333333333333337, 0.33333333333333337, 0.33333333333333337;
    ( 1, 1, 2, 6, 4, 5 ) 0.33333333333333337, 0.33333333333333337, 0.33333333333333337;
    ( 1, 1, 2, 6, 5, 1 ) 0.33333333333333337, 0.33333333333333337, 0.33333333333333337;
    ( 1, 1, 2, 6, 5, 2 ) 0.33333333333333337, 0.33333333333333337, 0.33333333333333337;
    ( 1, 1, 2, 6, 5, 3 ) 0.33333333333333337, 0.33333333333333337, 0.33333333333333337;
    ( 1, 1, 2, 6, 5, 4 ) 0.33333333333333337, 0.33333333333333337, 0.33333333333333337;
    ( 1, 1, 2, 6, 5, 5 ) 0.33333333333333337, 0.33333333333333337, 0.33333333333333337;
    ( 1, 1, 2, 7, 1, 1 ) 0.33333333333333337, 0.33333333333333337, 0.33333333333333337;
    ( 1, 1, 2, 7, 1, 2 ) 0.33333333333333337, 0.33333333333333337, 0.33333333333333337;
    ( 1, 1, 2, 7, 1, 3 ) 0.33333333333333337, 0.33333333333333337, 0.33333333333333337;
    ( 1, 1, 2, 7, 1, 4 ) 0.33333333333333337, 0.33333333333333337, 0.33333333333333337;
    ( 1, 1, 2, 7, 1, 5 ) 0.33333333333333337, 0.33333333333333337, 0.33333333333333337;
    ( 1, 1, 2, 7, 2, 1 ) 0.33333333333333337, 0.33333333333333337, 0.33333333333333337;
    ( 1, 1, 2, 7, 2, 2 ) 0.33333333333333337, 0.33333333333333337, 0.33333333333333337;
    ( 1, 1, 2, 7, 2, 3 ) 0.33333333333333337, 0.33333333333333337, 0.33333333333333337;
    ( 1, 1, 2, 7, 2, 4 ) 0.33333333333333337, 0.33333333333333337, 0.33333333333333337;
    ( 1, 1, 2, 7, 2, 5 ) 0.33333333333333337, 0.33333333333333337, 0.33333333333333337;
    ( 1, 1, 2, 7, 3, 1 ) 0.33333333333333337, 0.33333333333333337, 0.33333333333333337;
    ( 1, 1, 2, 7, 3, 2 ) 0.33333333333333337, 0.33333333333333337, 0.33333333333333337;
    ( 1, 1, 2, 7, 3, 3 ) 0.33333333333333337, 0.33333333333333337, 0.33333333333333337;
    ( 1, 1, 2, 7, 3, 4 ) 0.33333333333333337, 0.33333333333333337, 0.33333333333333337;
    ( 1, 1, 2, 7, 3, 5 ) 0.33333333333333337, 0.33333333333333337, 0.33333333333333337;
    ( 1, 1, 2, 7, 4, 1 ) 0.33333333333333337, 0.33333333333333337, 0.33333333333333337;
    ( 1, 1, 2, 7, 4, 2 ) 0.33333333333333337, 0.33333333333333337, 0.33333333333333337;
    ( 1, 1, 2, 7, 4, 3 ) 0.33333333333333337, 0.33333333333333337, 0.33333333333333337;
    ( 1, 1, 2, 7, 4, 4 ) 0.33333333333333337, 0.33333333333333337, 0.33333333333333337;
    ( 1, 1, 2, 7, 4, 5 ) 0.33333333333333337, 0.33333333333333337, 0.33333333333333337;
    ( 1, 1, 2, 7, 5, 1 ) 0.33333333333333337, 0.33333333333333337, 0.33333333333333337;
    ( 1, 1, 2, 7, 5, 2 ) 0.33333333333333337, 0.33333333333333337, 0.33333333333333337;
    ( 1, 1, 2, 7, 5, 3 ) 0.33333333333333337, 0.33333333333333337, 0.33333333333333337;
    ( 1, 1, 2, 7, 5, 4 ) 0.33333333333333337, 0.33333333333333337, 0.33333333333333337;
    ( 1, 1, 2, 7, 5, 5 ) 0.33333333333333337, 0.33333333333333337, 0.33333333333333337;
    ( 1, 1, 2, 8, 1, 1 ) 0.33333333333333337, 0.33333333333333337, 0.33333333333333337;
    ( 1, 1, 2, 8, 1, 2 ) 0.33333333333333337, 0.33333333333333337, 0.33333333333333337;
    ( 1, 1, 2, 8, 1, 3 ) 0.33333333333333337, 0.33333333333333337, 0.33333333333333337;
    ( 1, 1, 2, 8, 1, 4 ) 0.33333333333333337, 0.33333333333333337, 0.33333333333333337;
    ( 1, 1, 2, 8, 1, 5 ) 0.33333333333333337, 0.33333333333333337, 0.33333333333333337;
    ( 1, 1, 2, 8, 2, 1 ) 0.33333333333333337, 0.33333333333333337, 0.33333333333333337;
    ( 1, 1, 2, 8, 2, 2 ) 0.33333333333333337, 0.33333333333333337, 0.33333333333333337;
    ( 1, 1, 2, 8, 2, 3 ) 0.33333333333333337, 0.33333333333333337, 0.33333333333333337;
    ( 1, 1, 2, 8, 2, 4 ) 0.33333333333333337, 0.33333333333333337, 0.33333333333333337;
    ( 1, 1, 2, 8, 2, 5 ) 0.33333333333333337, 0.33333333333333337, 0.33333333333333337;
    ( 1, 1, 2, 8, 3, 1 ) 0.33333333333333337, 0.33333333333333337, 0.33333333333333337;
    ( 1, 1, 2, 8, 3, 2 ) 0.33333333333333337, 0.33333333333333337, 0.33333333333333337;
    ( 1, 1, 2, 8, 3, 3 ) 0.33333333333333337, 0.33333333333333337, 0.33333333333333337;
    ( 1, 1, 2, 8, 3, 4 ) 0.33333333333333337, 0.33333333333333337, 0.33333333333333337;
    ( 1, 1, 2, 8, 3, 5 ) 0.33333333333333337, 0.33333333333333337, 0.33333333333333337;
    ( 1, 1, 2, 8, 4, 1 ) 0.33333333333333337, 0.33333333333333337, 0.33333333333333337;
    ( 1, 1, 2, 8, 4, 2 ) 0.33333333333333337, 0.33333333333333337, 0.33333333333333337;
    ( 1, 1, 2, 8, 4, 3 ) 0.33333333333333337, 0.33333333333333337, 0.33333333333333337;
    ( 1, 1, 2, 8, 4, 4 ) 0.33333333333333337, 0.33333333333333337, 0.33333333333333337;
    ( 1, 1, 2, 8, 4, 5 ) 0.33333333333333337, 0.33333333333333337, 0.33333333333333337;
    ( 1, 1, 2, 8, 5, 1 ) 0.33333333333333337, 0.33333333333333337, 0.33333333333333337;
    ( 1, 1, 2, 8, 5, 2 ) 0.33333333333333337, 0.33333333333333337, 0.33333333333333337;
    ( 1, 1, 2, 8, 5, 3 ) 0.33333333333333337, 0.33333333333333337, 0.33333333333333337;
    ( 1, 1, 2, 8, 5, 4 ) 0.33333333333333337, 0.33333333333333337, 0.33333333333333337;
    ( 1, 1, 2, 8, 5, 5 ) 0.33333333333333337, 0.33333333333333337, 0.33333333333333337;
    ( 1, 2, 1, 1, 1, 1 ) 0.33333333333333337, 0.33333333333333337, 0.33333333333333337;
    ( 1, 2, 1, 1, 1, 2 ) 0.33333333333333337, 0.33333333333333337, 0.33333333333333337;
    ( 1, 2, 1, 1, 1, 3 ) 0.33333333333333337, 0.33333333333333337, 0.33333333333333337;
    ( 1, 2, 1, 1, 1, 4 ) 0.33333333333333337, 0.33333333333333337, 0.33333333333333337;
    ( 1, 2, 1, 1, 1, 5 ) 0.33333333333333337, 0.33333333333333337, 0.33333333333333337;
    ( 1, 2, 1, 1, 2, 1 ) 0.33333333333333337, 0.33333333333333337, 0.33333333333333337;
    ( 1, 2, 1, 1, 2, 2 ) 0.33333333333333337, 0.33333333333333337, 0.33333333333333337;
    ( 1, 2, 1, 1, 2, 3 ) 0.33333333333333337, 0.33333333333333337, 0.33333333333333337;
    ( 1, 2, 1, 1, 2, 4 ) 0.33333333333333337, 0.33333333333333337, 0.33333333333333337;
    ( 1, 2, 1, 1, 2, 5 ) 0.33333333333333337, 0.33333333333333337, 0.33333333333333337;
    ( 1, 2, 1, 1, 3, 1 ) 0.33333333333333337, 0.33333333333333337, 0.33333333333333337;
    ( 1, 2, 1, 1, 3, 2 ) 0.33333333333333337, 0.33333333333333337, 0.33333333333333337;
    ( 1, 2, 1, 1, 3, 3 ) 0.33333333333333337, 0.33333333333333337, 0.33333333333333337;
    ( 1, 2, 1, 1, 3, 4 ) 0.33333333333333337, 0.33333333333333337, 0.33333333333333337;
    ( 1, 2, 1, 1, 3, 5 ) 0.33333333333333337, 0.33333333333333337, 0.33333333333333337;
    ( 1, 2, 1, 1, 4, 1 ) 0.33333333333333337, 0.33333333333333337, 0.33333333333333337;
    ( 1, 2, 1, 1, 4, 2 ) 0.33333333333333337, 0.33333333333333337, 0.33333333333333337;
    ( 1, 2, 1, 1, 4, 3 ) 0.33333333333333337, 0.33333333333333337, 0.33333333333333337;
    ( 1, 2, 1, 1, 4, 4 ) 0.33333333333333337, 0.33333333333333337, 0.33333333333333337;
    ( 1, 2, 1, 1, 4, 5 ) 0.33333333333333337, 0.33333333333333337, 0.33333333333333337;
    ( 1, 2, 1, 1, 5, 1 ) 0.33333333333333337, 0.33333333333333337, 0.33333333333333337;
    ( 1, 2, 1, 1, 5, 2 ) 0.33333333333333337, 0.33333333333333337, 0.33333333333333337;
    ( 1, 2, 1, 1, 5, 3 ) 0.33333333333333337, 0.33333333333333337, 0.33333333333333337;
    ( 1, 2, 1, 1, 5, 4 ) 0.33333333333333337, 0.33333333333333337, 0.33333333333333337;
    ( 1, 2, 1, 1, 5, 5 ) 0.33333333333333337, 0.33333333333333337, 0.33333333333333337;
    ( 1, 2, 1, 2, 1, 1 ) 0.33333333333333337, 0.33333333333333337, 0.33333333333333337;
    ( 1, 2, 1, 2, 1, 2 ) 0.33333333333333337, 0.33333333333333337, 0.33333333333333337;
    ( 1, 2, 1, 2, 1, 3 ) 0.33333333333333337, 0.33333333333333337, 0.33333333333333337;
    ( 1, 2, 1, 2, 1, 4 ) 0.33333333333333337, 0.33333333333333337, 0.33333333333333337;
    ( 1, 2, 1, 2, 1, 5 ) 0.33333333333333337, 0.33333333333333337, 0.33333333333333337;
    ( 1, 2, 1, 2, 2, 1 ) 0.33333333333333337, 0.33333333333333337, 0.33333333333333337;
    ( 1, 2, 1, 2, 2, 2 ) 0.33333333333333337, 0.33333333333333337, 0.33333333333333337;
    ( 1, 2, 1, 2, 2, 3 ) 0.33333333333333337, 0.33333333333333337, 0.33333333333333337;
    ( 1, 2, 1, 2, 2, 4 ) 0.33333333333333337, 0.33333333333333337, 0.33333333333333337;
    ( 1, 2, 1, 2, 2, 5 ) 0.33333333333333337, 0.33333333333333337, 0.33333333333333337;
    ( 1, 2, 1, 2, 3, 1 ) 0.33333333333333337, 0.33333333333333337, 0.33333333333333337;
    ( 1, 2, 1, 2, 3, 2 ) 0.33333333333333337, 0.33333333333333337, 0.33333333333333337;
    ( 1, 2, 1, 2, 3, 3 ) 0.33333333333333337, 0.33333333333333337, 0.33333333333333337;
    ( 1, 2, 1, 2, 3, 4 ) 0.33333333333333337, 0.33333333333333337, 0.33333333333333337;
    ( 1, 2, 1, 2, 3, 5 ) 0.33333333333333337, 0.33333333333333337, 0.33333333333333337;
    ( 1, 2, 1, 2, 4, 1 ) 0.33333333333333337, 0.33333333333333337, 0.33333333333333337;
    ( 1, 2, 1, 2, 4, 2 ) 0.33333333333333337, 0.33333333333333337, 0.33333333333333337;
    ( 1, 2, 1, 2, 4, 3 ) 0.33333333333333337, 0.33333333333333337, 0.33333333333333337;
    ( 1, 2, 1, 2, 4, 4 ) 0.33333333333333337, 0.33333333333333337, 0.33333333333333337;
    ( 1, 2, 1, 2, 4, 5 ) 0.33333333333333337, 0.33333333333333337, 0.33333333333333337;
    ( 1, 2, 1, 2, 5, 1 ) 0.33333333333333337, 0.33333333333333337, 0.33333333333333337;
    ( 1, 2, 1, 2, 5, 2 ) 0.33333333333333337, 0.33333333333333337, 0.33333333333333337;
    ( 1, 2, 1, 2, 5, 3 ) 0.33333333333333337, 0.33333333333333337, 0.33333333333333337;
    ( 1, 2, 1, 2, 5, 4 ) 0.33333333333333337, 0.33333333333333337, 0.33333333333333337;
    ( 1, 2, 1, 2, 5, 5 ) 0.33333333333333337, 0.33333333333333337, 0.33333333333333337;
    ( 1, 2, 1, 3, 1, 1 ) 0.33333333333333337, 0.33333333333333337, 0.33333333333333337;
    ( 1, 2, 1, 3, 1, 2 ) 0.33333333333333337, 0.33333333333333337, 0.33333333333333337;
    ( 1, 2, 1, 3, 1, 3 ) 0.33333333333333337, 0.33333333333333337, 0.33333333333333337;
    ( 1, 2, 1, 3, 1, 4 ) 0.33333333333333337, 0.33333333333333337, 0.33333333333333337;
    ( 1, 2, 1, 3, 1, 5 ) 0.33333333333333337, 0.33333333333333337, 0.33333333333333337;
    ( 1, 2, 1, 3, 2, 1 ) 0.33333333333333337, 0.33333333333333337, 0.33333333333333337;
    ( 1, 2, 1, 3, 2, 2 ) 0.33333333333333337, 0.33333333333333337, 0.33333333333333337;
    ( 1, 2, 1, 3, 2, 3 ) 0.33333333333333337, 0.33333333333333337, 0.33333333333333337;
    ( 1, 2, 1, 3, 2, 4 ) 0.33333333333333337, 0.33333333333333337, 0.33333333333333337;
    ( 1, 2, 1, 3, 2, 5 ) 0.33333333333333337, 0.33333333333333337, 0.33333333333333337;
    ( 1, 2, 1, 3, 3, 1 ) 0.33333333333333337, 0.33333333333333337, 0.33333333333333337;
    ( 1, 2, 1, 3, 3, 2 ) 0.33333333333333337, 0.33333333333333337, 0.33333333333333337;
    ( 1, 2, 1, 3, 3, 3 ) 0.33333333333333337, 0.33333333333333337, 0.33333333333333337;
    ( 1, 2, 1, 3, 3, 4 ) 0.33333333333333337, 0.33333333333333337, 0.33333333333333337;
    ( 1, 2, 1, 3, 3, 5 ) 0.33333333333333337, 0.33333333333333337, 0.33333333333333337;
    ( 1, 2, 1, 3, 4, 1 ) 0.33333333333333337, 0.33333333333333337, 0.33333333333333337;
    ( 1, 2, 1, 3, 4, 2 ) 0.33333333333333337, 0.33333333333333337, 0.33333333333333337;
    ( 1, 2, 1, 3, 4, 3 ) 0.33333333333333337, 0.33333333333333337, 0.33333333333333337;
    ( 1, 2, 1, 3, 4, 4 ) 0.33333333333333337, 0.33333333333333337, 0.33333333333333337;
    ( 1, 2, 1, 3, 4, 5 ) 0.33333333333333337, 0.33333333333333337, 0.33333333333333337;
    ( 1, 2, 1, 3, 5, 1 ) 0.33333333333333337, 0.33333333333333337, 0.33333333333333337;
    ( 1, 2, 1, 3, 5, 2 ) 0.33333333333333337, 0.33333333333333337, 0.33333333333333337;
    ( 1, 2, 1, 3, 5, 3 ) 0.33333333333333337, 0.33333333333333337, 0.33333333333333337;
    ( 1, 2, 1, 3, 5, 4 ) 0.33333333333333337, 0.33333333333333337, 0.33333333333333337;
    ( 1, 2, 1, 3, 5, 5 ) 0.33333333333333337, 0.33333333333333337, 0.33333333333333337;
    ( 1, 2, 1, 4, 1, 1 ) 0.33333333333333337, 0.33333333333333337, 0.33333333333333337;
    ( 1, 2, 1, 4, 1, 2 ) 0.33333333333333337, 0.33333333333333337, 0.33333333333333337;
    ( 1, 2, 1, 4, 1, 3 ) 0.33333333333333337, 0.33333333333333337, 0.33333333333333337;
    ( 1, 2, 1, 4, 1, 4 ) 0.33333333333333337, 0.33333333333333337, 0.33333333333333337;
    ( 1, 2, 1, 4, 1, 5 ) 0.33333333333333337, 0.33333333333333337, 0.33333333333333337;
    ( 1, 2, 1, 4, 2, 1 ) 0.33333333333333337, 0.33333333333333337, 0.33333333333333337;
    ( 1, 2, 1, 4, 2, 2 ) 0.33333333333333337, 0.33333333333333337, 0.33333333333333337;
    ( 1, 2, 1, 4, 2, 3 ) 0.33333333333333337, 0.33333333333333337, 0.33333333333333337;
    ( 1, 2, 1, 4, 2, 4 ) 0.33333333333333337, 0.33333333333333337, 0.33333333333333337;
    ( 1, 2, 1, 4, 2, 5 ) 0.33333333333333337, 0.33333333333333337, 0.33333333333333337;
    ( 1, 2, 1, 4, 3, 1 ) 0.33333333333333337, 0.33333333333333337, 0.33333333333333337;
    ( 1, 2, 1, 4, 3, 2 ) 0.33333333333333337, 0.33333333333333337, 0.33333333333333337;
    ( 1, 2, 1, 4, 3, 3 ) 0.33333333333333337, 0.33333333333333337, 0.33333333333333337;
    ( 1, 2, 1, 4, 3, 4 ) 0.33333333333333337, 0.33333333333333337, 0.33333333333333337;
    ( 1, 2, 1, 4, 3, 5 ) 0.33333333333333337, 0.33333333333333337, 0.33333333333333337;
    ( 1, 2, 1, 4, 4, 1 ) 0.33333333333333337, 0.33333333333333337, 0.33333333333333337;
    ( 1, 2, 1, 4, 4, 2 ) 0.33333333333333337, 0.33333333333333337, 0.33333333333333337;
    ( 1, 2, 1, 4, 4, 3 ) 0.33333333333333337, 0.33333333333333337, 0.33333333333333337;
    ( 1, 2, 1, 4, 4, 4 ) 0.33333333333333337, 0.33333333333333337, 0.33333333333333337;
    ( 1, 2, 1, 4, 4, 5 ) 0.33333333333333337, 0.33333333333333337, 0.33333333333333337;
    ( 1, 2, 1, 4, 5, 1 ) 0.33333333333333337, 0.33333333333333337, 0.33333333333333337;
    ( 1, 2, 1, 4, 5, 2 ) 0.33333333333333337, 0.33333333333333337, 0.33333333333333337;
    ( 1, 2, 1, 4, 5, 3 ) 0.33333333333333337, 0.33333333333333337, 0.33333333333333337;
    ( 1, 2, 1, 4, 5, 4 ) 0.33333333333333337, 0.33333333333333337, 0.33333333333333337;
    ( 1, 2, 1, 4, 5, 5 ) 0.33333333333333337, 0.33333333333333337, 0.33333333333333337;
    ( 1, 2, 1, 5, 1, 1 ) 0.33333333333333337, 0.33333333333333337, 0.33333333333333337;
    ( 1, 2, 1, 5, 1, 2 ) 0.33333333333333337, 0.33333333333333337, 0.33333333333333337;
    ( 1, 2, 1, 5, 1, 3 ) 0.33333333333333337, 0.33333333333333337, 0.33333333333333337;
    ( 1, 2, 1, 5, 1, 4 ) 0.33333333333333337, 0.33333333333333337, 0.33333333333333337;
    ( 1, 2, 1, 5, 1, 5 ) 0.33333333333333337, 0.33333333333333337, 0.33333333333333337;
    ( 1, 2, 1, 5, 2, 1 ) 0.33333333333333337, 0.33333333333333337, 0.33333333333333337;
    ( 1, 2, 1, 5, 2, 2 ) 0.33333333333333337, 0.33333333333333337, 0.33333333333333337;
    ( 1, 2, 1, 5, 2, 3 ) 0.33333333333333337, 0.33333333333333337, 0.33333333333333337;
    ( 1, 2, 1, 5, 2, 4 ) 0.33333333333333337, 0.33333333333333337, 0.33333333333333337;
    ( 1, 2, 1, 5, 2, 5 ) 0.33333333333333337, 0.33333333333333337, 0.33333333333333337;
    ( 1, 2, 1, 5, 3, 1 ) 0.33333333333333337, 0.33333333333333337, 0.33333333333333337;
    ( 1, 2, 1, 5, 3, 2 ) 0.33333333333333337, 0.33333333333333337, 0.33333333333333337;
    ( 1, 2, 1, 5, 3, 3 ) 0.33333333333333337, 0.33333333333333337, 0.33333333333333337;
    ( 1, 2, 1, 5, 3, 4 ) 0.33333333333333337, 0.33333333333333337, 0.33333333333333337;
    ( 1, 2, 1, 5, 3, 5 ) 0.33333333333333337, 0.33333333333333337, 0.33333333333333337;
    ( 1, 2, 1, 5, 4, 1 ) 0.33333333333333337, 0.33333333333333337, 0.33333333333333337;
    ( 1, 2, 1, 5, 4, 2 ) 0.33333333333333337, 0.33333333333333337, 0.33333333333333337;
    ( 1, 2, 1, 5, 4, 3 ) 0.33333333333333337, 0.33333333333333337, 0.33333333333333337;
    ( 1, 2, 1, 5, 4, 4 ) 0.33333333333333337, 0.33333333333333337, 0.33333333333333337;
    ( 1, 2, 1, 5, 4, 5 ) 0.33333333333333337, 0.33333333333333337, 0.33333333333333337;
    ( 1, 2, 1, 5, 5, 1 ) 0.33333333333333337, 0.33333333333333337, 0.33333333333333337;
    ( 1, 2, 1, 5, 5, 2 ) 0.33333333333333337, 0.33333333333333337, 0.33333333333333337;
    ( 1, 2, 1, 5, 5, 3 ) 0.33333333333333337, 0.33333333333333337, 0.33333333333333337;
    ( 1, 2, 1, 5, 5, 4 ) 0.33333333333333337, 0.33333333333333337, 0.33333333333333337;
    ( 1, 2, 1, 5, 5, 5 ) 0.33333333333333337, 0.33333333333333337, 0.33333333333333337;
    ( 1, 2, 1, 6, 1, 1 ) 0.33333333333333337, 0.33333333333333337, 0.33333333333333337;
    ( 1, 2, 1, 6, 1, 2 ) 0.33333333333333337, 0.33333333333333337, 0.33333333333333337;
    ( 1, 2, 1, 6, 1, 3 ) 0.33333333333333337, 0.33333333333333337, 0.33333333333333337;
    ( 1, 2, 1, 6, 1, 4 ) 0.33333333333333337, 0.33333333333333337, 0.33333333333333337;
    ( 1, 2, 1, 6, 1, 5 ) 0.33333333333333337, 0.33333333333333337, 0.33333333333333337;
    ( 1, 2, 1, 6, 2, 1 ) 0.33333333333333337, 0.33333333333333337, 0.33333333333333337;
    ( 1, 2, 1, 6, 2, 2 ) 0.33333333333333337, 0.33333333333333337, 0.33333333333333337;
    ( 1, 2, 1, 6, 2, 3 ) 0.33333333333333337, 0.33333333333333337, 0.33333333333333337;
    ( 1, 2, 1, 6, 2, 4 ) 0.33333333333333337, 0.33333333333333337, 0.33333333333333337;
    ( 1, 2, 1, 6, 2, 5 ) 0.33333333333333337, 0.33333333333333337, 0.33333333333333337;
    ( 1, 2, 1, 6, 3, 1 ) 0.33333333333333337, 0.33333333333333337, 0.33333333333333337;
    ( 1, 2, 1, 6, 3, 2 ) 0.33333333333333337, 0.33333333333333337, 0.33333333333333337;
    ( 1, 2, 1, 6, 3, 3 ) 0.33333333333333337, 0.33333333333333337, 0.33333333333333337;
    ( 1, 2, 1, 6, 3, 4 ) 0.33333333333333337, 0.33333333333333337, 0.33333333333333337;
    ( 1, 2, 1, 6, 3, 5 ) 0.33333333333333337, 0.33333333333333337, 0.33333333333333337;
    ( 1, 2, 1, 6, 4, 1 ) 0.33333333333333337, 0.33333333333333337, 0.33333333333333337;
    ( 1, 2, 1, 6, 4, 2 ) 0.33333333333333337, 0.33333333333333337, 0.33333333333333337;
    ( 1, 2, 1, 6, 4, 3 ) 0.33333333333333337, 0.33333333333333337, 0.33333333333333337;
    ( 1, 2, 1, 6, 4, 4 ) 0.33333333333333337, 0.33333333333333337, 0.33333333333333337;
    ( 1, 2, 1, 6, 4, 5 ) 0.33333333333333337, 0.33333333333333337, 0.33333333333333337;
    ( 1, 2, 1, 6, 5, 1 ) 0.33333333333333337, 0.33333333333333337, 0.33333333333333337;
    ( 1, 2, 1, 6, 5, 2 ) 0.33333333333333337, 0.33333333333333337, 0.33333333333333337;
    ( 1, 2, 1, 6, 5, 3 ) 0.33333333333333337, 0.33333333333333337, 0.33333333333333337;
    ( 1, 2, 1, 6, 5, 4 ) 0.33333333333333337, 0.33333333333333337, 0.33333333333333337;
    ( 1, 2, 1, 6, 5, 5 ) 0.33333333333333337, 0.33333333333333337, 0.33333333333333337;
    ( 1, 2, 1, 7, 1, 1 ) 0.33333333333333337, 0.33333333333333337, 0.33333333333333337;
    ( 1, 2, 1, 7, 1, 2 ) 0.33333333333333337, 0.33333333333333337, 0.33333333333333337;
    ( 1, 2, 1, 7, 1, 3 ) 0.33333333333333337, 0.33333333333333337, 0.33333333333333337;
    ( 1, 2, 1, 7, 1, 4 ) 0.33333333333333337, 0.33333333333333337, 0.33333333333333337;
    ( 1, 2, 1, 7, 1, 5 ) 0.33333333333333337, 0.33333333333333337, 0.33333333333333337;
    ( 1, 2, 1, 7, 2, 1 ) 0.33333333333333337, 0.33333333333333337, 0.33333333333333337;
    ( 1, 2, 1, 7, 2, 2 ) 0.33333333333333337, 0.33333333333333337, 0.33333333333333337;
    ( 1, 2, 1, 7, 2, 3 ) 0.33333333333333337, 0.33333333333333337, 0.33333333333333337;
    ( 1, 2, 1, 7, 2, 4 ) 0.33333333333333337, 0.33333333333333337, 0.33333333333333337;
    ( 1, 2, 1, 7, 2, 5 ) 0.33333333333333337, 0.33333333333333337, 0.33333333333333337;
    ( 1, 2, 1, 7, 3, 1 ) 0.33333333333333337, 0.33333333333333337, 0.33333333333333337;
    ( 1, 2, 1, 7, 3, 2 ) 0.33333333333333337, 0.33333333333333337, 0.33333333333333337;
    ( 1, 2, 1, 7, 3, 3 ) 0.33333333333333337, 0.33333333333333337, 0.33333333333333337;
    ( 1, 2, 1, 7, 3, 4 ) 0.33333333333333337, 0.33333333333333337, 0.33333333333333337;
    ( 1, 2, 1, 7, 3, 5 ) 0.33333333333333337, 0.33333333333333337, 0.33333333333333337;
    ( 1, 2, 1, 7, 4, 1 ) 0.33333333333333337, 0.33333333333333337, 0.33333333333333337;
    ( 1, 2, 1, 7, 4, 2 ) 0.33333333333333337, 0.33333333333333337, 0.33333333333333337;
    ( 1, 2, 1, 7, 4, 3 ) 0.33333333333333337, 0.33333333333333337, 0.33333333333333337;
    ( 1, 2, 1, 7, 4, 4 ) 0.33333333333333337, 0.33333333333333337, 0.33333333333333337;
    ( 1, 2, 1, 7, 4, 5 ) 0.33333333333333337, 0.33333333333333337, 0.33333333333333337;
    ( 1, 2, 1, 7, 5, 1 ) 0.33333333333333337, 0.33333333333333337, 0.33333333333333337;
    ( 1, 2, 1, 7, 5, 2 ) 0.33333333333333337, 0.33333333333333337, 0.33333333333333337;
    ( 1, 2, 1, 7, 5, 3 ) 0.33333333333333337, 0.33333333333333337, 0.33333333333333337;
    ( 1, 2, 1, 7, 5, 4 ) 0.33333333333333337, 0.33333333333333337, 0.33333333333333337;
    ( 1, 2, 1, 7, 5, 5 ) 0.33333333333333337, 0.33333333333333337, 0.33333333333333337;
    ( 1, 2, 1, 8, 1, 1 ) 0.33333333333333337, 0.33333333333333337, 0.33333333333333337;
    ( 1, 2, 1, 8, 1, 2 ) 0.33333333333333337, 0.33333333333333337, 0.33333333333333337;
    ( 1, 2, 1, 8, 1, 3 ) 0.33333333333333337, 0.33333333333333337, 0.33333333333333337;
    ( 1, 2, 1, 8, 1, 4 ) 0.33333333333333337, 0.33333333333333337, 0.33333333333333337;
    ( 1, 2, 1, 8, 1, 5 ) 0.33333333333333337, 0.33333333333333337, 0.33333333333333337;
    ( 1, 2, 1, 8, 2, 1 ) 0.33333333333333337, 0.33333333333333337, 0.33333333333333337;
    ( 1, 2, 1, 8, 2, 2 ) 0.33333333333333337, 0.33333333333333337, 0.33333333333333337;
    ( 1, 2, 1, 8, 2, 3 ) 0.33333333333333337, 0.33333333333333337, 0.33333333333333337;
    ( 1, 2, 1, 8, 2, 4 ) 0.33333333333333337, 0.33333333333333337, 0.33333333333333337;
    ( 1, 2, 1, 8, 2, 5 ) 0.33333333333333337, 0.33333333333333337, 0.33333333333333337;
    ( 1, 2, 1, 8, 3, 1 ) 0.33333333333333337, 0.33333333333333337, 0.33333333333333337;
    ( 1, 2, 1, 8, 3, 2 ) 0.33333333333333337, 0.33333333333333337, 0.33333333333333337;
    ( 1, 2, 1, 8, 3, 3 ) 0.33333333333333337, 0.33333333333333337, 0.33333333333333337;
    ( 1, 2, 1, 8, 3, 4 ) 0.33333333333333337, 0.33333333333333337, 0.33333333333333337;
    ( 1, 2, 1, 8, 3, 5 ) 0.33333333333333337, 0.33333333333333337, 0.33333333333333337;
    ( 1, 2, 1, 8, 4, 1 ) 0.33333333333333337, 0.33333333333333337, 0.33333333333333337;
    ( 1, 2, 1, 8, 4, 2 ) 0.33333333333333337, 0.33333333333333337, 0.33333333333333337;
    ( 1, 2, 1, 8, 4, 3 ) 0.33333333333333337, 0.33333333333333337, 0.33333333333333337;
    ( 1, 2, 1, 8, 4, 4 ) 0.33333333333333337, 0.33333333333333337, 0.33333333333333337;
    ( 1, 2, 1, 8, 4, 5 ) 0.33333333333333337, 0.33333333333333337, 0.33333333333333337;
    ( 1, 2, 1, 8, 5, 1 ) 0.33333333333333337, 0.33333333333333337, 0.33333333333333337;
    ( 1, 2, 1, 8, 5, 2 ) 0.33333333333333337, 0.33333333333333337, 0.33333333333333337;
    ( 1, 2, 1, 8, 5, 3 ) 0.33333333333333337, 0.33333333333333337, 0.33333333333333337;
    ( 1, 2, 1, 8, 5, 4 ) 0.33333333333333337, 0.33333333333333337, 0.33333333333333337;
    ( 1, 2, 1, 8, 5, 5 ) 0.33333333333333337, 0.33333333333333337, 0.33333333333333337;
    ( 1, 2, 2, 1, 1, 1 ) 0.33333333333333337, 0.33333333333333337, 0.33333333333333337;
    ( 1, 2, 2, 1, 1, 2 ) 0.33333333333333337, 0.33333333333333337, 0.33333333333333337;
    ( 1, 2, 2, 1, 1, 3 ) 0.33333333333333337, 0.33333333333333337, 0.33333333333333337;
    ( 1, 2, 2, 1, 1, 4 ) 0.33333333333333337, 0.33333333333333337, 0.33333333333333337;
    ( 1, 2, 2, 1, 1, 5 ) 0.33333333333333337, 0.33333333333333337, 0.33333333333333337;
    ( 1, 2, 2, 1, 2, 1 ) 0.33333333333333337, 0.33333333333333337, 0.33333333333333337;
    ( 1, 2, 2, 1, 2, 2 ) 0.33333333333333337, 0.33333333333333337, 0.33333333333333337;
    ( 1, 2, 2, 1, 2, 3 ) 0.33333333333333337, 0.33333333333333337, 0.33333333333333337;
    ( 1, 2, 2, 1, 2, 4 ) 0.33333333333333337, 0.33333333333333337, 0.33333333333333337;
    ( 1, 2, 2, 1, 2, 5 ) 0.33333333333333337, 0.33333333333333337, 0.33333333333333337;
    ( 1, 2, 2, 1, 3, 1 ) 0.33333333333333337, 0.33333333333333337, 0.33333333333333337;
    ( 1, 2, 2, 1, 3, 2 ) 0.33333333333333337, 0.33333333333333337, 0.33333333333333337;
    ( 1, 2, 2, 1, 3, 3 ) 0.33333333333333337, 0.33333333333333337, 0.33333333333333337;
    ( 1, 2, 2, 1, 3, 4 ) 0.33333333333333337, 0.33333333333333337, 0.33333333333333337;
    ( 1, 2, 2, 1, 3, 5 ) 0.33333333333333337, 0.33333333333333337, 0.33333333333333337;
    ( 1, 2, 2, 1, 4, 1 ) 0.33333333333333337, 0.33333333333333337, 0.33333333333333337;
    ( 1, 2, 2, 1, 4, 2 ) 0.33333333333333337, 0.33333333333333337, 0.33333333333333337;
    ( 1, 2, 2, 1, 4, 3 ) 0.33333333333333337, 0.33333333333333337, 0.33333333333333337;
    ( 1, 2, 2, 1, 4, 4 ) 0.33333333333333337, 0.33333333333333337, 0.33333333333333337;
    ( 1, 2, 2, 1, 4, 5 ) 0.33333333333333337, 0.33333333333333337, 0.33333333333333337;
    ( 1, 2, 2, 1, 5, 1 ) 0.33333333333333337, 0.33333333333333337, 0.33333333333333337;
    ( 1, 2, 2, 1, 5, 2 ) 0.33333333333333337, 0.33333333333333337, 0.33333333333333337;
    ( 1, 2, 2, 1, 5, 3 ) 0.33333333333333337, 0.33333333333333337, 0.33333333333333337;
    ( 1, 2, 2, 1, 5, 4 ) 0.33333333333333337, 0.33333333333333337, 0.33333333333333337;
    ( 1, 2, 2, 1, 5, 5 ) 0.33333333333333337, 0.33333333333333337, 0.33333333333333337;
    ( 1, 2, 2, 2, 1, 1 ) 0.33333333333333337, 0.33333333333333337, 0.33333333333333337;
    ( 1, 2, 2, 2, 1, 2 ) 0.33333333333333337, 0.33333333333333337, 0.33333333333333337;
    ( 1, 2, 2, 2, 1, 3 ) 0.33333333333333337, 0.33333333333333337, 0.33333333333333337;
    ( 1, 2, 2, 2, 1, 4 ) 0.33333333333333337, 0.33333333333333337, 0.33333333333333337;
    ( 1, 2, 2, 2, 1, 5 ) 0.33333333333333337, 0.33333333333333337, 0.33333333333333337;
    ( 1, 2, 2, 2, 2, 1 ) 0.33333333333333337, 0.33333333333333337, 0.33333333333333337;
    ( 1, 2, 2, 2, 2, 2 ) 0.33333333333333337, 0.33333333333333337, 0.33333333333333337;
    ( 1, 2, 2, 2, 2, 3 ) 0.33333333333333337, 0.33333333333333337, 0.33333333333333337;
    ( 1, 2, 2, 2, 2, 4 ) 0.33333333333333337, 0.33333333333333337, 0.33333333333333337;
    ( 1, 2, 2, 2, 2, 5 ) 0.33333333333333337, 0.33333333333333337, 0.33333333333333337;
    ( 1, 2, 2, 2, 3, 1 ) 0.33333333333333337, 0.33333333333333337, 0.33333333333333337;
    ( 1, 2, 2, 2, 3, 2 ) 0.33333333333333337, 0.33333333333333337, 0.33333333333333337;
    ( 1, 2, 2, 2, 3, 3 ) 0.33333333333333337, 0.33333333333333337, 0.33333333333333337;
    ( 1, 2, 2, 2, 3, 4 ) 0.33333333333333337, 0.33333333333333337, 0.33333333333333337;
    ( 1, 2, 2, 2, 3, 5 ) 0.33333333333333337, 0.33333333333333337, 0.33333333333333337;
    ( 1, 2, 2, 2, 4, 1 ) 0.33333333333333337, 0.33333333333333337, 0.33333333333333337;
    ( 1, 2, 2, 2, 4, 2 ) 0.33333333333333337, 0.33333333333333337, 0.33333333333333337;
    ( 1, 2, 2, 2, 4, 3 ) 0.33333333333333337, 0.33333333333333337, 0.33333333333333337;
    ( 1, 2, 2, 2, 4, 4 ) 0.33333333333333337, 0.33333333333333337, 0.33333333333333337;
    ( 1, 2, 2, 2, 4, 5 ) 0.33333333333333337, 0.33333333333333337, 0.33333333333333337;
    ( 1, 2, 2, 2, 5, 1 ) 0.33333333333333337, 0.33333333333333337, 0.33333333333333337;
    ( 1, 2, 2, 2, 5, 2 ) 0.33333333333333337, 0.33333333333333337, 0.33333333333333337;
    ( 1, 2, 2, 2, 5, 3 ) 0.33333333333333337, 0.33333333333333337, 0.33333333333333337;
    ( 1, 2, 2, 2, 5, 4 ) 0.33333333333333337, 0.33333333333333337, 0.33333333333333337;
    ( 1, 2, 2, 2, 5, 5 ) 0.33333333333333337, 0.33333333333333337, 0.33333333333333337;
    ( 1, 2, 2, 3, 1, 1 ) 0.33333333333333337, 0.33333333333333337, 0.33333333333333337;
    ( 1, 2, 2, 3, 1, 2 ) 0.33333333333333337, 0.33333333333333337, 0.33333333333333337;
    ( 1, 2, 2, 3, 1, 3 ) 0.33333333333333337, 0.33333333333333337, 0.33333333333333337;
    ( 1, 2, 2, 3, 1, 4 ) 0.33333333333333337, 0.33333333333333337, 0.33333333333333337;
    ( 1, 2, 2, 3, 1, 5 ) 0.33333333333333337, 0.33333333333333337, 0.33333333333333337;
    ( 1, 2, 2, 3, 2, 1 ) 0.33333333333333337, 0.33333333333333337, 0.33333333333333337;
    ( 1, 2, 2, 3, 2, 2 ) 0.33333333333333337, 0.33333333333333337, 0.33333333333333337;
    ( 1, 2, 2, 3, 2, 3 ) 0.33333333333333337, 0.33333333333333337, 0.33333333333333337;
    ( 1, 2, 2, 3, 2, 4 ) 0.33333333333333337, 0.33333333333333337, 0.33333333333333337;
    ( 1, 2, 2, 3, 2, 5 ) 0.33333333333333337, 0.33333333333333337, 0.33333333333333337;
    ( 1, 2, 2, 3, 3, 1 ) 0.33333333333333337, 0.33333333333333337, 0.33333333333333337;
    ( 1, 2, 2, 3, 3, 2 ) 0.33333333333333337, 0.33333333333333337, 0.33333333333333337;
    ( 1, 2, 2, 3, 3, 3 ) 0.33333333333333337, 0.33333333333333337, 0.33333333333333337;
    ( 1, 2, 2, 3, 3, 4 ) 0.33333333333333337, 0.33333333333333337, 0.33333333333333337;
    ( 1, 2, 2, 3, 3, 5 ) 0.33333333333333337, 0.33333333333333337, 0.33333333333333337;
    ( 1, 2, 2, 3, 4, 1 ) 0.33333333333333337, 0.33333333333333337, 0.33333333333333337;
    ( 1, 2, 2, 3, 4, 2 ) 0.33333333333333337, 0.33333333333333337, 0.33333333333333337;
    ( 1, 2, 2, 3, 4, 3 ) 0.33333333333333337, 0.33333333333333337, 0.33333333333333337;
    ( 1, 2, 2, 3, 4, 4 ) 0.33333333333333337, 0.33333333333333337, 0.33333333333333337;
    ( 1, 2, 2, 3, 4, 5 ) 0.33333333333333337, 0.33333333333333337, 0.33333333333333337;
    ( 1, 2, 2, 3, 5, 1 ) 0.33333333333333337, 0.33333333333333337, 0.33333333333333337;
    ( 1, 2, 2, 3, 5, 2 ) 0.33333333333333337, 0.33333333333333337, 0.33333333333333337;
    ( 1, 2, 2, 3, 5, 3 ) 0.33333333333333337, 0.33333333333333337, 0.33333333333333337;
    ( 1, 2, 2, 3, 5, 4 ) 0.33333333333333337, 0.33333333333333337, 0.33333333333333337;
    ( 1, 2, 2, 3, 5, 5 ) 0.33333333333333337, 0.33333333333333337, 0.33333333333333337;
    ( 1, 2, 2, 4, 1, 1 ) 0.33333333333333337, 0.33333333333333337, 0.33333333333333337;
    ( 1, 2, 2, 4, 1, 2 ) 0.33333333333333337, 0.33333333333333337, 0.33333333333333337;
    ( 1, 2, 2, 4, 1, 3 ) 0.33333333333333337, 0.33333333333333337, 0.33333333333333337;
    ( 1, 2, 2, 4, 1, 4 ) 0.33333333333333337, 0.33333333333333337, 0.33333333333333337;
    ( 1, 2, 2, 4, 1, 5 ) 0.33333333333333337, 0.33333333333333337, 0.33333333333333337;
    ( 1, 2, 2, 4, 2, 1 ) 0.33333333333333337, 0.33333333333333337, 0.33333333333333337;
    ( 1, 2, 2, 4, 2, 2 ) 0.33333333333333337, 0.33333333333333337, 0.33333333333333337;
    ( 1, 2, 2, 4, 2, 3 ) 0.33333333333333337, 0.33333333333333337, 0.33333333333333337;
    ( 1, 2, 2, 4, 2, 4 ) 0.33333333333333337, 0.33333333333333337, 0.33333333333333337;
    ( 1, 2, 2, 4, 2, 5 ) 0.33333333333333337, 0.33333333333333337, 0.33333333333333337;
    ( 1, 2, 2, 4, 3, 1 ) 0.33333333333333337, 0.33333333333333337, 0.33333333333333337;
    ( 1, 2, 2, 4, 3, 2 ) 0.33333333333333337, 0.33333333333333337, 0.33333333333333337;
    ( 1, 2, 2, 4, 3, 3 ) 0.33333333333333337, 0.33333333333333337, 0.33333333333333337;
    ( 1, 2, 2, 4, 3, 4 ) 0.33333333333333337, 0.33333333333333337, 0.33333333333333337;
    ( 1, 2, 2, 4, 3, 5 ) 0.33333333333333337, 0.33333333333333337, 0.33333333333333337;
    ( 1, 2, 2, 4, 4, 1 ) 0.33333333333333337, 0.33333333333333337, 0.33333333333333337;
    ( 1, 2, 2, 4, 4, 2 ) 0.33333333333333337, 0.33333333333333337, 0.33333333333333337;
    ( 1, 2, 2, 4, 4, 3 ) 0.33333333333333337, 0.33333333333333337, 0.33333333333333337;
    ( 1, 2, 2, 4, 4, 4 ) 0.33333333333333337, 0.33333333333333337, 0.33333333333333337;
    ( 1, 2, 2, 4, 4, 5 ) 0.33333333333333337, 0.33333333333333337, 0.33333333333333337;
    ( 1, 2, 2, 4, 5, 1 ) 0.33333333333333337, 0.33333333333333337, 0.33333333333333337;
    ( 1, 2, 2, 4, 5, 2 ) 0.33333333333333337, 0.33333333333333337, 0.33333333333333337;
    ( 1, 2, 2, 4, 5, 3 ) 0.33333333333333337, 0.33333333333333337, 0.33333333333333337;
    ( 1, 2, 2, 4, 5, 4 ) 0.33333333333333337, 0.33333333333333337, 0.33333333333333337;
    ( 1, 2, 2, 4, 5, 5 ) 0.33333333333333337, 0.33333333333333337, 0.33333333333333337;
    ( 1, 2, 2, 5, 1, 1 ) 0.33333333333333337, 0.33333333333333337, 0.33333333333333337;
    ( 1, 2, 2, 5, 1, 2 ) 0.33333333333333337, 0.33333333333333337, 0.33333333333333337;
    ( 1, 2, 2, 5, 1, 3 ) 0.33333333333333337, 0.33333333333333337, 0.33333333333333337;
    ( 1, 2, 2, 5, 1, 4 ) 0.33333333333333337, 0.33333333333333337, 0.33333333333333337;
    ( 1, 2, 2, 5, 1, 5 ) 0.33333333333333337, 0.33333333333333337, 0.33333333333333337;
    ( 1, 2, 2, 5, 2, 1 ) 0.33333333333333337, 0.33333333333333337, 0.33333333333333337;
    ( 1, 2, 2, 5, 2, 2 ) 0.33333333333333337, 0.33333333333333337, 0.33333333333333337;
    ( 1, 2, 2, 5, 2, 3 ) 0.33333333333333337, 0.33333333333333337, 0.33333333333333337;
    ( 1, 2, 2, 5, 2, 4 ) 0.33333333333333337, 0.33333333333333337, 0.33333333333333337;
    ( 1, 2, 2, 5, 2, 5 ) 0.33333333333333337, 0.33333333333333337, 0.33333333333333337;
    ( 1, 2, 2, 5, 3, 1 ) 0.33333333333333337, 0.33333333333333337, 0.33333333333333337;
    ( 1, 2, 2, 5, 3, 2 ) 0.33333333333333337, 0.33333333333333337, 0.33333333333333337;
    ( 1, 2, 2, 5, 3, 3 ) 0.33333333333333337, 0.33333333333333337, 0.33333333333333337;
    ( 1, 2, 2, 5, 3, 4 ) 0.33333333333333337, 0.33333333333333337, 0.33333333333333337;
    ( 1, 2, 2, 5, 3, 5 ) 0.33333333333333337, 0.33333333333333337, 0.33333333333333337;
    ( 1, 2, 2, 5, 4, 1 ) 0.33333333333333337, 0.33333333333333337, 0.33333333333333337;
    ( 1, 2, 2, 5, 4, 2 ) 0.33333333333333337, 0.33333333333333337, 0.33333333333333337;
    ( 1, 2, 2, 5, 4, 3 ) 0.33333333333333337, 0.33333333333333337, 0.33333333333333337;
    ( 1, 2, 2, 5, 4, 4 ) 0.33333333333333337, 0.33333333333333337, 0.33333333333333337;
    ( 1, 2, 2, 5, 4, 5 ) 0.33333333333333337, 0.33333333333333337, 0.33333333333333337;
    ( 1, 2, 2, 5, 5, 1 ) 0.33333333333333337, 0.33333333333333337, 0.33333333333333337;
    ( 1, 2, 2, 5, 5, 2 ) 0.33333333333333337, 0.33333333333333337, 0.33333333333333337;
    ( 1, 2, 2, 5, 5, 3 ) 0.33333333333333337, 0.33333333333333337, 0.33333333333333337;
    ( 1, 2, 2, 5, 5, 4 ) 0.33333333333333337, 0.33333333333333337, 0.33333333333333337;
    ( 1, 2, 2, 5, 5, 5 ) 0.33333333333333337, 0.33333333333333337, 0.33333333333333337;
    ( 1, 2, 2, 6, 1, 1 ) 0.33333333333333337, 0.33333333333333337, 0.33333333333333337;
    ( 1, 2, 2, 6, 1, 2 ) 0.33333333333333337, 0.33333333333333337, 0.33333333333333337;
    ( 1, 2, 2, 6, 1, 3 ) 0.33333333333333337, 0.33333333333333337, 0.33333333333333337;
    ( 1, 2, 2, 6, 1, 4 ) 0.33333333333333337, 0.33333333333333337, 0.33333333333333337;
    ( 1, 2, 2, 6, 1, 5 ) 0.33333333333333337, 0.33333333333333337, 0.33333333333333337;
    ( 1, 2, 2, 6, 2, 1 ) 0.33333333333333337, 0.33333333333333337, 0.33333333333333337;
    ( 1, 2, 2, 6, 2, 2 ) 0.33333333333333337, 0.33333333333333337, 0.33333333333333337;
    ( 1, 2, 2, 6, 2, 3 ) 0.33333333333333337, 0.33333333333333337, 0.33333333333333337;
    ( 1, 2, 2, 6, 2, 4 ) 0.33333333333333337, 0.33333333333333337, 0.33333333333333337;
    ( 1, 2, 2, 6, 2, 5 ) 0.33333333333333337, 0.33333333333333337, 0.33333333333333337;
    ( 1, 2, 2, 6, 3, 1 ) 0.33333333333333337, 0.33333333333333337, 0.33333333333333337;
    ( 1, 2, 2, 6, 3, 2 ) 0.33333333333333337, 0.33333333333333337, 0.33333333333333337;
    ( 1, 2, 2, 6, 3, 3 ) 0.33333333333333337, 0.33333333333333337, 0.33333333333333337;
    ( 1, 2, 2, 6, 3, 4 ) 0.33333333333333337, 0.33333333333333337, 0.33333333333333337;
    ( 1, 2, 2, 6, 3, 5 ) 0.33333333333333337, 0.33333333333333337, 0.33333333333333337;
    ( 1, 2, 2, 6, 4, 1 ) 0.33333333333333337, 0.33333333333333337, 0.33333333333333337;
    ( 1, 2, 2, 6, 4, 2 ) 0.33333333333333337, 0.33333333333333337, 0.33333333333333337;
    ( 1, 2, 2, 6, 4, 3 ) 0.33333333333333337, 0.33333333333333337, 0.33333333333333337;
    ( 1, 2, 2, 6, 4, 4 ) 0.33333333333333337, 0.33333333333333337, 0.33333333333333337;
    ( 1, 2, 2, 6, 4, 5 ) 0.33333333333333337, 0.33333333333333337, 0.33333333333333337;
    ( 1, 2, 2, 6, 5, 1 ) 0.33333333333333337, 0.33333333333333337, 0.33333333333333337;
    ( 1, 2, 2, 6, 5, 2 ) 0.33333333333333337, 0.33333333333333337, 0.33333333333333337;
    ( 1, 2, 2, 6, 5, 3 ) 0.33333333333333337, 0.33333333333333337, 0.33333333333333337;
    ( 1, 2, 2, 6, 5, 4 ) 0.33333333333333337, 0.33333333333333337, 0.33333333333333337;
    ( 1, 2, 2, 6, 5, 5 ) 0.33333333333333337, 0.33333333333333337, 0.33333333333333337;
    ( 1, 2, 2, 7, 1, 1 ) 0.33333333333333337, 0.33333333333333337, 0.33333333333333337;
    ( 1, 2, 2, 7, 1, 2 ) 0.33333333333333337, 0.33333333333333337, 0.33333333333333337;
    ( 1, 2, 2, 7, 1, 3 ) 0.33333333333333337, 0.33333333333333337, 0.33333333333333337;
    ( 1, 2, 2, 7, 1, 4 ) 0.33333333333333337, 0.33333333333333337, 0.33333333333333337;
    ( 1, 2, 2, 7, 1, 5 ) 0.33333333333333337, 0.33333333333333337, 0.33333333333333337;
    ( 1, 2, 2, 7, 2, 1 ) 0.33333333333333337, 0.33333333333333337, 0.33333333333333337;
    ( 1, 2, 2, 7, 2, 2 ) 0.33333333333333337, 0.33333333333333337, 0.33333333333333337;
    ( 1, 2, 2, 7, 2, 3 ) 0.33333333333333337, 0.33333333333333337, 0.33333333333333337;
    ( 1, 2, 2, 7, 2, 4 ) 0.33333333333333337, 0.33333333333333337, 0.33333333333333337;
    ( 1, 2, 2, 7, 2, 5 ) 0.33333333333333337, 0.33333333333333337, 0.33333333333333337;
    ( 1, 2, 2, 7, 3, 1 ) 0.33333333333333337, 0.33333333333333337, 0.33333333333333337;
    ( 1, 2, 2, 7, 3, 2 ) 0.33333333333333337, 0.33333333333333337, 0.33333333333333337;
    ( 1, 2, 2, 7, 3, 3 ) 0.33333333333333337, 0.33333333333333337, 0.33333333333333337;
    ( 1, 2, 2, 7, 3, 4 ) 0.33333333333333337, 0.33333333333333337, 0.33333333333333337;
    ( 1, 2, 2, 7, 3, 5 ) 0.33333333333333337, 0.33333333333333337, 0.33333333333333337;
    ( 1, 2, 2, 7, 4, 1 ) 0.33333333333333337, 0.33333333333333337, 0.33333333333333337;
    ( 1, 2, 2, 7, 4, 2 ) 0.33333333333333337, 0.33333333333333337, 0.33333333333333337;
    ( 1, 2, 2, 7, 4, 3 ) 0.33333333333333337, 0.33333333333333337, 0.33333333333333337;
    ( 1, 2, 2, 7, 4, 4 ) 0.33333333333333337, 0.33333333333333337, 0.33333333333333337;
    ( 1, 2, 2, 7, 4, 5 ) 0.33333333333333337, 0.33333333333333337, 0.33333333333333337;
    ( 1, 2, 2, 7, 5, 1 ) 0.33333333333333337, 0.33333333333333337, 0.33333333333333337;
    ( 1, 2, 2, 7, 5, 2 ) 0.33333333333333337, 0.33333333333333337, 0.33333333333333337;
    ( 1, 2, 2, 7, 5, 3 ) 0.33333333333333337, 0.33333333333333337, 0.33333333333333337;
    ( 1, 2, 2, 7, 5, 4 ) 0.33333333333333337, 0.33333333333333337, 0.33333333333333337;
    ( 1, 2, 2, 7, 5, 5 ) 0.33333333333333337, 0.33333333333333337, 0.33333333333333337;
    ( 1, 2, 2, 8, 1, 1 ) 0.33333333333333337, 0.33333333333333337, 0.33333333333333337;
    ( 1, 2, 2, 8, 1, 2 ) 0.33333333333333337, 0.33333333333333337, 0.33333333333333337;
    ( 1, 2, 2, 8, 1, 3 ) 0.33333333333333337, 0.33333333333333337, 0.33333333333333337;
    ( 1, 2, 2, 8, 1, 4 ) 0.33333333333333337, 0.33333333333333337, 0.33333333333333337;
    ( 1, 2, 2, 8, 1, 5 ) 0.33333333333333337, 0.33333333333333337, 0.33333333333333337;
    ( 1, 2, 2, 8, 2, 1 ) 0.33333333333333337, 0.33333333333333337, 0.33333333333333337;
    ( 1, 2, 2, 8, 2, 2 ) 0.33333333333333337, 0.33333333333333337, 0.33333333333333337;
    ( 1, 2, 2, 8, 2, 3 ) 0.33333333333333337, 0.33333333333333337, 0.33333333333333337;
    ( 1, 2, 2, 8, 2, 4 ) 0.33333333333333337, 0.33333333333333337, 0.33333333333333337;
    ( 1, 2, 2, 8, 2, 5 ) 0.33333333333333337, 0.33333333333333337, 0.33333333333333337;
    ( 1, 2, 2, 8, 3, 1 ) 0.33333333333333337, 0.33333333333333337, 0.33333333333333337;
    ( 1, 2, 2, 8, 3, 2 ) 0.33333333333333337, 0.33333333333333337, 0.33333333333333337;
    ( 1, 2, 2, 8, 3, 3 ) 0.33333333333333337, 0.33333333333333337, 0.33333333333333337;
    ( 1, 2, 2, 8, 3, 4 ) 0.33333333333333337, 0.33333333333333337, 0.33333333333333337;
    ( 1, 2, 2, 8, 3, 5 ) 0.33333333333333337, 0.33333333333333337, 0.33333333333333337;
    ( 1, 2, 2, 8, 4, 1 ) 0.33333333333333337, 0.33333333333333337, 0.33333333333333337;
    ( 1, 2, 2, 8, 4, 2 ) 0.33333333333333337, 0.33333333333333337, 0.33333333333333337;
    ( 1, 2, 2, 8, 4, 3 ) 0.33333333333333337, 0.33333333333333337, 0.33333333333333337;
    ( 1, 2, 2, 8, 4, 4 ) 0.33333333333333337, 0.33333333333333337, 0.33333333333333337;
    ( 1, 2, 2, 8, 4, 5 ) 0.33333333333333337, 0.33333333333333337, 0.33333333333333337;
    ( 1, 2, 2, 8, 5, 1 ) 0.33333333333333337, 0.33333333333333337, 0.33333333333333337;
    ( 1, 2, 2, 8, 5, 2 ) 0.33333333333333337, 0.33333333333333337, 0.33333333333333337;
    ( 1, 2, 2, 8, 5, 3 ) 0.33333333333333337, 0.33333333333333337, 0.33333333333333337;
    ( 1, 2, 2, 8, 5, 4 ) 0.33333333333333337, 0.33333333333333337, 0.33333333333333337;
    ( 1, 2, 2, 8, 5, 5 ) 0.33333333333333337, 0.33333333333333337, 0.33333333333333337;
    ( 1, 3, 1, 1, 1, 1 ) 0.33333333333333337, 0.33333333333333337, 0.33333333333333337;
    ( 1, 3, 1, 1, 1, 2 ) 0.33333333333333337, 0.33333333333333337, 0.33333333333333337;
    ( 1, 3, 1, 1, 1, 3 ) 0.33333333333333337, 0.33333333333333337, 0.33333333333333337;
    ( 1, 3, 1, 1, 1, 4 ) 0.33333333333333337, 0.33333333333333337, 0.33333333333333337;
    ( 1, 3, 1, 1, 1, 5 ) 0.33333333333333337, 0.33333333333333337, 0.33333333333333337;
    ( 1, 3, 1, 1, 2, 1 ) 0.33333333333333337, 0.33333333333333337, 0.33333333333333337;
    ( 1, 3, 1, 1, 2, 2 ) 0.33333333333333337, 0.33333333333333337, 0.33333333333333337;
    ( 1, 3, 1, 1, 2, 3 ) 0.33333333333333337, 0.33333333333333337, 0.33333333333333337;
    ( 1, 3, 1, 1, 2, 4 ) 0.33333333333333337, 0.33333333333333337, 0.33333333333333337;
    ( 1, 3, 1, 1, 2, 5 ) 0.33333333333333337, 0.33333333333333337, 0.33333333333333337;
    ( 1, 3, 1, 1, 3, 1 ) 0.33333333333333337, 0.33333333333333337, 0.33333333333333337;
    ( 1, 3, 1, 1, 3, 2 ) 0.33333333333333337, 0.33333333333333337, 0.33333333333333337;
    ( 1, 3, 1, 1, 3, 3 ) 0.33333333333333337, 0.33333333333333337, 0.33333333333333337;
    ( 1, 3, 1, 1, 3, 4 ) 0.33333333333333337, 0.33333333333333337, 0.33333333333333337;
    ( 1, 3, 1, 1, 3, 5 ) 0.33333333333333337, 0.33333333333333337, 0.33333333333333337;
    ( 1, 3, 1, 1, 4, 1 ) 0.33333333333333337, 0.33333333333333337, 0.33333333333333337;
    ( 1, 3, 1, 1, 4, 2 ) 0.33333333333333337, 0.33333333333333337, 0.33333333333333337;
    ( 1, 3, 1, 1, 4, 3 ) 0.33333333333333337, 0.33333333333333337, 0.33333333333333337;
    ( 1, 3, 1, 1, 4, 4 ) 0.33333333333333337, 0.33333333333333337, 0.33333333333333337;
    ( 1, 3, 1, 1, 4, 5 ) 0.33333333333333337, 0.33333333333333337, 0.33333333333333337;
    ( 1, 3, 1, 1, 5, 1 ) 0.33333333333333337, 0.33333333333333337, 0.33333333333333337;
    ( 1, 3, 1, 1, 5, 2 ) 0.33333333333333337, 0.33333333333333337, 0.33333333333333337;
    ( 1, 3, 1, 1, 5, 3 ) 0.33333333333333337, 0.33333333333333337, 0.33333333333333337;
    ( 1, 3, 1, 1, 5, 4 ) 0.33333333333333337, 0.33333333333333337, 0.33333333333333337;
    ( 1, 3, 1, 1, 5, 5 ) 0.33333333333333337, 0.33333333333333337, 0.33333333333333337;
    ( 1, 3, 1, 2, 1, 1 ) 0.33333333333333337, 0.33333333333333337, 0.33333333333333337;
    ( 1, 3, 1, 2, 1, 2 ) 0.33333333333333337, 0.33333333333333337, 0.33333333333333337;
    ( 1, 3, 1, 2, 1, 3 ) 0.33333333333333337, 0.33333333333333337, 0.33333333333333337;
    ( 1, 3, 1, 2, 1, 4 ) 0.33333333333333337, 0.33333333333333337, 0.33333333333333337;
    ( 1, 3, 1, 2, 1, 5 ) 0.33333333333333337, 0.33333333333333337, 0.33333333333333337;
    ( 1, 3, 1, 2, 2, 1 ) 0.33333333333333337, 0.33333333333333337, 0.33333333333333337;
    ( 1, 3, 1, 2, 2, 2 ) 0.33333333333333337, 0.33333333333333337, 0.33333333333333337;
    ( 1, 3, 1, 2, 2, 3 ) 0.33333333333333337, 0.33333333333333337, 0.33333333333333337;
    ( 1, 3, 1, 2, 2, 4 ) 0.33333333333333337, 0.33333333333333337, 0.33333333333333337;
    ( 1, 3, 1, 2, 2, 5 ) 0.33333333333333337, 0.33333333333333337, 0.33333333333333337;
    ( 1, 3, 1, 2, 3, 1 ) 0.33333333333333337, 0.33333333333333337, 0.33333333333333337;
    ( 1, 3, 1, 2, 3, 2 ) 0.33333333333333337, 0.33333333333333337, 0.33333333333333337;
    ( 1, 3, 1, 2, 3, 3 ) 0.33333333333333337, 0.33333333333333337, 0.33333333333333337;
    ( 1, 3, 1, 2, 3, 4 ) 0.33333333333333337, 0.33333333333333337, 0.33333333333333337;
    ( 1, 3, 1, 2, 3, 5 ) 0.33333333333333337, 0.33333333333333337, 0.33333333333333337;
    ( 1, 3, 1, 2, 4, 1 ) 0.33333333333333337, 0.33333333333333337, 0.33333333333333337;
    ( 1, 3, 1, 2, 4, 2 ) 0.33333333333333337, 0.33333333333333337, 0.33333333333333337;
    ( 1, 3, 1, 2, 4, 3 ) 0.33333333333333337, 0.33333333333333337, 0.33333333333333337;
    ( 1, 3, 1, 2, 4, 4 ) 0.33333333333333337, 0.33333333333333337, 0.33333333333333337;
    ( 1, 3, 1, 2, 4, 5 ) 0.33333333333333337, 0.33333333333333337, 0.33333333333333337;
    ( 1, 3, 1, 2, 5, 1 ) 0.33333333333333337, 0.33333333333333337, 0.33333333333333337;
    ( 1, 3, 1, 2, 5, 2 ) 0.33333333333333337, 0.33333333333333337, 0.33333333333333337;
    ( 1, 3, 1, 2, 5, 3 ) 0.33333333333333337, 0.33333333333333337, 0.33333333333333337;
    ( 1, 3, 1, 2, 5, 4 ) 0.33333333333333337, 0.33333333333333337, 0.33333333333333337;
    ( 1, 3, 1, 2, 5, 5 ) 0.33333333333333337, 0.33333333333333337, 0.33333333333333337;
    ( 1, 3, 1, 3, 1, 1 ) 0.33333333333333337, 0.33333333333333337, 0.33333333333333337;
    ( 1, 3, 1, 3, 1, 2 ) 0.33333333333333337, 0.33333333333333337, 0.33333333333333337;
    ( 1, 3, 1, 3, 1, 3 ) 0.33333333333333337, 0.33333333333333337, 0.33333333333333337;
    ( 1, 3, 1, 3, 1, 4 ) 0.33333333333333337, 0.33333333333333337, 0.33333333333333337;
    ( 1, 3, 1, 3, 1, 5 ) 0.33333333333333337, 0.33333333333333337, 0.33333333333333337;
    ( 1, 3, 1, 3, 2, 1 ) 0.33333333333333337, 0.33333333333333337, 0.33333333333333337;
    ( 1, 3, 1, 3, 2, 2 ) 0.33333333333333337, 0.33333333333333337, 0.33333333333333337;
    ( 1, 3, 1, 3, 2, 3 ) 0.33333333333333337, 0.33333333333333337, 0.33333333333333337;
    ( 1, 3, 1, 3, 2, 4 ) 0.33333333333333337, 0.33333333333333337, 0.33333333333333337;
    ( 1, 3, 1, 3, 2, 5 ) 0.33333333333333337, 0.33333333333333337, 0.33333333333333337;
    ( 1, 3, 1, 3, 3, 1 ) 0.33333333333333337, 0.33333333333333337, 0.33333333333333337;
    ( 1, 3, 1, 3, 3, 2 ) 0.33333333333333337, 0.33333333333333337, 0.33333333333333337;
    ( 1, 3, 1, 3, 3, 3 ) 0.33333333333333337, 0.33333333333333337, 0.33333333333333337;
    ( 1, 3, 1, 3, 3, 4 ) 0.33333333333333337, 0.33333333333333337, 0.33333333333333337;
    ( 1, 3, 1, 3, 3, 5 ) 0.33333333333333337, 0.33333333333333337, 0.33333333333333337;
    ( 1, 3, 1, 3, 4, 1 ) 0.33333333333333337, 0.33333333333333337, 0.33333333333333337;
    ( 1, 3, 1, 3, 4, 2 ) 0.33333333333333337, 0.33333333333333337, 0.33333333333333337;
    ( 1, 3, 1, 3, 4, 3 ) 0.33333333333333337, 0.33333333333333337, 0.33333333333333337;
    ( 1, 3, 1, 3, 4, 4 ) 0.33333333333333337, 0.33333333333333337, 0.33333333333333337;
    ( 1, 3, 1, 3, 4, 5 ) 0.33333333333333337, 0.33333333333333337, 0.33333333333333337;
    ( 1, 3, 1, 3, 5, 1 ) 0.33333333333333337, 0.33333333333333337, 0.33333333333333337;
    ( 1, 3, 1, 3, 5, 2 ) 0.33333333333333337, 0.33333333333333337, 0.33333333333333337;
    ( 1, 3, 1, 3, 5, 3 ) 0.33333333333333337, 0.33333333333333337, 0.33333333333333337;
    ( 1, 3, 1, 3, 5, 4 ) 0.33333333333333337, 0.33333333333333337, 0.33333333333333337;
    ( 1, 3, 1, 3, 5, 5 ) 0.33333333333333337, 0.33333333333333337, 0.33333333333333337;
    ( 1, 3, 1, 4, 1, 1 ) 0.33333333333333337, 0.33333333333333337, 0.33333333333333337;
    ( 1, 3, 1, 4, 1, 2 ) 0.33333333333333337, 0.33333333333333337, 0.33333333333333337;
    ( 1, 3, 1, 4, 1, 3 ) 0.33333333333333337, 0.33333333333333337, 0.33333333333333337;
    ( 1, 3, 1, 4, 1, 4 ) 0.33333333333333337, 0.33333333333333337, 0.33333333333333337;
    ( 1, 3, 1, 4, 1, 5 ) 0.33333333333333337, 0.33333333333333337, 0.33333333333333337;
    ( 1, 3, 1, 4, 2, 1 ) 0.33333333333333337, 0.33333333333333337, 0.33333333333333337;
    ( 1, 3, 1, 4, 2, 2 ) 0.33333333333333337, 0.33333333333333337, 0.33333333333333337;
    ( 1, 3, 1, 4, 2, 3 ) 0.33333333333333337, 0.33333333333333337, 0.33333333333333337;
    ( 1, 3, 1, 4, 2, 4 ) 0.33333333333333337, 0.33333333333333337, 0.33333333333333337;
    ( 1, 3, 1, 4, 2, 5 ) 0.33333333333333337, 0.33333333333333337, 0.33333333333333337;
    ( 1, 3, 1, 4, 3, 1 ) 0.33333333333333337, 0.33333333333333337, 0.33333333333333337;
    ( 1, 3, 1, 4, 3, 2 ) 0.33333333333333337, 0.33333333333333337, 0.33333333333333337;
    ( 1, 3, 1, 4, 3, 3 ) 0.33333333333333337, 0.33333333333333337, 0.33333333333333337;
    ( 1, 3, 1, 4, 3, 4 ) 0.33333333333333337, 0.33333333333333337, 0.33333333333333337;
    ( 1, 3, 1, 4, 3, 5 ) 0.33333333333333337, 0.33333333333333337, 0.33333333333333337;
    ( 1, 3, 1, 4, 4, 1 ) 0.33333333333333337, 0.33333333333333337, 0.33333333333333337;
    ( 1, 3, 1, 4, 4, 2 ) 0.33333333333333337, 0.33333333333333337, 0.33333333333333337;
    ( 1, 3, 1, 4, 4, 3 ) 0.33333333333333337, 0.33333333333333337, 0.33333333333333337;
    ( 1, 3, 1, 4, 4, 4 ) 0.33333333333333337, 0.33333333333333337, 0.33333333333333337;
    ( 1, 3, 1, 4, 4, 5 ) 0.33333333333333337, 0.33333333333333337, 0.33333333333333337;
    ( 1, 3, 1, 4, 5, 1 ) 0.33333333333333337, 0.33333333333333337, 0.33333333333333337;
    ( 1, 3, 1, 4, 5, 2 ) 0.33333333333333337, 0.33333333333333337, 0.33333333333333337;
    ( 1, 3, 1, 4, 5, 3 ) 0.33333333333333337, 0.33333333333333337, 0.33333333333333337;
    ( 1, 3, 1, 4, 5, 4 ) 0.33333333333333337, 0.33333333333333337, 0.33333333333333337;
    ( 1, 3, 1, 4, 5, 5 ) 0.33333333333333337, 0.33333333333333337, 0.33333333333333337;
    ( 1, 3, 1, 5, 1, 1 ) 0.33333333333333337, 0.33333333333333337, 0.33333333333333337;
    ( 1, 3, 1, 5, 1, 2 ) 0.33333333333333337, 0.33333333333333337, 0.33333333333333337;
    ( 1, 3, 1, 5, 1, 3 ) 0.33333333333333337, 0.33333333333333337, 0.33333333333333337;
    ( 1, 3, 1, 5, 1, 4 ) 0.33333333333333337, 0.33333333333333337, 0.33333333333333337;
    ( 1, 3, 1, 5, 1, 5 ) 0.33333333333333337, 0.33333333333333337, 0.33333333333333337;
    ( 1, 3, 1, 5, 2, 1 ) 0.33333333333333337, 0.33333333333333337, 0.33333333333333337;
    ( 1, 3, 1, 5, 2, 2 ) 0.33333333333333337, 0.33333333333333337, 0.33333333333333337;
    ( 1, 3, 1, 5, 2, 3 ) 0.33333333333333337, 0.33333333333333337, 0.33333333333333337;
    ( 1, 3, 1, 5, 2, 4 ) 0.33333333333333337, 0.33333333333333337, 0.33333333333333337;
    ( 1, 3, 1, 5, 2, 5 ) 0.33333333333333337, 0.33333333333333337, 0.33333333333333337;
    ( 1, 3, 1, 5, 3, 1 ) 0.33333333333333337, 0.33333333333333337, 0.33333333333333337;
    ( 1, 3, 1, 5, 3, 2 ) 0.33333333333333337, 0.33333333333333337, 0.33333333333333337;
    ( 1, 3, 1, 5, 3, 3 ) 0.33333333333333337, 0.33333333333333337, 0.33333333333333337;
    ( 1, 3, 1, 5, 3, 4 ) 0.33333333333333337, 0.33333333333333337, 0.33333333333333337;
    ( 1, 3, 1, 5, 3, 5 ) 0.33333333333333337, 0.33333333333333337, 0.33333333333333337;
    ( 1, 3, 1, 5, 4, 1 ) 0.33333333333333337, 0.33333333333333337, 0.33333333333333337;
    ( 1, 3, 1, 5, 4, 2 ) 0.33333333333333337, 0.33333333333333337, 0.33333333333333337;
    ( 1, 3, 1, 5, 4, 3 ) 0.33333333333333337, 0.33333333333333337, 0.33333333333333337;
    ( 1, 3, 1, 5, 4, 4 ) 0.33333333333333337, 0.33333333333333337, 0.33333333333333337;
    ( 1, 3, 1, 5, 4, 5 ) 0.33333333333333337, 0.33333333333333337, 0.33333333333333337;
    ( 1, 3, 1, 5, 5, 1 ) 0.33333333333333337, 0.33333333333333337, 0.33333333333333337;
    ( 1, 3, 1, 5, 5, 2 ) 0.33333333333333337, 0.33333333333333337, 0.33333333333333337;
    ( 1, 3, 1, 5, 5, 3 ) 0.33333333333333337, 0.33333333333333337, 0.33333333333333337;
    ( 1, 3, 1, 5, 5, 4 ) 0.33333333333333337, 0.33333333333333337, 0.33333333333333337;
    ( 1, 3, 1, 5, 5, 5 ) 0.33333333333333337, 0.33333333333333337, 0.33333333333333337;
    ( 1, 3, 1, 6, 1, 1 ) 0.33333333333333337, 0.33333333333333337, 0.33333333333333337;
    ( 1, 3, 1, 6, 1, 2 ) 0.33333333333333337, 0.33333333333333337, 0.33333333333333337;
    ( 1, 3, 1, 6, 1, 3 ) 0.33333333333333337, 0.33333333333333337, 0.33333333333333337;
    ( 1, 3, 1, 6, 1, 4 ) 0.33333333333333337, 0.33333333333333337, 0.33333333333333337;
    ( 1, 3, 1, 6, 1, 5 ) 0.33333333333333337, 0.33333333333333337, 0.33333333333333337;
    ( 1, 3, 1, 6, 2, 1 ) 0.33333333333333337, 0.33333333333333337, 0.33333333333333337;
    ( 1, 3, 1, 6, 2, 2 ) 0.33333333333333337, 0.33333333333333337, 0.33333333333333337;
    ( 1, 3, 1, 6, 2, 3 ) 0.33333333333333337, 0.33333333333333337, 0.33333333333333337;
    ( 1, 3, 1, 6, 2, 4 ) 0.33333333333333337, 0.33333333333333337, 0.33333333333333337;
    ( 1, 3, 1, 6, 2, 5 ) 0.33333333333333337, 0.33333333333333337, 0.33333333333333337;
    ( 1, 3, 1, 6, 3, 1 ) 0.33333333333333337, 0.33333333333333337, 0.33333333333333337;
    ( 1, 3, 1, 6, 3, 2 ) 0.33333333333333337, 0.33333333333333337, 0.33333333333333337;
    ( 1, 3, 1, 6, 3, 3 ) 0.33333333333333337, 0.33333333333333337, 0.33333333333333337;
    ( 1, 3, 1, 6, 3, 4 ) 0.33333333333333337, 0.33333333333333337, 0.33333333333333337;
    ( 1, 3, 1, 6, 3, 5 ) 0.33333333333333337, 0.33333333333333337, 0.33333333333333337;
    ( 1, 3, 1, 6, 4, 1 ) 0.33333333333333337, 0.33333333333333337, 0.33333333333333337;
    ( 1, 3, 1, 6, 4, 2 ) 0.33333333333333337, 0.33333333333333337, 0.33333333333333337;
    ( 1, 3, 1, 6, 4, 3 ) 0.33333333333333337, 0.33333333333333337, 0.33333333333333337;
    ( 1, 3, 1, 6, 4, 4 ) 0.33333333333333337, 0.33333333333333337, 0.33333333333333337;
    ( 1, 3, 1, 6, 4, 5 ) 0.33333333333333337, 0.33333333333333337, 0.33333333333333337;
    ( 1, 3, 1, 6, 5, 1 ) 0.33333333333333337, 0.33333333333333337, 0.33333333333333337;
    ( 1, 3, 1, 6, 5, 2 ) 0.33333333333333337, 0.33333333333333337, 0.33333333333333337;
    ( 1, 3, 1, 6, 5, 3 ) 0.33333333333333337, 0.33333333333333337, 0.33333333333333337;
    ( 1, 3, 1, 6, 5, 4 ) 0.33333333333333337, 0.33333333333333337, 0.33333333333333337;
    ( 1, 3, 1, 6, 5, 5 ) 0.33333333333333337, 0.33333333333333337, 0.33333333333333337;
    ( 1, 3, 1, 7, 1, 1 ) 0.33333333333333337, 0.33333333333333337, 0.33333333333333337;
    ( 1, 3, 1, 7, 1, 2 ) 0.33333333333333337, 0.33333333333333337, 0.33333333333333337;
    ( 1, 3, 1, 7, 1, 3 ) 0.33333333333333337, 0.33333333333333337, 0.33333333333333337;
    ( 1, 3, 1, 7, 1, 4 ) 0.33333333333333337, 0.33333333333333337, 0.33333333333333337;
    ( 1, 3, 1, 7, 1, 5 ) 0.33333333333333337, 0.33333333333333337, 0.33333333333333337;
    ( 1, 3, 1, 7, 2, 1 ) 0.33333333333333337, 0.33333333333333337, 0.33333333333333337;
    ( 1, 3, 1, 7, 2, 2 ) 0.33333333333333337, 0.33333333333333337, 0.33333333333333337;
    ( 1, 3, 1, 7, 2, 3 ) 0.33333333333333337, 0.33333333333333337, 0.33333333333333337;
    ( 1, 3, 1, 7, 2, 4 ) 0.33333333333333337, 0.33333333333333337, 0.33333333333333337;
    ( 1, 3, 1, 7, 2, 5 ) 0.33333333333333337, 0.33333333333333337, 0.33333333333333337;
    ( 1, 3, 1, 7, 3, 1 ) 0.33333333333333337, 0.33333333333333337, 0.33333333333333337;
    ( 1, 3, 1, 7, 3, 2 ) 0.33333333333333337, 0.33333333333333337, 0.33333333333333337;
    ( 1, 3, 1, 7, 3, 3 ) 0.33333333333333337, 0.33333333333333337, 0.33333333333333337;
    ( 1, 3, 1, 7, 3, 4 ) 0.33333333333333337, 0.33333333333333337, 0.33333333333333337;
    ( 1, 3, 1, 7, 3, 5 ) 0.33333333333333337, 0.33333333333333337, 0.33333333333333337;
    ( 1, 3, 1, 7, 4, 1 ) 0.33333333333333337, 0.33333333333333337, 0.33333333333333337;
    ( 1, 3, 1, 7, 4, 2 ) 0.33333333333333337, 0.33333333333333337, 0.33333333333333337;
    ( 1, 3, 1, 7, 4, 3 ) 0.33333333333333337, 0.33333333333333337, 0.33333333333333337;
    ( 1, 3, 1, 7, 4, 4 ) 0.33333333333333337, 0.33333333333333337, 0.33333333333333337;
    ( 1, 3, 1, 7, 4, 5 ) 0.33333333333333337, 0.33333333333333337, 0.33333333333333337;
    ( 1, 3, 1, 7, 5, 1 ) 0.33333333333333337, 0.33333333333333337, 0.33333333333333337;
    ( 1, 3, 1, 7, 5, 2 ) 0.33333333333333337, 0.33333333333333337, 0.33333333333333337;
    ( 1, 3, 1, 7, 5, 3 ) 0.33333333333333337, 0.33333333333333337, 0.33333333333333337;
    ( 1, 3, 1, 7, 5, 4 ) 0.33333333333333337, 0.33333333333333337, 0.33333333333333337;
    ( 1, 3, 1, 7, 5, 5 ) 0.33333333333333337, 0.33333333333333337, 0.33333333333333337;
    ( 1, 3, 1, 8, 1, 1 ) 0.33333333333333337, 0.33333333333333337, 0.33333333333333337;
    ( 1, 3, 1, 8, 1, 2 ) 0.33333333333333337, 0.33333333333333337, 0.33333333333333337;
    ( 1, 3, 1, 8, 1, 3 ) 0.33333333333333337, 0.33333333333333337, 0.33333333333333337;
    ( 1, 3, 1, 8, 1, 4 ) 0.33333333333333337, 0.33333333333333337, 0.33333333333333337;
    ( 1, 3, 1, 8, 1, 5 ) 0.33333333333333337, 0.33333333333333337, 0.33333333333333337;
    ( 1, 3, 1, 8, 2, 1 ) 0.33333333333333337, 0.33333333333333337, 0.33333333333333337;
    ( 1, 3, 1, 8, 2, 2 ) 0.33333333333333337, 0.33333333333333337, 0.33333333333333337;
    ( 1, 3, 1, 8, 2, 3 ) 0.33333333333333337, 0.33333333333333337, 0.33333333333333337;
    ( 1, 3, 1, 8, 2, 4 ) 0.33333333333333337, 0.33333333333333337, 0.33333333333333337;
    ( 1, 3, 1, 8, 2, 5 ) 0.33333333333333337, 0.33333333333333337, 0.33333333333333337;
    ( 1, 3, 1, 8, 3, 1 ) 0.33333333333333337, 0.33333333333333337, 0.33333333333333337;
    ( 1, 3, 1, 8, 3, 2 ) 0.33333333333333337, 0.33333333333333337, 0.33333333333333337;
    ( 1, 3, 1, 8, 3, 3 ) 0.33333333333333337, 0.33333333333333337, 0.33333333333333337;
    ( 1, 3, 1, 8, 3, 4 ) 0.33333333333333337, 0.33333333333333337, 0.33333333333333337;
    ( 1, 3, 1, 8, 3, 5 ) 0.33333333333333337, 0.33333333333333337, 0.33333333333333337;
    ( 1, 3, 1, 8, 4, 1 ) 0.33333333333333337, 0.33333333333333337, 0.33333333333333337;
    ( 1, 3, 1, 8, 4, 2 ) 0.33333333333333337, 0.33333333333333337, 0.33333333333333337;
    ( 1, 3, 1, 8, 4, 3 ) 0.33333333333333337, 0.33333333333333337, 0.33333333333333337;
    ( 1, 3, 1, 8, 4, 4 ) 0.33333333333333337, 0.33333333333333337, 0.33333333333333337;
    ( 1, 3, 1, 8, 4, 5 ) 0.33333333333333337, 0.33333333333333337, 0.33333333333333337;
    ( 1, 3, 1, 8, 5, 1 ) 0.33333333333333337, 0.33333333333333337, 0.33333333333333337;
    ( 1, 3, 1, 8, 5, 2 ) 0.33333333333333337, 0.33333333333333337, 0.33333333333333337;
    ( 1, 3, 1, 8, 5, 3 ) 0.33333333333333337, 0.33333333333333337, 0.33333333333333337;
    ( 1, 3, 1, 8, 5, 4 ) 0.33333333333333337, 0.33333333333333337, 0.33333333333333337;
    ( 1, 3, 1, 8, 5, 5 ) 0.33333333333333337, 0.33333333333333337, 0.33333333333333337;
    ( 1, 3, 2, 1, 1, 1 ) 0.33333333333333337, 0.33333333333333337, 0.33333333333333337;
    ( 1, 3, 2, 1, 1, 2 ) 0.33333333333333337, 0.33333333333333337, 0.33333333333333337;
    ( 1, 3, 2, 1, 1, 3 ) 0.33333333333333337, 0.33333333333333337, 0.33333333333333337;
    ( 1, 3, 2, 1, 1, 4 ) 0.33333333333333337, 0.33333333333333337, 0.33333333333333337;
    ( 1, 3, 2, 1, 1, 5 ) 0.33333333333333337, 0.33333333333333337, 0.33333333333333337;
    ( 1, 3, 2, 1, 2, 1 ) 0.33333333333333337, 0.33333333333333337, 0.33333333333333337;
    ( 1, 3, 2, 1, 2, 2 ) 0.33333333333333337, 0.33333333333333337, 0.33333333333333337;
    ( 1, 3, 2, 1, 2, 3 ) 0.33333333333333337, 0.33333333333333337, 0.33333333333333337;
    ( 1, 3, 2, 1, 2, 4 ) 0.33333333333333337, 0.33333333333333337, 0.33333333333333337;
    ( 1, 3, 2, 1, 2, 5 ) 0.33333333333333337, 0.33333333333333337, 0.33333333333333337;
    ( 1, 3, 2, 1, 3, 1 ) 0.33333333333333337, 0.33333333333333337, 0.33333333333333337;
    ( 1, 3, 2, 1, 3, 2 ) 0.33333333333333337, 0.33333333333333337, 0.33333333333333337;
    ( 1, 3, 2, 1, 3, 3 ) 0.33333333333333337, 0.33333333333333337, 0.33333333333333337;
    ( 1, 3, 2, 1, 3, 4 ) 0.33333333333333337, 0.33333333333333337, 0.33333333333333337;
    ( 1, 3, 2, 1, 3, 5 ) 0.33333333333333337, 0.33333333333333337, 0.33333333333333337;
    ( 1, 3, 2, 1, 4, 1 ) 0.33333333333333337, 0.33333333333333337, 0.33333333333333337;
    ( 1, 3, 2, 1, 4, 2 ) 0.33333333333333337, 0.33333333333333337, 0.33333333333333337;
    ( 1, 3, 2, 1, 4, 3 ) 0.33333333333333337, 0.33333333333333337, 0.33333333333333337;
    ( 1, 3, 2, 1, 4, 4 ) 0.33333333333333337, 0.33333333333333337, 0.33333333333333337;
    ( 1, 3, 2, 1, 4, 5 ) 0.33333333333333337, 0.33333333333333337, 0.33333333333333337;
    ( 1, 3, 2, 1, 5, 1 ) 0.33333333333333337, 0.33333333333333337, 0.33333333333333337;
    ( 1, 3, 2, 1, 5, 2 ) 0.33333333333333337, 0.33333333333333337, 0.33333333333333337;
    ( 1, 3, 2, 1, 5, 3 ) 0.33333333333333337, 0.33333333333333337, 0.33333333333333337;
    ( 1, 3, 2, 1, 5, 4 ) 0.33333333333333337, 0.33333333333333337, 0.33333333333333337;
    ( 1, 3, 2, 1, 5, 5 ) 0.33333333333333337, 0.33333333333333337, 0.33333333333333337;
    ( 1, 3, 2, 2, 1, 1 ) 0.33333333333333337, 0.33333333333333337, 0.33333333333333337;
    ( 1, 3, 2, 2, 1, 2 ) 0.33333333333333337, 0.33333333333333337, 0.33333333333333337;
    ( 1, 3, 2, 2, 1, 3 ) 0.33333333333333337, 0.33333333333333337, 0.33333333333333337;
    ( 1, 3, 2, 2, 1, 4 ) 0.33333333333333337, 0.33333333333333337, 0.33333333333333337;
    ( 1, 3, 2, 2, 1, 5 ) 0.33333333333333337, 0.33333333333333337, 0.33333333333333337;
    ( 1, 3, 2, 2, 2, 1 ) 0.33333333333333337, 0.33333333333333337, 0.33333333333333337;
    ( 1, 3, 2, 2, 2, 2 ) 0.33333333333333337, 0.33333333333333337, 0.33333333333333337;
    ( 1, 3, 2, 2, 2, 3 ) 0.33333333333333337, 0.33333333333333337, 0.33333333333333337;
    ( 1, 3, 2, 2, 2, 4 ) 0.33333333333333337, 0.33333333333333337, 0.33333333333333337;
    ( 1, 3, 2, 2, 2, 5 ) 0.33333333333333337, 0.33333333333333337, 0.33333333333333337;
    ( 1, 3, 2, 2, 3, 1 ) 0.33333333333333337, 0.33333333333333337, 0.33333333333333337;
    ( 1, 3, 2, 2, 3, 2 ) 0.33333333333333337, 0.33333333333333337, 0.33333333333333337;
    ( 1, 3, 2, 2, 3, 3 ) 0.33333333333333337, 0.33333333333333337, 0.33333333333333337;
    ( 1, 3, 2, 2, 3, 4 ) 0.33333333333333337, 0.33333333333333337, 0.33333333333333337;
    ( 1, 3, 2, 2, 3, 5 ) 0.33333333333333337, 0.33333333333333337, 0.33333333333333337;
    ( 1, 3, 2, 2, 4, 1 ) 0.33333333333333337, 0.33333333333333337, 0.33333333333333337;
    ( 1, 3, 2, 2, 4, 2 ) 0.33333333333333337, 0.33333333333333337, 0.33333333333333337;
    ( 1, 3, 2, 2, 4, 3 ) 0.33333333333333337, 0.33333333333333337, 0.33333333333333337;
    ( 1, 3, 2, 2, 4, 4 ) 0.33333333333333337, 0.33333333333333337, 0.33333333333333337;
    ( 1, 3, 2, 2, 4, 5 ) 0.33333333333333337, 0.33333333333333337, 0.33333333333333337;
    ( 1, 3, 2, 2, 5, 1 ) 0.33333333333333337, 0.33333333333333337, 0.33333333333333337;
    ( 1, 3, 2, 2, 5, 2 ) 0.33333333333333337, 0.33333333333333337, 0.33333333333333337;
    ( 1, 3, 2, 2, 5, 3 ) 0.33333333333333337, 0.33333333333333337, 0.33333333333333337;
    ( 1, 3, 2, 2, 5, 4 ) 0.33333333333333337, 0.33333333333333337, 0.33333333333333337;
    ( 1, 3, 2, 2, 5, 5 ) 0.33333333333333337, 0.33333333333333337, 0.33333333333333337;
    ( 1, 3, 2, 3, 1, 1 ) 0.33333333333333337, 0.33333333333333337, 0.33333333333333337;
    ( 1, 3, 2, 3, 1, 2 ) 0.33333333333333337, 0.33333333333333337, 0.33333333333333337;
    ( 1, 3, 2, 3, 1, 3 ) 0.33333333333333337, 0.33333333333333337, 0.33333333333333337;
    ( 1, 3, 2, 3, 1, 4 ) 0.33333333333333337, 0.33333333333333337, 0.33333333333333337;
    ( 1, 3, 2, 3, 1, 5 ) 0.33333333333333337, 0.33333333333333337, 0.33333333333333337;
    ( 1, 3, 2, 3, 2, 1 ) 0.33333333333333337, 0.33333333333333337, 0.33333333333333337;
    ( 1, 3, 2, 3, 2, 2 ) 0.33333333333333337, 0.33333333333333337, 0.33333333333333337;
    ( 1, 3, 2, 3, 2, 3 ) 0.33333333333333337, 0.33333333333333337, 0.33333333333333337;
    ( 1, 3, 2, 3, 2, 4 ) 0.33333333333333337, 0.33333333333333337, 0.33333333333333337;
    ( 1, 3, 2, 3, 2, 5 ) 0.33333333333333337, 0.33333333333333337, 0.33333333333333337;
    ( 1, 3, 2, 3, 3, 1 ) 0.33333333333333337, 0.33333333333333337, 0.33333333333333337;
    ( 1, 3, 2, 3, 3, 2 ) 0.33333333333333337, 0.33333333333333337, 0.33333333333333337;
    ( 1, 3, 2, 3, 3, 3 ) 0.33333333333333337, 0.33333333333333337, 0.33333333333333337;
    ( 1, 3, 2, 3, 3, 4 ) 0.33333333333333337, 0.33333333333333337, 0.33333333333333337;
    ( 1, 3, 2, 3, 3, 5 ) 0.33333333333333337, 0.33333333333333337, 0.33333333333333337;
    ( 1, 3, 2, 3, 4, 1 ) 0.33333333333333337, 0.33333333333333337, 0.33333333333333337;
    ( 1, 3, 2, 3, 4, 2 ) 0.33333333333333337, 0.33333333333333337, 0.33333333333333337;
    ( 1, 3, 2, 3, 4, 3 ) 0.33333333333333337, 0.33333333333333337, 0.33333333333333337;
    ( 1, 3, 2, 3, 4, 4 ) 0.33333333333333337, 0.33333333333333337, 0.33333333333333337;
    ( 1, 3, 2, 3, 4, 5 ) 0.33333333333333337, 0.33333333333333337, 0.33333333333333337;
    ( 1, 3, 2, 3, 5, 1 ) 0.33333333333333337, 0.33333333333333337, 0.33333333333333337;
    ( 1, 3, 2, 3, 5, 2 ) 0.33333333333333337, 0.33333333333333337, 0.33333333333333337;
    ( 1, 3, 2, 3, 5, 3 ) 0.33333333333333337, 0.33333333333333337, 0.33333333333333337;
    ( 1, 3, 2, 3, 5, 4 ) 0.33333333333333337, 0.33333333333333337, 0.33333333333333337;
    ( 1, 3, 2, 3, 5, 5 ) 0.33333333333333337, 0.33333333333333337, 0.33333333333333337;
    ( 1, 3, 2, 4, 1, 1 ) 0.33333333333333337, 0.33333333333333337, 0.33333333333333337;
    ( 1, 3, 2, 4, 1, 2 ) 0.33333333333333337, 0.33333333333333337, 0.33333333333333337;
    ( 1, 3, 2, 4, 1, 3 ) 0.33333333333333337, 0.33333333333333337, 0.33333333333333337;
    ( 1, 3, 2, 4, 1, 4 ) 0.33333333333333337, 0.33333333333333337, 0.33333333333333337;
    ( 1, 3, 2, 4, 1, 5 ) 0.33333333333333337, 0.33333333333333337, 0.33333333333333337;
    ( 1, 3, 2, 4, 2, 1 ) 0.33333333333333337, 0.33333333333333337, 0.33333333333333337;
    ( 1, 3, 2, 4, 2, 2 ) 0.33333333333333337, 0.33333333333333337, 0.33333333333333337;
    ( 1, 3, 2, 4, 2, 3 ) 0.33333333333333337, 0.33333333333333337, 0.33333333333333337;
    ( 1, 3, 2, 4, 2, 4 ) 0.33333333333333337, 0.33333333333333337, 0.33333333333333337;
    ( 1, 3, 2, 4, 2, 5 ) 0.33333333333333337, 0.33333333333333337, 0.33333333333333337;
