network "ok4" {
// written by aGrUM 1.13.2
}

variable ageGroupe {
   type discrete[11] {State3, State4, State5, State6, State7, State8, State9, State10, State11, State12, State13};
}

variable gender {
   type discrete[2] {State1, State2};
}

variable ethnicity {
   type discrete[5] {State1, State2, State3, State4, State5};
}

variable exercise {
   type discrete[2] {State0, State1};
}

variable income {
   type discrete[8] {State1, State2, State3, State4, State5, State6, State7, State8};
}

variable employementStatus {
   type discrete[8] {State1, State2, State3, State4, State5, State6, State7, State8};
}

variable educationLevel {
   type discrete[6] {State1, State2, State3, State4, State5, State6};
}

variable scantRent {
   type discrete[5] {State1, State2, State3, State4, State5};
}

variable scantMeal {
   type discrete[5] {State1, State2, State3, State4, State5};
}

variable homeOwnership {
   type discrete[2] {State1, State2};
}

variable SESCategory {
   type discrete[3] {State1, State2, State3};
}

variable duration {
   type discrete[3] {long, medium, short};
}

variable bmiCategory {
   type discrete[4] {Snormal_weight, obese, overweight, underweight};
}

variable mentalHealthCategory {
   type discrete[3] {high, low, medium};
}

variable comorbidity {
   type discrete[2] {State1, State2};
}

probability (ageGroupe) {
   table 0.0033089 0.011403 0.029271 0.0487172 0.092191 0.136428 0.171961 0.191662 0.139381 0.0924455 0.0832315;
}
probability (gender) {
   table 0.438913 0.561087;
}
probability (ethnicity) {
   table 0.697821 0.191814 0.0473936 0.041743 0.0212279;
}
probability (exercise) {
   table 0.388007 0.611993;
}
probability (income) {
   table 0.0755956 0.101914 0.113012 0.125025 0.133883 0.147831 0.137803 0.164936;
}
probability (employementStatus | income) {
   (State1) 0.047138 0.0188552 0.0282828 0.00538721 0.0309764 0.0848485 0.253199 0.531313;
   (State2) 0.0519481 0.020979 0.030969 0.0034965 0.017982 0.0394605 0.407093 0.428072;
   (State3) 0.10991 0.0306306 0.0391892 0.00585586 0.0252252 0.0310811 0.443694 0.314414;
   (State4) 0.14943 0.034202 0.0427524 0.00203583 0.0203583 0.0289088 0.502036 0.220277;
   (State5) 0.198099 0.0365019 0.0437262 0.00190114 0.0106464 0.0171103 0.561217 0.130798;
   (State6) 0.261364 0.0433884 0.0323691 0.000688705 0.00826446 0.0220386 0.538912 0.0929752;
   (State7) 0.348356 0.0705578 0.0314001 0.00517178 0.0166236 0.0181012 0.443295 0.0664943;
   (State8) 0.490741 0.0929012 0.0314815 0.000308642 0.0058642 0.00895062 0.33642 0.0333333;
}
probability (educationLevel) {
   table 0.000814498 0.037976 0.0839951 0.324577 0.286805 0.265832;
}
probability (scantRent) {
   table 0.14834 0.0539096 0.175982 0.132967 0.488801;
}
probability (scantMeal) {
   table 0.0989615 0.0446956 0.15562 0.108685 0.592038;
}
probability (homeOwnership | income, employementStatus) {
   (State1, State1) 0.5 0.5;
   (State2, State1) 0.607143 0.392857;
   (State3, State1) 0.666667 0.333333;
   (State4, State1) 0.25 0.75;
   (State5, State1) 0.543478 0.456522;
   (State6, State1) 0.444444 0.555556;
   (State7, State1) 0.507979 0.492021;
   (State8, State1) 0.357414 0.642586;
   (State1, State2) 0.471154 0.528846;
   (State2, State2) 0.666667 0.333333;
   (State3, State2) 0.725806 0.274194;
   (State4, State2) 0.714286 0.285714;
   (State5, State2) 0.694444 0.305556;
   (State6, State2) 0.468354 0.531646;
   (State7, State2) 0.585276 0.414724;
   (State8, State2) 0.436406 0.563594;
   (State1, State3) 0.627049 0.372951;
   (State2, State3) 0.735294 0.264706;
   (State3, State3) 0.735632 0.264368;
   (State4, State3) 0.0769231 0.923077;
   (State5, State3) 0.5 0.5;
   (State6, State3) 0.608696 0.391304;
   (State7, State3) 0.694416 0.305584;
   (State8, State3) 0.540115 0.459885;
   (State1, State4) 0.648501 0.351499;
   (State2, State4) 0.678571 0.321429;
   (State3, State4) 0.8 0.2;
   (State4, State4) 0.0833333 0.916667;
   (State5, State4) 0.64 0.36;
   (State6, State4) 0.605634 0.394366;
   (State7, State4) 0.785077 0.214923;
   (State8, State4) 0.637708 0.362292;
   (State1, State5) 0.710173 0.289827;
   (State2, State5) 0.8125 0.1875;
   (State3, State5) 0.869565 0.130435;
   (State4, State5) 0.6 0.4;
   (State5, State5) 0.678571 0.321429;
   (State6, State5) 0.688889 0.311111;
   (State7, State5) 0.825203 0.174797;
   (State8, State5) 0.680233 0.319767;
   (State1, State6) 0.769433 0.230567;
   (State2, State6) 0.888889 0.111111;
   (State3, State6) 0.851064 0.148936;
   (State4, State6) 0.833333 0.166667;
   (State5, State6) 0.833333 0.166667;
   (State6, State6) 0.84375 0.15625;
   (State7, State6) 0.90607 0.0939297;
   (State8, State6) 0.785185 0.214815;
   (State1, State7) 0.852598 0.147402;
   (State2, State7) 0.874346 0.125654;
   (State3, State7) 0.917647 0.0823529;
   (State4, State7) 0.966667 0.0333333;
   (State5, State7) 0.688889 0.311111;
   (State6, State7) 0.795918 0.204082;
   (State7, State7) 0.945 0.055;
   (State8, State7) 0.844444 0.155556;
   (State1, State8) 0.933333 0.0666667;
   (State2, State8) 0.936877 0.0631229;
   (State3, State8) 0.960784 0.0392157;
   (State4, State8) 0.75 0.25;
   (State5, State8) 0.975 0.025;
   (State6, State8) 0.983333 0.0166667;
   (State7, State8) 0.96789 0.0321101;
   (State8, State8) 0.907407 0.0925926;
}
probability (SESCategory | income, employementStatus, educationLevel, scantRent, scantMeal, homeOwnership) {
   (State1, State1, State1, State1, State1, State1) 0.333333 0.333333 0.333333;
   (State2, State1, State1, State1, State1, State1) 0.333333 0.333333 0.333333;
   (State3, State1, State1, State1, State1, State1) 0.333333 0.333333 0.333333;
   (State4, State1, State1, State1, State1, State1) 0.333333 0.333333 0.333333;
   (State5, State1, State1, State1, State1, State1) 0.333333 0.333333 0.333333;
   (State6, State1, State1, State1, State1, State1) 0.333333 0.333333 0.333333;
   (State7, State1, State1, State1, State1, State1) 0.333333 0.333333 0.333333;
   (State8, State1, State1, State1, State1, State1) 0.333333 0.333333 0.333333;
   (State1, State2, State1, State1, State1, State1) 0.333333 0.333333 0.333333;
   (State2, State2, State1, State1, State1, State1) 0.333333 0.333333 0.333333;
   (State3, State2, State1, State1, State1, State1) 0.333333 0.333333 0.333333;
   (State4, State2, State1, State1, State1, State1) 0.333333 0.333333 0.333333;
   (State5, State2, State1, State1, State1, State1) 0.333333 0.333333 0.333333;
   (State6, State2, State1, State1, State1, State1) 0.333333 0.333333 0.333333;
   (State7, State2, State1, State1, State1, State1) 0.333333 0.333333 0.333333;
   (State8, State2, State1, State1, State1, State1) 0.333333 0.333333 0.333333;
   (State1, State3, State1, State1, State1, State1) 0.333333 0.333333 0.333333;
   (State2, State3, State1, State1, State1, State1) 0.333333 0.333333 0.333333;
   (State3, State3, State1, State1, State1, State1) 0.333333 0.333333 0.333333;
   (State4, State3, State1, State1, State1, State1) 0.333333 0.333333 0.333333;
   (State5, State3, State1, State1, State1, State1) 0.333333 0.333333 0.333333;
   (State6, State3, State1, State1, State1, State1) 0.333333 0.333333 0.333333;
   (State7, State3, State1, State1, State1, State1) 0.333333 0.333333 0.333333;
   (State8, State3, State1, State1, State1, State1) 0.333333 0.333333 0.333333;
   (State1, State4, State1, State1, State1, State1) 0.333333 0.333333 0.333333;
   (State2, State4, State1, State1, State1, State1) 0.333333 0.333333 0.333333;
   (State3, State4, State1, State1, State1, State1) 0.333333 0.333333 0.333333;
   (State4, State4, State1, State1, State1, State1) 0.333333 0.333333 0.333333;
   (State5, State4, State1, State1, State1, State1) 0.333333 0.333333 0.333333;
   (State6, State4, State1, State1, State1, State1) 0.333333 0.333333 0.333333;
   (State7, State4, State1, State1, State1, State1) 0.333333 0.333333 0.333333;
   (State8, State4, State1, State1, State1, State1) 0.333333 0.333333 0.333333;
   (State1, State5, State1, State1, State1, State1) 0.333333 0.333333 0.333333;
   (State2, State5, State1, State1, State1, State1) 0.333333 0.333333 0.333333;
   (State3, State5, State1, State1, State1, State1) 0.333333 0.333333 0.333333;
   (State4, State5, State1, State1, State1, State1) 0.333333 0.333333 0.333333;
   (State5, State5, State1, State1, State1, State1) 0.333333 0.333333 0.333333;
   (State6, State5, State1, State1, State1, State1) 0.333333 0.333333 0.333333;
   (State7, State5, State1, State1, State1, State1) 0.333333 0.333333 0.333333;
   (State8, State5, State1, State1, State1, State1) 0.333333 0.333333 0.333333;
   (State1, State6, State1, State1, State1, State1) 0.333333 0.333333 0.333333;
   (State2, State6, State1, State1, State1, State1) 0.333333 0.333333 0.333333;
   (State3, State6, State1, State1, State1, State1) 0.333333 0.333333 0.333333;
   (State4, State6, State1, State1, State1, State1) 0.333333 0.333333 0.333333;
   (State5, State6, State1, State1, State1, State1) 0.333333 0.333333 0.333333;
   (State6, State6, State1, State1, State1, State1) 0.333333 0.333333 0.333333;
   (State7, State6, State1, State1, State1, State1) 0.333333 0.333333 0.333333;
   (State8, State6, State1, State1, State1, State1) 0.333333 0.333333 0.333333;
   (State1, State7, State1, State1, State1, State1) 0.333333 0.333333 0.333333;
   (State2, State7, State1, State1, State1, State1) 0.333333 0.333333 0.333333;
   (State3, State7, State1, State1, State1, State1) 0.333333 0.333333 0.333333;
   (State4, State7, State1, State1, State1, State1) 0.333333 0.333333 0.333333;
   (State5, State7, State1, State1, State1, State1) 0.333333 0.333333 0.333333;
   (State6, State7, State1, State1, State1, State1) 0.333333 0.333333 0.333333;
   (State7, State7, State1, State1, State1, State1) 0.333333 0.333333 0.333333;
   (State8, State7, State1, State1, State1, State1) 0.333333 0.333333 0.333333;
   (State1, State8, State1, State1, State1, State1) 0.333333 0.333333 0.333333;
   (State2, State8, State1, State1, State1, State1) 0.333333 0.333333 0.333333;
   (State3, State8, State1, State1, State1, State1) 0.333333 0.333333 0.333333;
   (State4, State8, State1, State1, State1, State1) 0.333333 0.333333 0.333333;
   (State5, State8, State1, State1, State1, State1) 0.333333 0.333333 0.333333;
   (State6, State8, State1, State1, State1, State1) 0.333333 0.333333 0.333333;
   (State7, State8, State1, State1, State1, State1) 0.333333 0.333333 0.333333;
   (State8, State8, State1, State1, State1, State1) 0.333333 0.333333 0.333333;
   (State1, State1, State2, State1, State1, State1) 0.333333 0.333333 0.333333;
   (State2, State1, State2, State1, State1, State1) 0.333333 0.333333 0.333333;
   (State3, State1, State2, State1, State1, State1) 0.333333 0.333333 0.333333;
   (State4, State1, State2, State1, State1, State1) 0.333333 0.333333 0.333333;
   (State5, State1, State2, State1, State1, State1) 0.333333 0.333333 0.333333;
   (State6, State1, State2, State1, State1, State1) 0.333333 0.333333 0.333333;
   (State7, State1, State2, State1, State1, State1) 0.333333 0.333333 0.333333;
   (State8, State1, State2, State1, State1, State1) 0.333333 0.333333 0.333333;
   (State1, State2, State2, State1, State1, State1) 0.333333 0.333333 0.333333;
   (State2, State2, State2, State1, State1, State1) 0.333333 0.333333 0.333333;
   (State3, State2, State2, State1, State1, State1) 0.333333 0.333333 0.333333;
   (State4, State2, State2, State1, State1, State1) 0.333333 0.333333 0.333333;
   (State5, State2, State2, State1, State1, State1) 0.333333 0.333333 0.333333;
   (State6, State2, State2, State1, State1, State1) 0.333333 0.333333 0.333333;
   (State7, State2, State2, State1, State1, State1) 0.333333 0.333333 0.333333;
   (State8, State2, State2, State1, State1, State1) 0.333333 0.333333 0.333333;
   (State1, State3, State2, State1, State1, State1) 0.333333 0.333333 0.333333;
   (State2, State3, State2, State1, State1, State1) 0.333333 0.333333 0.333333;
   (State3, State3, State2, State1, State1, State1) 0.333333 0.333333 0.333333;
   (State4, State3, State2, State1, State1, State1) 0.333333 0.333333 0.333333;
   (State5, State3, State2, State1, State1, State1) 0.333333 0.333333 0.333333;
   (State6, State3, State2, State1, State1, State1) 0.333333 0.333333 0.333333;
   (State7, State3, State2, State1, State1, State1) 0.333333 0.333333 0.333333;
   (State8, State3, State2, State1, State1, State1) 0.333333 0.333333 0.333333;
   (State1, State4, State2, State1, State1, State1) 0.333333 0.333333 0.333333;
   (State2, State4, State2, State1, State1, State1) 0.333333 0.333333 0.333333;
   (State3, State4, State2, State1, State1, State1) 0.333333 0.333333 0.333333;
   (State4, State4, State2, State1, State1, State1) 0.333333 0.333333 0.333333;
   (State5, State4, State2, State1, State1, State1) 0.333333 0.333333 0.333333;
   (State6, State4, State2, State1, State1, State1) 0.333333 0.333333 0.333333;
   (State7, State4, State2, State1, State1, State1) 0.333333 0.333333 0.333333;
   (State8, State4, State2, State1, State1, State1) 0.333333 0.333333 0.333333;
   (State1, State5, State2, State1, State1, State1) 0.333333 0.333333 0.333333;
   (State2, State5, State2, State1, State1, State1) 0.333333 0.333333 0.333333;
   (State3, State5, State2, State1, State1, State1) 0.333333 0.333333 0.333333;
   (State4, State5, State2, State1, State1, State1) 0.0833333 0.833333 0.0833333;
   (State5, State5, State2, State1, State1, State1) 0.666667 0.166667 0.166667;
   (State6, State5, State2, State1, State1, State1) 0.333333 0.333333 0.333333;
   (State7, State5, State2, State1, State1, State1) 0.333333 0.333333 0.333333;
   (State8, State5, State2, State1, State1, State1) 0.333333 0.333333 0.333333;
   (State1, State6, State2, State1, State1, State1) 0.333333 0.333333 0.333333;
   (State2, State6, State2, State1, State1, State1) 0.333333 0.333333 0.333333;
   (State3, State6, State2, State1, State1, State1) 0.333333 0.333333 0.333333;
   (State4, State6, State2, State1, State1, State1) 0.333333 0.333333 0.333333;
   (State5, State6, State2, State1, State1, State1) 0.333333 0.333333 0.333333;
   (State6, State6, State2, State1, State1, State1) 0.333333 0.333333 0.333333;
   (State7, State6, State2, State1, State1, State1) 0.333333 0.333333 0.333333;
   (State8, State6, State2, State1, State1, State1) 0.333333 0.333333 0.333333;
   (State1, State7, State2, State1, State1, State1) 0.333333 0.333333 0.333333;
   (State2, State7, State2, State1, State1, State1) 0.333333 0.333333 0.333333;
   (State3, State7, State2, State1, State1, State1) 0.333333 0.333333 0.333333;
   (State4, State7, State2, State1, State1, State1) 0.333333 0.333333 0.333333;
   (State5, State7, State2, State1, State1, State1) 0.333333 0.333333 0.333333;
   (State6, State7, State2, State1, State1, State1) 0.333333 0.333333 0.333333;
   (State7, State7, State2, State1, State1, State1) 0.333333 0.333333 0.333333;
   (State8, State7, State2, State1, State1, State1) 0.333333 0.333333 0.333333;
   (State1, State8, State2, State1, State1, State1) 0.333333 0.333333 0.333333;
   (State2, State8, State2, State1, State1, State1) 0.333333 0.333333 0.333333;
   (State3, State8, State2, State1, State1, State1) 0.333333 0.333333 0.333333;
   (State4, State8, State2, State1, State1, State1) 0.333333 0.333333 0.333333;
   (State5, State8, State2, State1, State1, State1) 0.111111 0.777778 0.111111;
   (State6, State8, State2, State1, State1, State1) 0.333333 0.333333 0.333333;
   (State7, State8, State2, State1, State1, State1) 0.333333 0.333333 0.333333;
   (State8, State8, State2, State1, State1, State1) 0.333333 0.333333 0.333333;
   (State1, State1, State3, State1, State1, State1) 0.333333 0.333333 0.333333;
   (State2, State1, State3, State1, State1, State1) 0.333333 0.333333 0.333333;
   (State3, State1, State3, State1, State1, State1) 0.333333 0.333333 0.333333;
   (State4, State1, State3, State1, State1, State1) 0.333333 0.333333 0.333333;
   (State5, State1, State3, State1, State1, State1) 0.333333 0.333333 0.333333;
   (State6, State1, State3, State1, State1, State1) 0.333333 0.333333 0.333333;
   (State7, State1, State3, State1, State1, State1) 0.333333 0.333333 0.333333;
   (State8, State1, State3, State1, State1, State1) 0.333333 0.333333 0.333333;
   (State1, State2, State3, State1, State1, State1) 0.333333 0.333333 0.333333;
   (State2, State2, State3, State1, State1, State1) 0.333333 0.333333 0.333333;
   (State3, State2, State3, State1, State1, State1) 0.333333 0.333333 0.333333;
   (State4, State2, State3, State1, State1, State1) 0.333333 0.333333 0.333333;
   (State5, State2, State3, State1, State1, State1) 0.333333 0.333333 0.333333;
   (State6, State2, State3, State1, State1, State1) 0.333333 0.333333 0.333333;
   (State7, State2, State3, State1, State1, State1) 0.333333 0.333333 0.333333;
   (State8, State2, State3, State1, State1, State1) 0.333333 0.333333 0.333333;
   (State1, State3, State3, State1, State1, State1) 0.333333 0.333333 0.333333;
   (State2, State3, State3, State1, State1, State1) 0.333333 0.333333 0.333333;
   (State3, State3, State3, State1, State1, State1) 0.333333 0.333333 0.333333;
   (State4, State3, State3, State1, State1, State1) 0.333333 0.333333 0.333333;
   (State5, State3, State3, State1, State1, State1) 0.166667 0.666667 0.166667;
   (State6, State3, State3, State1, State1, State1) 0.166667 0.666667 0.166667;
   (State7, State3, State3, State1, State1, State1) 0.833333 0.0833333 0.0833333;
   (State8, State3, State3, State1, State1, State1) 0.777778 0.111111 0.111111;
   (State1, State4, State3, State1, State1, State1) 0.777778 0.111111 0.111111;
   (State2, State4, State3, State1, State1, State1) 0.777778 0.111111 0.111111;
   (State3, State4, State3, State1, State1, State1) 0.166667 0.666667 0.166667;
   (State4, State4, State3, State1, State1, State1) 0.0833333 0.833333 0.0833333;
   (State5, State4, State3, State1, State1, State1) 0.333333 0.333333 0.333333;
   (State6, State4, State3, State1, State1, State1) 0.333333 0.333333 0.333333;
   (State7, State4, State3, State1, State1, State1) 0.333333 0.333333 0.333333;
   (State8, State4, State3, State1, State1, State1) 0.166667 0.666667 0.166667;
   (State1, State5, State3, State1, State1, State1) 0.777778 0.111111 0.111111;
   (State2, State5, State3, State1, State1, State1) 0.333333 0.333333 0.333333;
   (State3, State5, State3, State1, State1, State1) 0.333333 0.333333 0.333333;
   (State4, State5, State3, State1, State1, State1) 0.333333 0.333333 0.333333;
   (State5, State5, State3, State1, State1, State1) 0.333333 0.333333 0.333333;
   (State6, State5, State3, State1, State1, State1) 0.333333 0.333333 0.333333;
   (State7, State5, State3, State1, State1, State1) 0.333333 0.333333 0.333333;
   (State8, State5, State3, State1, State1, State1) 0.333333 0.333333 0.333333;
   (State1, State6, State3, State1, State1, State1) 0.333333 0.333333 0.333333;
   (State2, State6, State3, State1, State1, State1) 0.333333 0.333333 0.333333;
   (State3, State6, State3, State1, State1, State1) 0.333333 0.333333 0.333333;
   (State4, State6, State3, State1, State1, State1) 0.333333 0.333333 0.333333;
   (State5, State6, State3, State1, State1, State1) 0.166667 0.666667 0.166667;
   (State6, State6, State3, State1, State1, State1) 0.166667 0.666667 0.166667;
   (State7, State6, State3, State1, State1, State1) 0.333333 0.333333 0.333333;
   (State8, State6, State3, State1, State1, State1) 0.037037 0.925926 0.037037;
   (State1, State7, State3, State1, State1, State1) 0.333333 0.333333 0.333333;
   (State2, State7, State3, State1, State1, State1) 0.333333 0.333333 0.333333;
   (State3, State7, State3, State1, State1, State1) 0.333333 0.333333 0.333333;
   (State4, State7, State3, State1, State1, State1) 0.166667 0.666667 0.166667;
   (State5, State7, State3, State1, State1, State1) 0.333333 0.333333 0.333333;
   (State6, State7, State3, State1, State1, State1) 0.333333 0.333333 0.333333;
   (State7, State7, State3, State1, State1, State1) 0.333333 0.333333 0.333333;
   (State8, State7, State3, State1, State1, State1) 0.333333 0.333333 0.333333;
   (State1, State8, State3, State1, State1, State1) 0.333333 0.333333 0.333333;
   (State2, State8, State3, State1, State1, State1) 0.333333 0.333333 0.333333;
   (State3, State8, State3, State1, State1, State1) 0.0666667 0.866667 0.0666667;
   (State4, State8, State3, State1, State1, State1) 0.333333 0.333333 0.333333;
   (State5, State8, State3, State1, State1, State1) 0.166667 0.666667 0.166667;
   (State6, State8, State3, State1, State1, State1) 0.166667 0.666667 0.166667;
   (State7, State8, State3, State1, State1, State1) 0.333333 0.333333 0.333333;
   (State8, State8, State3, State1, State1, State1) 0.333333 0.333333 0.333333;
   (State1, State1, State4, State1, State1, State1) 0.333333 0.333333 0.333333;
   (State2, State1, State4, State1, State1, State1) 0.333333 0.333333 0.333333;
   (State3, State1, State4, State1, State1, State1) 0.333333 0.333333 0.333333;
   (State4, State1, State4, State1, State1, State1) 0.333333 0.333333 0.333333;
   (State5, State1, State4, State1, State1, State1) 0.166667 0.666667 0.166667;
   (State6, State1, State4, State1, State1, State1) 0.333333 0.333333 0.333333;
   (State7, State1, State4, State1, State1, State1) 0.047619 0.047619 0.904762;
   (State8, State1, State4, State1, State1, State1) 0.166667 0.166667 0.666667;
   (State1, State2, State4, State1, State1, State1) 0.333333 0.333333 0.333333;
   (State2, State2, State4, State1, State1, State1) 0.866667 0.0666667 0.0666667;
   (State3, State2, State4, State1, State1, State1) 0.333333 0.333333 0.333333;
   (State4, State2, State4, State1, State1, State1) 0.333333 0.333333 0.333333;
   (State5, State2, State4, State1, State1, State1) 0.333333 0.333333 0.333333;
   (State6, State2, State4, State1, State1, State1) 0.333333 0.333333 0.333333;
   (State7, State2, State4, State1, State1, State1) 0.333333 0.333333 0.333333;
   (State8, State2, State4, State1, State1, State1) 0.333333 0.333333 0.333333;
   (State1, State3, State4, State1, State1, State1) 0.111111 0.777778 0.111111;
   (State2, State3, State4, State1, State1, State1) 0.333333 0.333333 0.333333;
   (State3, State3, State4, State1, State1, State1) 0.333333 0.333333 0.333333;
   (State4, State3, State4, State1, State1, State1) 0.333333 0.333333 0.333333;
   (State5, State3, State4, State1, State1, State1) 0.333333 0.333333 0.333333;
   (State6, State3, State4, State1, State1, State1) 0.333333 0.333333 0.333333;
   (State7, State3, State4, State1, State1, State1) 0.333333 0.333333 0.333333;
   (State8, State3, State4, State1, State1, State1) 0.166667 0.666667 0.166667;
   (State1, State4, State4, State1, State1, State1) 0.333333 0.333333 0.333333;
   (State2, State4, State4, State1, State1, State1) 0.333333 0.333333 0.333333;
   (State3, State4, State4, State1, State1, State1) 0.333333 0.333333 0.333333;
   (State4, State4, State4, State1, State1, State1) 0.333333 0.333333 0.333333;
   (State5, State4, State4, State1, State1, State1) 0.333333 0.333333 0.333333;
   (State6, State4, State4, State1, State1, State1) 0.333333 0.333333 0.333333;
   (State7, State4, State4, State1, State1, State1) 0.333333 0.333333 0.333333;
   (State8, State4, State4, State1, State1, State1) 0.166667 0.666667 0.166667;
   (State1, State5, State4, State1, State1, State1) 0.166667 0.666667 0.166667;
   (State2, State5, State4, State1, State1, State1) 0.333333 0.333333 0.333333;
   (State3, State5, State4, State1, State1, State1) 0.333333 0.333333 0.333333;
   (State4, State5, State4, State1, State1, State1) 0.333333 0.333333 0.333333;
   (State5, State5, State4, State1, State1, State1) 0.111111 0.777778 0.111111;
   (State6, State5, State4, State1, State1, State1) 0.333333 0.333333 0.333333;
   (State7, State5, State4, State1, State1, State1) 0.333333 0.333333 0.333333;
   (State8, State5, State4, State1, State1, State1) 0.333333 0.333333 0.333333;
   (State1, State6, State4, State1, State1, State1) 0.333333 0.333333 0.333333;
   (State2, State6, State4, State1, State1, State1) 0.333333 0.333333 0.333333;
   (State3, State6, State4, State1, State1, State1) 0.333333 0.333333 0.333333;
   (State4, State6, State4, State1, State1, State1) 0.333333 0.333333 0.333333;
   (State5, State6, State4, State1, State1, State1) 0.333333 0.333333 0.333333;
   (State6, State6, State4, State1, State1, State1) 0.333333 0.333333 0.333333;
   (State7, State6, State4, State1, State1, State1) 0.333333 0.333333 0.333333;
   (State8, State6, State4, State1, State1, State1) 0.333333 0.333333 0.333333;
   (State1, State7, State4, State1, State1, State1) 0.333333 0.333333 0.333333;
   (State2, State7, State4, State1, State1, State1) 0.333333 0.333333 0.333333;
   (State3, State7, State4, State1, State1, State1) 0.333333 0.333333 0.333333;
   (State4, State7, State4, State1, State1, State1) 0.333333 0.333333 0.333333;
   (State5, State7, State4, State1, State1, State1) 0.333333 0.333333 0.333333;
   (State6, State7, State4, State1, State1, State1) 0.333333 0.333333 0.333333;
   (State7, State7, State4, State1, State1, State1) 0.333333 0.333333 0.333333;
   (State8, State7, State4, State1, State1, State1) 0.333333 0.333333 0.333333;
   (State1, State8, State4, State1, State1, State1) 0.166667 0.166667 0.666667;
   (State2, State8, State4, State1, State1, State1) 0.333333 0.333333 0.333333;
   (State3, State8, State4, State1, State1, State1) 0.111111 0.777778 0.111111;
   (State4, State8, State4, State1, State1, State1) 0.333333 0.333333 0.333333;
   (State5, State8, State4, State1, State1, State1) 0.333333 0.333333 0.333333;
   (State6, State8, State4, State1, State1, State1) 0.333333 0.333333 0.333333;
   (State7, State8, State4, State1, State1, State1) 0.333333 0.333333 0.333333;
   (State8, State8, State4, State1, State1, State1) 0.333333 0.333333 0.333333;
   (State1, State1, State5, State1, State1, State1) 0.333333 0.333333 0.333333;
   (State2, State1, State5, State1, State1, State1) 0.111111 0.777778 0.111111;
   (State3, State1, State5, State1, State1, State1) 0.333333 0.333333 0.333333;
   (State4, State1, State5, State1, State1, State1) 0.111111 0.777778 0.111111;
   (State5, State1, State5, State1, State1, State1) 0.333333 0.333333 0.333333;
   (State6, State1, State5, State1, State1, State1) 0.333333 0.333333 0.333333;
   (State7, State1, State5, State1, State1, State1) 0.333333 0.333333 0.333333;
   (State8, State1, State5, State1, State1, State1) 0.333333 0.333333 0.333333;
   (State1, State2, State5, State1, State1, State1) 0.333333 0.333333 0.333333;
   (State2, State2, State5, State1, State1, State1) 0.166667 0.666667 0.166667;
   (State3, State2, State5, State1, State1, State1) 0.333333 0.333333 0.333333;
   (State4, State2, State5, State1, State1, State1) 0.333333 0.333333 0.333333;
   (State5, State2, State5, State1, State1, State1) 0.333333 0.333333 0.333333;
   (State6, State2, State5, State1, State1, State1) 0.333333 0.333333 0.333333;
   (State7, State2, State5, State1, State1, State1) 0.333333 0.333333 0.333333;
   (State8, State2, State5, State1, State1, State1) 0.333333 0.333333 0.333333;
   (State1, State3, State5, State1, State1, State1) 0.333333 0.333333 0.333333;
   (State2, State3, State5, State1, State1, State1) 0.333333 0.333333 0.333333;
   (State3, State3, State5, State1, State1, State1) 0.333333 0.333333 0.333333;
   (State4, State3, State5, State1, State1, State1) 0.333333 0.333333 0.333333;
   (State5, State3, State5, State1, State1, State1) 0.333333 0.333333 0.333333;
   (State6, State3, State5, State1, State1, State1) 0.333333 0.333333 0.333333;
   (State7, State3, State5, State1, State1, State1) 0.333333 0.333333 0.333333;
   (State8, State3, State5, State1, State1, State1) 0.333333 0.333333 0.333333;
   (State1, State4, State5, State1, State1, State1) 0.333333 0.333333 0.333333;
   (State2, State4, State5, State1, State1, State1) 0.333333 0.333333 0.333333;
   (State3, State4, State5, State1, State1, State1) 0.333333 0.333333 0.333333;
   (State4, State4, State5, State1, State1, State1) 0.333333 0.333333 0.333333;
   (State5, State4, State5, State1, State1, State1) 0.333333 0.333333 0.333333;
   (State6, State4, State5, State1, State1, State1) 0.333333 0.333333 0.333333;
   (State7, State4, State5, State1, State1, State1) 0.333333 0.333333 0.333333;
   (State8, State4, State5, State1, State1, State1) 0.333333 0.333333 0.333333;
   (State1, State5, State5, State1, State1, State1) 0.333333 0.333333 0.333333;
   (State2, State5, State5, State1, State1, State1) 0.333333 0.333333 0.333333;
   (State3, State5, State5, State1, State1, State1) 0.333333 0.333333 0.333333;
   (State4, State5, State5, State1, State1, State1) 0.333333 0.333333 0.333333;
   (State5, State5, State5, State1, State1, State1) 0.333333 0.333333 0.333333;
   (State6, State5, State5, State1, State1, State1) 0.333333 0.333333 0.333333;
   (State7, State5, State5, State1, State1, State1) 0.333333 0.333333 0.333333;
   (State8, State5, State5, State1, State1, State1) 0.333333 0.333333 0.333333;
   (State1, State6, State5, State1, State1, State1) 0.333333 0.333333 0.333333;
   (State2, State6, State5, State1, State1, State1) 0.333333 0.333333 0.333333;
   (State3, State6, State5, State1, State1, State1) 0.111111 0.111111 0.777778;
   (State4, State6, State5, State1, State1, State1) 0.333333 0.333333 0.333333;
   (State5, State6, State5, State1, State1, State1) 0.333333 0.333333 0.333333;
   (State6, State6, State5, State1, State1, State1) 0.333333 0.333333 0.333333;
   (State7, State6, State5, State1, State1, State1) 0.333333 0.333333 0.333333;
   (State8, State6, State5, State1, State1, State1) 0.333333 0.333333 0.333333;
   (State1, State7, State5, State1, State1, State1) 0.333333 0.333333 0.333333;
   (State2, State7, State5, State1, State1, State1) 0.333333 0.333333 0.333333;
   (State3, State7, State5, State1, State1, State1) 0.333333 0.333333 0.333333;
   (State4, State7, State5, State1, State1, State1) 0.333333 0.333333 0.333333;
   (State5, State7, State5, State1, State1, State1) 0.333333 0.333333 0.333333;
   (State6, State7, State5, State1, State1, State1) 0.333333 0.333333 0.333333;
   (State7, State7, State5, State1, State1, State1) 0.333333 0.333333 0.333333;
   (State8, State7, State5, State1, State1, State1) 0.333333 0.333333 0.333333;
   (State1, State8, State5, State1, State1, State1) 0.333333 0.333333 0.333333;
   (State2, State8, State5, State1, State1, State1) 0.333333 0.333333 0.333333;
   (State3, State8, State5, State1, State1, State1) 0.333333 0.333333 0.333333;
   (State4, State8, State5, State1, State1, State1) 0.333333 0.333333 0.333333;
   (State5, State8, State5, State1, State1, State1) 0.333333 0.333333 0.333333;
   (State6, State8, State5, State1, State1, State1) 0.333333 0.333333 0.333333;
   (State7, State8, State5, State1, State1, State1) 0.333333 0.333333 0.333333;
   (State8, State8, State5, State1, State1, State1) 0.333333 0.333333 0.333333;
   (State1, State1, State6, State1, State1, State1) 0.333333 0.333333 0.333333;
   (State2, State1, State6, State1, State1, State1) 0.333333 0.333333 0.333333;
   (State3, State1, State6, State1, State1, State1) 0.333333 0.333333 0.333333;
   (State4, State1, State6, State1, State1, State1) 0.333333 0.333333 0.333333;
   (State5, State1, State6, State1, State1, State1) 0.333333 0.333333 0.333333;
   (State6, State1, State6, State1, State1, State1) 0.333333 0.333333 0.333333;
   (State7, State1, State6, State1, State1, State1) 0.333333 0.333333 0.333333;
   (State8, State1, State6, State1, State1, State1) 0.333333 0.333333 0.333333;
   (State1, State2, State6, State1, State1, State1) 0.333333 0.333333 0.333333;
   (State2, State2, State6, State1, State1, State1) 0.333333 0.333333 0.333333;
   (State3, State2, State6, State1, State1, State1) 0.333333 0.333333 0.333333;
   (State4, State2, State6, State1, State1, State1) 0.333333 0.333333 0.333333;
   (State5, State2, State6, State1, State1, State1) 0.333333 0.333333 0.333333;
   (State6, State2, State6, State1, State1, State1) 0.333333 0.333333 0.333333;
   (State7, State2, State6, State1, State1, State1) 0.333333 0.333333 0.333333;
   (State8, State2, State6, State1, State1, State1) 0.333333 0.333333 0.333333;
   (State1, State3, State6, State1, State1, State1) 0.333333 0.333333 0.333333;
   (State2, State3, State6, State1, State1, State1) 0.333333 0.333333 0.333333;
   (State3, State3, State6, State1, State1, State1) 0.333333 0.333333 0.333333;
   (State4, State3, State6, State1, State1, State1) 0.333333 0.333333 0.333333;
   (State5, State3, State6, State1, State1, State1) 0.333333 0.333333 0.333333;
   (State6, State3, State6, State1, State1, State1) 0.333333 0.333333 0.333333;
   (State7, State3, State6, State1, State1, State1) 0.333333 0.333333 0.333333;
   (State8, State3, State6, State1, State1, State1) 0.333333 0.333333 0.333333;
   (State1, State4, State6, State1, State1, State1) 0.333333 0.333333 0.333333;
   (State2, State4, State6, State1, State1, State1) 0.333333 0.333333 0.333333;
   (State3, State4, State6, State1, State1, State1) 0.333333 0.333333 0.333333;
   (State4, State4, State6, State1, State1, State1) 0.333333 0.333333 0.333333;
   (State5, State4, State6, State1, State1, State1) 0.333333 0.333333 0.333333;
   (State6, State4, State6, State1, State1, State1) 0.333333 0.333333 0.333333;
   (State7, State4, State6, State1, State1, State1) 0.333333 0.333333 0.333333;
   (State8, State4, State6, State1, State1, State1) 0.333333 0.333333 0.333333;
   (State1, State5, State6, State1, State1, State1) 0.333333 0.333333 0.333333;
   (State2, State5, State6, State1, State1, State1) 0.333333 0.333333 0.333333;
   (State3, State5, State6, State1, State1, State1) 0.333333 0.333333 0.333333;
   (State4, State5, State6, State1, State1, State1) 0.333333 0.333333 0.333333;
   (State5, State5, State6, State1, State1, State1) 0.333333 0.333333 0.333333;
   (State6, State5, State6, State1, State1, State1) 0.333333 0.333333 0.333333;
   (State7, State5, State6, State1, State1, State1) 0.333333 0.333333 0.333333;
   (State8, State5, State6, State1, State1, State1) 0.333333 0.333333 0.333333;
   (State1, State6, State6, State1, State1, State1) 0.333333 0.333333 0.333333;
   (State2, State6, State6, State1, State1, State1) 0.333333 0.333333 0.333333;
   (State3, State6, State6, State1, State1, State1) 0.333333 0.333333 0.333333;
   (State4, State6, State6, State1, State1, State1) 0.333333 0.333333 0.333333;
   (State5, State6, State6, State1, State1, State1) 0.333333 0.333333 0.333333;
   (State6, State6, State6, State1, State1, State1) 0.333333 0.333333 0.333333;
   (State7, State6, State6, State1, State1, State1) 0.333333 0.333333 0.333333;
   (State8, State6, State6, State1, State1, State1) 0.333333 0.333333 0.333333;
   (State1, State7, State6, State1, State1, State1) 0.333333 0.333333 0.333333;
   (State2, State7, State6, State1, State1, State1) 0.333333 0.333333 0.333333;
   (State3, State7, State6, State1, State1, State1) 0.333333 0.333333 0.333333;
   (State4, State7, State6, State1, State1, State1) 0.333333 0.333333 0.333333;
   (State5, State7, State6, State1, State1, State1) 0.333333 0.333333 0.333333;
   (State6, State7, State6, State1, State1, State1) 0.333333 0.333333 0.333333;
   (State7, State7, State6, State1, State1, State1) 0.166667 0.666667 0.166667;
   (State8, State7, State6, State1, State1, State1) 0.333333 0.333333 0.333333;
   (State1, State8, State6, State1, State1, State1) 0.333333 0.333333 0.333333;
   (State2, State8, State6, State1, State1, State1) 0.333333 0.333333 0.333333;
   (State3, State8, State6, State1, State1, State1) 0.333333 0.333333 0.333333;
   (State4, State8, State6, State1, State1, State1) 0.333333 0.333333 0.333333;
   (State5, State8, State6, State1, State1, State1) 0.333333 0.333333 0.333333;
   (State6, State8, State6, State1, State1, State1) 0.333333 0.333333 0.333333;
   (State7, State8, State6, State1, State1, State1) 0.333333 0.333333 0.333333;
   (State8, State8, State6, State1, State1, State1) 0.333333 0.333333 0.333333;
   (State1, State1, State1, State2, State1, State1) 0.333333 0.333333 0.333333;
   (State2, State1, State1, State2, State1, State1) 0.333333 0.333333 0.333333;
   (State3, State1, State1, State2, State1, State1) 0.333333 0.333333 0.333333;
   (State4, State1, State1, State2, State1, State1) 0.333333 0.333333 0.333333;
   (State5, State1, State1, State2, State1, State1) 0.333333 0.333333 0.333333;
   (State6, State1, State1, State2, State1, State1) 0.333333 0.333333 0.333333;
   (State7, State1, State1, State2, State1, State1) 0.333333 0.333333 0.333333;
   (State8, State1, State1, State2, State1, State1) 0.333333 0.333333 0.333333;
   (State1, State2, State1, State2, State1, State1) 0.333333 0.333333 0.333333;
   (State2, State2, State1, State2, State1, State1) 0.333333 0.333333 0.333333;
   (State3, State2, State1, State2, State1, State1) 0.333333 0.333333 0.333333;
   (State4, State2, State1, State2, State1, State1) 0.333333 0.333333 0.333333;
   (State5, State2, State1, State2, State1, State1) 0.333333 0.333333 0.333333;
   (State6, State2, State1, State2, State1, State1) 0.333333 0.333333 0.333333;
   (State7, State2, State1, State2, State1, State1) 0.166667 0.666667 0.166667;
   (State8, State2, State1, State2, State1, State1) 0.333333 0.333333 0.333333;
   (State1, State3, State1, State2, State1, State1) 0.333333 0.333333 0.333333;
   (State2, State3, State1, State2, State1, State1) 0.666667 0.166667 0.166667;
   (State3, State3, State1, State2, State1, State1) 0.777778 0.111111 0.111111;
   (State4, State3, State1, State2, State1, State1) 0.333333 0.333333 0.333333;
   (State5, State3, State1, State2, State1, State1) 0.333333 0.333333 0.333333;
   (State6, State3, State1, State2, State1, State1) 0.333333 0.333333 0.333333;
   (State7, State3, State1, State2, State1, State1) 0.333333 0.333333 0.333333;
   (State8, State3, State1, State2, State1, State1) 0.333333 0.333333 0.333333;
   (State1, State4, State1, State2, State1, State1) 0.333333 0.333333 0.333333;
   (State2, State4, State1, State2, State1, State1) 0.333333 0.333333 0.333333;
   (State3, State4, State1, State2, State1, State1) 0.333333 0.333333 0.333333;
   (State4, State4, State1, State2, State1, State1) 0.333333 0.333333 0.333333;
   (State5, State4, State1, State2, State1, State1) 0.333333 0.333333 0.333333;
   (State6, State4, State1, State2, State1, State1) 0.333333 0.333333 0.333333;
   (State7, State4, State1, State2, State1, State1) 0.333333 0.333333 0.333333;
   (State8, State4, State1, State2, State1, State1) 0.333333 0.333333 0.333333;
   (State1, State5, State1, State2, State1, State1) 0.333333 0.333333 0.333333;
   (State2, State5, State1, State2, State1, State1) 0.333333 0.333333 0.333333;
   (State3, State5, State1, State2, State1, State1) 0.333333 0.333333 0.333333;
   (State4, State5, State1, State2, State1, State1) 0.333333 0.333333 0.333333;
   (State5, State5, State1, State2, State1, State1) 0.333333 0.333333 0.333333;
   (State6, State5, State1, State2, State1, State1) 0.333333 0.333333 0.333333;
   (State7, State5, State1, State2, State1, State1) 0.333333 0.333333 0.333333;
   (State8, State5, State1, State2, State1, State1) 0.333333 0.333333 0.333333;
   (State1, State6, State1, State2, State1, State1) 0.333333 0.333333 0.333333;
   (State2, State6, State1, State2, State1, State1) 0.333333 0.333333 0.333333;
   (State3, State6, State1, State2, State1, State1) 0.333333 0.333333 0.333333;
   (State4, State6, State1, State2, State1, State1) 0.333333 0.333333 0.333333;
   (State5, State6, State1, State2, State1, State1) 0.333333 0.333333 0.333333;
   (State6, State6, State1, State2, State1, State1) 0.333333 0.333333 0.333333;
   (State7, State6, State1, State2, State1, State1) 0.333333 0.333333 0.333333;
   (State8, State6, State1, State2, State1, State1) 0.333333 0.333333 0.333333;
   (State1, State7, State1, State2, State1, State1) 0.333333 0.333333 0.333333;
   (State2, State7, State1, State2, State1, State1) 0.333333 0.333333 0.333333;
   (State3, State7, State1, State2, State1, State1) 0.333333 0.333333 0.333333;
   (State4, State7, State1, State2, State1, State1) 0.333333 0.333333 0.333333;
   (State5, State7, State1, State2, State1, State1) 0.333333 0.333333 0.333333;
   (State6, State7, State1, State2, State1, State1) 0.333333 0.333333 0.333333;
   (State7, State7, State1, State2, State1, State1) 0.333333 0.333333 0.333333;
   (State8, State7, State1, State2, State1, State1) 0.333333 0.333333 0.333333;
   (State1, State8, State1, State2, State1, State1) 0.333333 0.333333 0.333333;
   (State2, State8, State1, State2, State1, State1) 0.333333 0.333333 0.333333;
   (State3, State8, State1, State2, State1, State1) 0.333333 0.333333 0.333333;
   (State4, State8, State1, State2, State1, State1) 0.333333 0.333333 0.333333;
   (State5, State8, State1, State2, State1, State1) 0.333333 0.333333 0.333333;
   (State6, State8, State1, State2, State1, State1) 0.333333 0.333333 0.333333;
   (State7, State8, State1, State2, State1, State1) 0.333333 0.333333 0.333333;
   (State8, State8, State1, State2, State1, State1) 0.333333 0.333333 0.333333;
   (State1, State1, State2, State2, State1, State1) 0.333333 0.333333 0.333333;
   (State2, State1, State2, State2, State1, State1) 0.333333 0.333333 0.333333;
   (State3, State1, State2, State2, State1, State1) 0.333333 0.333333 0.333333;
   (State4, State1, State2, State2, State1, State1) 0.777778 0.111111 0.111111;
   (State5, State1, State2, State2, State1, State1) 0.333333 0.333333 0.333333;
   (State6, State1, State2, State2, State1, State1) 0.333333 0.333333 0.333333;
   (State7, State1, State2, State2, State1, State1) 0.333333 0.333333 0.333333;
   (State8, State1, State2, State2, State1, State1) 0.833333 0.0833333 0.0833333;
   (State1, State2, State2, State2, State1, State1) 0.333333 0.333333 0.333333;
   (State2, State2, State2, State2, State1, State1) 0.333333 0.333333 0.333333;
   (State3, State2, State2, State2, State1, State1) 0.333333 0.333333 0.333333;
   (State4, State2, State2, State2, State1, State1) 0.333333 0.333333 0.333333;
   (State5, State2, State2, State2, State1, State1) 0.333333 0.333333 0.333333;
   (State6, State2, State2, State2, State1, State1) 0.333333 0.333333 0.333333;
   (State7, State2, State2, State2, State1, State1) 0.333333 0.333333 0.333333;
   (State8, State2, State2, State2, State1, State1) 0.333333 0.333333 0.333333;
   (State1, State3, State2, State2, State1, State1) 0.166667 0.666667 0.166667;
   (State2, State3, State2, State2, State1, State1) 0.333333 0.333333 0.333333;
   (State3, State3, State2, State2, State1, State1) 0.166667 0.666667 0.166667;
   (State4, State3, State2, State2, State1, State1) 0.333333 0.333333 0.333333;
   (State5, State3, State2, State2, State1, State1) 0.333333 0.333333 0.333333;
   (State6, State3, State2, State2, State1, State1) 0.333333 0.333333 0.333333;
   (State7, State3, State2, State2, State1, State1) 0.333333 0.333333 0.333333;
   (State8, State3, State2, State2, State1, State1) 0.333333 0.333333 0.333333;
   (State1, State4, State2, State2, State1, State1) 0.333333 0.333333 0.333333;
   (State2, State4, State2, State2, State1, State1) 0.333333 0.333333 0.333333;
   (State3, State4, State2, State2, State1, State1) 0.166667 0.666667 0.166667;
   (State4, State4, State2, State2, State1, State1) 0.166667 0.666667 0.166667;
   (State5, State4, State2, State2, State1, State1) 0.333333 0.333333 0.333333;
   (State6, State4, State2, State2, State1, State1) 0.333333 0.333333 0.333333;
   (State7, State4, State2, State2, State1, State1) 0.333333 0.333333 0.333333;
   (State8, State4, State2, State2, State1, State1) 0.333333 0.333333 0.333333;
   (State1, State5, State2, State2, State1, State1) 0.333333 0.333333 0.333333;
   (State2, State5, State2, State2, State1, State1) 0.333333 0.333333 0.333333;
   (State3, State5, State2, State2, State1, State1) 0.333333 0.333333 0.333333;
   (State4, State5, State2, State2, State1, State1) 0.333333 0.333333 0.333333;
   (State5, State5, State2, State2, State1, State1) 0.333333 0.333333 0.333333;
   (State6, State5, State2, State2, State1, State1) 0.333333 0.333333 0.333333;
   (State7, State5, State2, State2, State1, State1) 0.333333 0.333333 0.333333;
   (State8, State5, State2, State2, State1, State1) 0.333333 0.333333 0.333333;
   (State1, State6, State2, State2, State1, State1) 0.333333 0.333333 0.333333;
   (State2, State6, State2, State2, State1, State1) 0.333333 0.333333 0.333333;
   (State3, State6, State2, State2, State1, State1) 0.333333 0.333333 0.333333;
   (State4, State6, State2, State2, State1, State1) 0.333333 0.333333 0.333333;
   (State5, State6, State2, State2, State1, State1) 0.333333 0.333333 0.333333;
   (State6, State6, State2, State2, State1, State1) 0.333333 0.333333 0.333333;
   (State7, State6, State2, State2, State1, State1) 0.333333 0.333333 0.333333;
   (State8, State6, State2, State2, State1, State1) 0.333333 0.333333 0.333333;
   (State1, State7, State2, State2, State1, State1) 0.333333 0.333333 0.333333;
   (State2, State7, State2, State2, State1, State1) 0.333333 0.333333 0.333333;
   (State3, State7, State2, State2, State1, State1) 0.333333 0.333333 0.333333;
   (State4, State7, State2, State2, State1, State1) 0.333333 0.333333 0.333333;
   (State5, State7, State2, State2, State1, State1) 0.333333 0.333333 0.333333;
   (State6, State7, State2, State2, State1, State1) 0.333333 0.333333 0.333333;
   (State7, State7, State2, State2, State1, State1) 0.333333 0.333333 0.333333;
   (State8, State7, State2, State2, State1, State1) 0.777778 0.111111 0.111111;
   (State1, State8, State2, State2, State1, State1) 0.333333 0.333333 0.333333;
   (State2, State8, State2, State2, State1, State1) 0.333333 0.333333 0.333333;
   (State3, State8, State2, State2, State1, State1) 0.333333 0.333333 0.333333;
   (State4, State8, State2, State2, State1, State1) 0.333333 0.333333 0.333333;
   (State5, State8, State2, State2, State1, State1) 0.333333 0.333333 0.333333;
   (State6, State8, State2, State2, State1, State1) 0.333333 0.333333 0.333333;
   (State7, State8, State2, State2, State1, State1) 0.333333 0.333333 0.333333;
   (State8, State8, State2, State2, State1, State1) 0.333333 0.333333 0.333333;
   (State1, State1, State3, State2, State1, State1) 0.166667 0.666667 0.166667;
   (State2, State1, State3, State2, State1, State1) 0.333333 0.333333 0.333333;
   (State3, State1, State3, State2, State1, State1) 0.166667 0.666667 0.166667;
   (State4, State1, State3, State2, State1, State1) 0.333333 0.333333 0.333333;
   (State5, State1, State3, State2, State1, State1) 0.333333 0.333333 0.333333;
   (State6, State1, State3, State2, State1, State1) 0.333333 0.333333 0.333333;
   (State7, State1, State3, State2, State1, State1) 0.333333 0.333333 0.333333;
   (State8, State1, State3, State2, State1, State1) 0.333333 0.333333 0.333333;
   (State1, State2, State3, State2, State1, State1) 0.333333 0.333333 0.333333;
   (State2, State2, State3, State2, State1, State1) 0.333333 0.333333 0.333333;
   (State3, State2, State3, State2, State1, State1) 0.111111 0.777778 0.111111;
   (State4, State2, State3, State2, State1, State1) 0.333333 0.333333 0.333333;
   (State5, State2, State3, State2, State1, State1) 0.333333 0.333333 0.333333;
   (State6, State2, State3, State2, State1, State1) 0.166667 0.666667 0.166667;
   (State7, State2, State3, State2, State1, State1) 0.166667 0.666667 0.166667;
   (State8, State2, State3, State2, State1, State1) 0.333333 0.333333 0.333333;
   (State1, State3, State3, State2, State1, State1) 0.333333 0.333333 0.333333;
   (State2, State3, State3, State2, State1, State1) 0.333333 0.333333 0.333333;
   (State3, State3, State3, State2, State1, State1) 0.333333 0.333333 0.333333;
   (State4, State3, State3, State2, State1, State1) 0.333333 0.333333 0.333333;
   (State5, State3, State3, State2, State1, State1) 0.333333 0.333333 0.333333;
   (State6, State3, State3, State2, State1, State1) 0.333333 0.333333 0.333333;
   (State7, State3, State3, State2, State1, State1) 0.333333 0.333333 0.333333;
   (State8, State3, State3, State2, State1, State1) 0.333333 0.333333 0.333333;
   (State1, State4, State3, State2, State1, State1) 0.333333 0.333333 0.333333;
   (State2, State4, State3, State2, State1, State1) 0.333333 0.333333 0.333333;
   (State3, State4, State3, State2, State1, State1) 0.333333 0.333333 0.333333;
   (State4, State4, State3, State2, State1, State1) 0.333333 0.333333 0.333333;
   (State5, State4, State3, State2, State1, State1) 0.333333 0.333333 0.333333;
   (State6, State4, State3, State2, State1, State1) 0.333333 0.333333 0.333333;
   (State7, State4, State3, State2, State1, State1) 0.333333 0.333333 0.333333;
   (State8, State4, State3, State2, State1, State1) 0.333333 0.333333 0.333333;
   (State1, State5, State3, State2, State1, State1) 0.333333 0.333333 0.333333;
   (State2, State5, State3, State2, State1, State1) 0.333333 0.333333 0.333333;
   (State3, State5, State3, State2, State1, State1) 0.333333 0.333333 0.333333;
   (State4, State5, State3, State2, State1, State1) 0.333333 0.333333 0.333333;
   (State5, State5, State3, State2, State1, State1) 0.166667 0.166667 0.666667;
   (State6, State5, State3, State2, State1, State1) 0.166667 0.166667 0.666667;
   (State7, State5, State3, State2, State1, State1) 0.333333 0.333333 0.333333;
   (State8, State5, State3, State2, State1, State1) 0.333333 0.333333 0.333333;
   (State1, State6, State3, State2, State1, State1) 0.333333 0.333333 0.333333;
   (State2, State6, State3, State2, State1, State1) 0.333333 0.333333 0.333333;
   (State3, State6, State3, State2, State1, State1) 0.111111 0.777778 0.111111;
   (State4, State6, State3, State2, State1, State1) 0.333333 0.333333 0.333333;
   (State5, State6, State3, State2, State1, State1) 0.333333 0.333333 0.333333;
   (State6, State6, State3, State2, State1, State1) 0.333333 0.333333 0.333333;
   (State7, State6, State3, State2, State1, State1) 0.333333 0.333333 0.333333;
   (State8, State6, State3, State2, State1, State1) 0.333333 0.333333 0.333333;
   (State1, State7, State3, State2, State1, State1) 0.333333 0.333333 0.333333;
   (State2, State7, State3, State2, State1, State1) 0.333333 0.333333 0.333333;
   (State3, State7, State3, State2, State1, State1) 0.333333 0.333333 0.333333;
   (State4, State7, State3, State2, State1, State1) 0.333333 0.333333 0.333333;
   (State5, State7, State3, State2, State1, State1) 0.333333 0.333333 0.333333;
   (State6, State7, State3, State2, State1, State1) 0.333333 0.333333 0.333333;
   (State7, State7, State3, State2, State1, State1) 0.333333 0.333333 0.333333;
   (State8, State7, State3, State2, State1, State1) 0.333333 0.333333 0.333333;
   (State1, State8, State3, State2, State1, State1) 0.333333 0.333333 0.333333;
   (State2, State8, State3, State2, State1, State1) 0.333333 0.333333 0.333333;
   (State3, State8, State3, State2, State1, State1) 0.333333 0.333333 0.333333;
   (State4, State8, State3, State2, State1, State1) 0.333333 0.333333 0.333333;
   (State5, State8, State3, State2, State1, State1) 0.333333 0.333333 0.333333;
   (State6, State8, State3, State2, State1, State1) 0.333333 0.333333 0.333333;
   (State7, State8, State3, State2, State1, State1) 0.333333 0.333333 0.333333;
   (State8, State8, State3, State2, State1, State1) 0.333333 0.333333 0.333333;
   (State1, State1, State4, State2, State1, State1) 0.333333 0.333333 0.333333;
   (State2, State1, State4, State2, State1, State1) 0.333333 0.333333 0.333333;
   (State3, State1, State4, State2, State1, State1) 0.333333 0.333333 0.333333;
   (State4, State1, State4, State2, State1, State1) 0.333333 0.333333 0.333333;
   (State5, State1, State4, State2, State1, State1) 0.333333 0.333333 0.333333;
   (State6, State1, State4, State2, State1, State1) 0.333333 0.333333 0.333333;
   (State7, State1, State4, State2, State1, State1) 0.333333 0.333333 0.333333;
   (State8, State1, State4, State2, State1, State1) 0.333333 0.333333 0.333333;
   (State1, State2, State4, State2, State1, State1) 0.333333 0.333333 0.333333;
   (State2, State2, State4, State2, State1, State1) 0.333333 0.333333 0.333333;
   (State3, State2, State4, State2, State1, State1) 0.333333 0.333333 0.333333;
   (State4, State2, State4, State2, State1, State1) 0.333333 0.333333 0.333333;
   (State5, State2, State4, State2, State1, State1) 0.166667 0.166667 0.666667;
   (State6, State2, State4, State2, State1, State1) 0.333333 0.333333 0.333333;
   (State7, State2, State4, State2, State1, State1) 0.333333 0.333333 0.333333;
   (State8, State2, State4, State2, State1, State1) 0.333333 0.333333 0.333333;
   (State1, State3, State4, State2, State1, State1) 0.333333 0.333333 0.333333;
   (State2, State3, State4, State2, State1, State1) 0.333333 0.333333 0.333333;
   (State3, State3, State4, State2, State1, State1) 0.333333 0.333333 0.333333;
   (State4, State3, State4, State2, State1, State1) 0.333333 0.333333 0.333333;
   (State5, State3, State4, State2, State1, State1) 0.166667 0.166667 0.666667;
   (State6, State3, State4, State2, State1, State1) 0.333333 0.333333 0.333333;
   (State7, State3, State4, State2, State1, State1) 0.333333 0.333333 0.333333;
   (State8, State3, State4, State2, State1, State1) 0.333333 0.333333 0.333333;
   (State1, State4, State4, State2, State1, State1) 0.333333 0.333333 0.333333;
   (State2, State4, State4, State2, State1, State1) 0.333333 0.333333 0.333333;
   (State3, State4, State4, State2, State1, State1) 0.333333 0.333333 0.333333;
   (State4, State4, State4, State2, State1, State1) 0.333333 0.333333 0.333333;
   (State5, State4, State4, State2, State1, State1) 0.333333 0.333333 0.333333;
   (State6, State4, State4, State2, State1, State1) 0.333333 0.333333 0.333333;
   (State7, State4, State4, State2, State1, State1) 0.333333 0.333333 0.333333;
   (State8, State4, State4, State2, State1, State1) 0.333333 0.333333 0.333333;
   (State1, State5, State4, State2, State1, State1) 0.333333 0.333333 0.333333;
   (State2, State5, State4, State2, State1, State1) 0.333333 0.333333 0.333333;
   (State3, State5, State4, State2, State1, State1) 0.333333 0.333333 0.333333;
   (State4, State5, State4, State2, State1, State1) 0.333333 0.333333 0.333333;
   (State5, State5, State4, State2, State1, State1) 0.333333 0.333333 0.333333;
   (State6, State5, State4, State2, State1, State1) 0.333333 0.333333 0.333333;
   (State7, State5, State4, State2, State1, State1) 0.333333 0.333333 0.333333;
   (State8, State5, State4, State2, State1, State1) 0.333333 0.333333 0.333333;
   (State1, State6, State4, State2, State1, State1) 0.333333 0.333333 0.333333;
   (State2, State6, State4, State2, State1, State1) 0.333333 0.333333 0.333333;
   (State3, State6, State4, State2, State1, State1) 0.333333 0.333333 0.333333;
   (State4, State6, State4, State2, State1, State1) 0.333333 0.333333 0.333333;
   (State5, State6, State4, State2, State1, State1) 0.333333 0.333333 0.333333;
   (State6, State6, State4, State2, State1, State1) 0.333333 0.333333 0.333333;
   (State7, State6, State4, State2, State1, State1) 0.333333 0.333333 0.333333;
   (State8, State6, State4, State2, State1, State1) 0.333333 0.333333 0.333333;
   (State1, State7, State4, State2, State1, State1) 0.333333 0.333333 0.333333;
   (State2, State7, State4, State2, State1, State1) 0.333333 0.333333 0.333333;
   (State3, State7, State4, State2, State1, State1) 0.333333 0.333333 0.333333;
   (State4, State7, State4, State2, State1, State1) 0.333333 0.333333 0.333333;
   (State5, State7, State4, State2, State1, State1) 0.333333 0.333333 0.333333;
   (State6, State7, State4, State2, State1, State1) 0.333333 0.333333 0.333333;
   (State7, State7, State4, State2, State1, State1) 0.333333 0.333333 0.333333;
   (State8, State7, State4, State2, State1, State1) 0.333333 0.333333 0.333333;
   (State1, State8, State4, State2, State1, State1) 0.333333 0.333333 0.333333;
   (State2, State8, State4, State2, State1, State1) 0.333333 0.333333 0.333333;
   (State3, State8, State4, State2, State1, State1) 0.333333 0.333333 0.333333;
   (State4, State8, State4, State2, State1, State1) 0.333333 0.333333 0.333333;
   (State5, State8, State4, State2, State1, State1) 0.333333 0.333333 0.333333;
   (State6, State8, State4, State2, State1, State1) 0.333333 0.333333 0.333333;
   (State7, State8, State4, State2, State1, State1) 0.333333 0.333333 0.333333;
   (State8, State8, State4, State2, State1, State1) 0.333333 0.333333 0.333333;
   (State1, State1, State5, State2, State1, State1) 0.333333 0.333333 0.333333;
   (State2, State1, State5, State2, State1, State1) 0.333333 0.333333 0.333333;
   (State3, State1, State5, State2, State1, State1) 0.333333 0.333333 0.333333;
   (State4, State1, State5, State2, State1, State1) 0.333333 0.333333 0.333333;
   (State5, State1, State5, State2, State1, State1) 0.333333 0.333333 0.333333;
   (State6, State1, State5, State2, State1, State1) 0.333333 0.333333 0.333333;
   (State7, State1, State5, State2, State1, State1) 0.333333 0.333333 0.333333;
   (State8, State1, State5, State2, State1, State1) 0.333333 0.333333 0.333333;
   (State1, State2, State5, State2, State1, State1) 0.333333 0.333333 0.333333;
   (State2, State2, State5, State2, State1, State1) 0.333333 0.333333 0.333333;
   (State3, State2, State5, State2, State1, State1) 0.666667 0.166667 0.166667;
   (State4, State2, State5, State2, State1, State1) 0.333333 0.333333 0.333333;
   (State5, State2, State5, State2, State1, State1) 0.333333 0.333333 0.333333;
   (State6, State2, State5, State2, State1, State1) 0.333333 0.333333 0.333333;
   (State7, State2, State5, State2, State1, State1) 0.333333 0.333333 0.333333;
   (State8, State2, State5, State2, State1, State1) 0.333333 0.333333 0.333333;
   (State1, State3, State5, State2, State1, State1) 0.333333 0.333333 0.333333;
   (State2, State3, State5, State2, State1, State1) 0.333333 0.333333 0.333333;
   (State3, State3, State5, State2, State1, State1) 0.333333 0.333333 0.333333;
   (State4, State3, State5, State2, State1, State1) 0.666667 0.166667 0.166667;
   (State5, State3, State5, State2, State1, State1) 0.333333 0.333333 0.333333;
   (State6, State3, State5, State2, State1, State1) 0.333333 0.333333 0.333333;
   (State7, State3, State5, State2, State1, State1) 0.333333 0.333333 0.333333;
   (State8, State3, State5, State2, State1, State1) 0.333333 0.333333 0.333333;
   (State1, State4, State5, State2, State1, State1) 0.333333 0.333333 0.333333;
   (State2, State4, State5, State2, State1, State1) 0.333333 0.333333 0.333333;
   (State3, State4, State5, State2, State1, State1) 0.333333 0.333333 0.333333;
   (State4, State4, State5, State2, State1, State1) 0.333333 0.333333 0.333333;
   (State5, State4, State5, State2, State1, State1) 0.166667 0.666667 0.166667;
   (State6, State4, State5, State2, State1, State1) 0.333333 0.333333 0.333333;
   (State7, State4, State5, State2, State1, State1) 0.333333 0.333333 0.333333;
   (State8, State4, State5, State2, State1, State1) 0.333333 0.333333 0.333333;
   (State1, State5, State5, State2, State1, State1) 0.333333 0.333333 0.333333;
   (State2, State5, State5, State2, State1, State1) 0.333333 0.333333 0.333333;
   (State3, State5, State5, State2, State1, State1) 0.333333 0.333333 0.333333;
   (State4, State5, State5, State2, State1, State1) 0.333333 0.333333 0.333333;
   (State5, State5, State5, State2, State1, State1) 0.333333 0.333333 0.333333;
   (State6, State5, State5, State2, State1, State1) 0.333333 0.333333 0.333333;
   (State7, State5, State5, State2, State1, State1) 0.166667 0.666667 0.166667;
   (State8, State5, State5, State2, State1, State1) 0.333333 0.333333 0.333333;
   (State1, State6, State5, State2, State1, State1) 0.333333 0.333333 0.333333;
   (State2, State6, State5, State2, State1, State1) 0.333333 0.333333 0.333333;
   (State3, State6, State5, State2, State1, State1) 0.333333 0.333333 0.333333;
   (State4, State6, State5, State2, State1, State1) 0.333333 0.333333 0.333333;
   (State5, State6, State5, State2, State1, State1) 0.333333 0.333333 0.333333;
   (State6, State6, State5, State2, State1, State1) 0.333333 0.333333 0.333333;
   (State7, State6, State5, State2, State1, State1) 0.333333 0.333333 0.333333;
   (State8, State6, State5, State2, State1, State1) 0.333333 0.333333 0.333333;
   (State1, State7, State5, State2, State1, State1) 0.333333 0.333333 0.333333;
   (State2, State7, State5, State2, State1, State1) 0.333333 0.333333 0.333333;
   (State3, State7, State5, State2, State1, State1) 0.333333 0.333333 0.333333;
   (State4, State7, State5, State2, State1, State1) 0.333333 0.333333 0.333333;
   (State5, State7, State5, State2, State1, State1) 0.333333 0.333333 0.333333;
   (State6, State7, State5, State2, State1, State1) 0.333333 0.333333 0.333333;
   (State7, State7, State5, State2, State1, State1) 0.333333 0.333333 0.333333;
   (State8, State7, State5, State2, State1, State1) 0.166667 0.666667 0.166667;
   (State1, State8, State5, State2, State1, State1) 0.333333 0.333333 0.333333;
   (State2, State8, State5, State2, State1, State1) 0.333333 0.333333 0.333333;
   (State3, State8, State5, State2, State1, State1) 0.111111 0.777778 0.111111;
   (State4, State8, State5, State2, State1, State1) 0.333333 0.333333 0.333333;
   (State5, State8, State5, State2, State1, State1) 0.333333 0.333333 0.333333;
   (State6, State8, State5, State2, State1, State1) 0.333333 0.333333 0.333333;
   (State7, State8, State5, State2, State1, State1) 0.333333 0.333333 0.333333;
   (State8, State8, State5, State2, State1, State1) 0.333333 0.333333 0.333333;
   (State1, State1, State6, State2, State1, State1) 0.333333 0.333333 0.333333;
   (State2, State1, State6, State2, State1, State1) 0.333333 0.333333 0.333333;
   (State3, State1, State6, State2, State1, State1) 0.333333 0.333333 0.333333;
   (State4, State1, State6, State2, State1, State1) 0.333333 0.333333 0.333333;
   (State5, State1, State6, State2, State1, State1) 0.333333 0.333333 0.333333;
   (State6, State1, State6, State2, State1, State1) 0.0833333 0.833333 0.0833333;
   (State7, State1, State6, State2, State1, State1) 0.333333 0.333333 0.333333;
   (State8, State1, State6, State2, State1, State1) 0.333333 0.333333 0.333333;
   (State1, State2, State6, State2, State1, State1) 0.333333 0.333333 0.333333;
   (State2, State2, State6, State2, State1, State1) 0.333333 0.333333 0.333333;
   (State3, State2, State6, State2, State1, State1) 0.333333 0.333333 0.333333;
   (State4, State2, State6, State2, State1, State1) 0.333333 0.333333 0.333333;
   (State5, State2, State6, State2, State1, State1) 0.333333 0.333333 0.333333;
   (State6, State2, State6, State2, State1, State1) 0.333333 0.333333 0.333333;
   (State7, State2, State6, State2, State1, State1) 0.333333 0.333333 0.333333;
   (State8, State2, State6, State2, State1, State1) 0.333333 0.333333 0.333333;
   (State1, State3, State6, State2, State1, State1) 0.666667 0.166667 0.166667;
   (State2, State3, State6, State2, State1, State1) 0.333333 0.333333 0.333333;
   (State3, State3, State6, State2, State1, State1) 0.333333 0.333333 0.333333;
   (State4, State3, State6, State2, State1, State1) 0.333333 0.333333 0.333333;
   (State5, State3, State6, State2, State1, State1) 0.333333 0.333333 0.333333;
   (State6, State3, State6, State2, State1, State1) 0.111111 0.777778 0.111111;
   (State7, State3, State6, State2, State1, State1) 0.111111 0.777778 0.111111;
   (State8, State3, State6, State2, State1, State1) 0.333333 0.333333 0.333333;
   (State1, State4, State6, State2, State1, State1) 0.111111 0.777778 0.111111;
   (State2, State4, State6, State2, State1, State1) 0.333333 0.333333 0.333333;
   (State3, State4, State6, State2, State1, State1) 0.333333 0.333333 0.333333;
   (State4, State4, State6, State2, State1, State1) 0.333333 0.333333 0.333333;
   (State5, State4, State6, State2, State1, State1) 0.333333 0.333333 0.333333;
   (State6, State4, State6, State2, State1, State1) 0.333333 0.333333 0.333333;
   (State7, State4, State6, State2, State1, State1) 0.333333 0.333333 0.333333;
   (State8, State4, State6, State2, State1, State1) 0.333333 0.333333 0.333333;
   (State1, State5, State6, State2, State1, State1) 0.333333 0.333333 0.333333;
   (State2, State5, State6, State2, State1, State1) 0.333333 0.333333 0.333333;
   (State3, State5, State6, State2, State1, State1) 0.333333 0.333333 0.333333;
   (State4, State5, State6, State2, State1, State1) 0.333333 0.333333 0.333333;
   (State5, State5, State6, State2, State1, State1) 0.333333 0.333333 0.333333;
   (State6, State5, State6, State2, State1, State1) 0.333333 0.333333 0.333333;
   (State7, State5, State6, State2, State1, State1) 0.333333 0.333333 0.333333;
   (State8, State5, State6, State2, State1, State1) 0.333333 0.333333 0.333333;
   (State1, State6, State6, State2, State1, State1) 0.111111 0.777778 0.111111;
   (State2, State6, State6, State2, State1, State1) 0.333333 0.333333 0.333333;
   (State3, State6, State6, State2, State1, State1) 0.333333 0.333333 0.333333;
   (State4, State6, State6, State2, State1, State1) 0.333333 0.333333 0.333333;
   (State5, State6, State6, State2, State1, State1) 0.166667 0.666667 0.166667;
   (State6, State6, State6, State2, State1, State1) 0.111111 0.777778 0.111111;
   (State7, State6, State6, State2, State1, State1) 0.777778 0.111111 0.111111;
   (State8, State6, State6, State2, State1, State1) 0.333333 0.333333 0.333333;
   (State1, State7, State6, State2, State1, State1) 0.777778 0.111111 0.111111;
   (State2, State7, State6, State2, State1, State1) 0.333333 0.333333 0.333333;
   (State3, State7, State6, State2, State1, State1) 0.333333 0.333333 0.333333;
   (State4, State7, State6, State2, State1, State1) 0.666667 0.166667 0.166667;
   (State5, State7, State6, State2, State1, State1) 0.333333 0.333333 0.333333;
   (State6, State7, State6, State2, State1, State1) 0.333333 0.333333 0.333333;
   (State7, State7, State6, State2, State1, State1) 0.333333 0.333333 0.333333;
   (State8, State7, State6, State2, State1, State1) 0.333333 0.333333 0.333333;
   (State1, State8, State6, State2, State1, State1) 0.333333 0.333333 0.333333;
   (State2, State8, State6, State2, State1, State1) 0.333333 0.333333 0.333333;
   (State3, State8, State6, State2, State1, State1) 0.333333 0.333333 0.333333;
   (State4, State8, State6, State2, State1, State1) 0.666667 0.166667 0.166667;
   (State5, State8, State6, State2, State1, State1) 0.333333 0.333333 0.333333;
   (State6, State8, State6, State2, State1, State1) 0.333333 0.333333 0.333333;
   (State7, State8, State6, State2, State1, State1) 0.333333 0.333333 0.333333;
   (State8, State8, State6, State2, State1, State1) 0.333333 0.333333 0.333333;
   (State1, State1, State1, State3, State1, State1) 0.333333 0.333333 0.333333;
   (State2, State1, State1, State3, State1, State1) 0.166667 0.666667 0.166667;
   (State3, State1, State1, State3, State1, State1) 0.333333 0.333333 0.333333;
   (State4, State1, State1, State3, State1, State1) 0.333333 0.333333 0.333333;
   (State5, State1, State1, State3, State1, State1) 0.333333 0.333333 0.333333;
   (State6, State1, State1, State3, State1, State1) 0.333333 0.333333 0.333333;
   (State7, State1, State1, State3, State1, State1) 0.111111 0.777778 0.111111;
   (State8, State1, State1, State3, State1, State1) 0.333333 0.333333 0.333333;
   (State1, State2, State1, State3, State1, State1) 0.333333 0.333333 0.333333;
   (State2, State2, State1, State3, State1, State1) 0.333333 0.333333 0.333333;
   (State3, State2, State1, State3, State1, State1) 0.111111 0.777778 0.111111;
   (State4, State2, State1, State3, State1, State1) 0.166667 0.666667 0.166667;
   (State5, State2, State1, State3, State1, State1) 0.333333 0.333333 0.333333;
   (State6, State2, State1, State3, State1, State1) 0.333333 0.333333 0.333333;
   (State7, State2, State1, State3, State1, State1) 0.333333 0.333333 0.333333;
   (State8, State2, State1, State3, State1, State1) 0.333333 0.333333 0.333333;
   (State1, State3, State1, State3, State1, State1) 0.333333 0.333333 0.333333;
   (State2, State3, State1, State3, State1, State1) 0.333333 0.333333 0.333333;
   (State3, State3, State1, State3, State1, State1) 0.333333 0.333333 0.333333;
   (State4, State3, State1, State3, State1, State1) 0.333333 0.333333 0.333333;
   (State5, State3, State1, State3, State1, State1) 0.166667 0.666667 0.166667;
   (State6, State3, State1, State3, State1, State1) 0.333333 0.333333 0.333333;
   (State7, State3, State1, State3, State1, State1) 0.333333 0.333333 0.333333;
   (State8, State3, State1, State3, State1, State1) 0.333333 0.333333 0.333333;
   (State1, State4, State1, State3, State1, State1) 0.333333 0.333333 0.333333;
   (State2, State4, State1, State3, State1, State1) 0.333333 0.333333 0.333333;
   (State3, State4, State1, State3, State1, State1) 0.333333 0.333333 0.333333;
   (State4, State4, State1, State3, State1, State1) 0.333333 0.333333 0.333333;
   (State5, State4, State1, State3, State1, State1) 0.333333 0.333333 0.333333;
   (State6, State4, State1, State3, State1, State1) 0.333333 0.333333 0.333333;
   (State7, State4, State1, State3, State1, State1) 0.0833333 0.0833333 0.833333;
   (State8, State4, State1, State3, State1, State1) 0.333333 0.333333 0.333333;
   (State1, State5, State1, State3, State1, State1) 0.333333 0.333333 0.333333;
   (State2, State5, State1, State3, State1, State1) 0.333333 0.333333 0.333333;
   (State3, State5, State1, State3, State1, State1) 0.0833333 0.833333 0.0833333;
   (State4, State5, State1, State3, State1, State1) 0.333333 0.333333 0.333333;
   (State5, State5, State1, State3, State1, State1) 0.333333 0.333333 0.333333;
   (State6, State5, State1, State3, State1, State1) 0.333333 0.333333 0.333333;
   (State7, State5, State1, State3, State1, State1) 0.333333 0.333333 0.333333;
   (State8, State5, State1, State3, State1, State1) 0.333333 0.333333 0.333333;
   (State1, State6, State1, State3, State1, State1) 0.333333 0.333333 0.333333;
   (State2, State6, State1, State3, State1, State1) 0.333333 0.333333 0.333333;
   (State3, State6, State1, State3, State1, State1) 0.333333 0.333333 0.333333;
   (State4, State6, State1, State3, State1, State1) 0.333333 0.333333 0.333333;
   (State5, State6, State1, State3, State1, State1) 0.333333 0.333333 0.333333;
   (State6, State6, State1, State3, State1, State1) 0.333333 0.333333 0.333333;
   (State7, State6, State1, State3, State1, State1) 0.333333 0.333333 0.333333;
   (State8, State6, State1, State3, State1, State1) 0.333333 0.333333 0.333333;
   (State1, State7, State1, State3, State1, State1) 0.333333 0.333333 0.333333;
   (State2, State7, State1, State3, State1, State1) 0.333333 0.333333 0.333333;
   (State3, State7, State1, State3, State1, State1) 0.333333 0.333333 0.333333;
   (State4, State7, State1, State3, State1, State1) 0.333333 0.333333 0.333333;
   (State5, State7, State1, State3, State1, State1) 0.333333 0.333333 0.333333;
   (State6, State7, State1, State3, State1, State1) 0.333333 0.333333 0.333333;
   (State7, State7, State1, State3, State1, State1) 0.333333 0.333333 0.333333;
   (State8, State7, State1, State3, State1, State1) 0.333333 0.333333 0.333333;
   (State1, State8, State1, State3, State1, State1) 0.333333 0.333333 0.333333;
   (State2, State8, State1, State3, State1, State1) 0.166667 0.666667 0.166667;
   (State3, State8, State1, State3, State1, State1) 0.333333 0.333333 0.333333;
   (State4, State8, State1, State3, State1, State1) 0.333333 0.333333 0.333333;
   (State5, State8, State1, State3, State1, State1) 0.333333 0.333333 0.333333;
   (State6, State8, State1, State3, State1, State1) 0.333333 0.333333 0.333333;
   (State7, State8, State1, State3, State1, State1) 0.333333 0.333333 0.333333;
   (State8, State8, State1, State3, State1, State1) 0.333333 0.333333 0.333333;
   (State1, State1, State2, State3, State1, State1) 0.333333 0.333333 0.333333;
   (State2, State1, State2, State3, State1, State1) 0.333333 0.333333 0.333333;
   (State3, State1, State2, State3, State1, State1) 0.333333 0.333333 0.333333;
   (State4, State1, State2, State3, State1, State1) 0.333333 0.333333 0.333333;
   (State5, State1, State2, State3, State1, State1) 0.333333 0.333333 0.333333;
   (State6, State1, State2, State3, State1, State1) 0.333333 0.333333 0.333333;
   (State7, State1, State2, State3, State1, State1) 0.333333 0.333333 0.333333;
   (State8, State1, State2, State3, State1, State1) 0.333333 0.333333 0.333333;
   (State1, State2, State2, State3, State1, State1) 0.333333 0.333333 0.333333;
   (State2, State2, State2, State3, State1, State1) 0.333333 0.333333 0.333333;
   (State3, State2, State2, State3, State1, State1) 0.333333 0.333333 0.333333;
   (State4, State2, State2, State3, State1, State1) 0.333333 0.333333 0.333333;
   (State5, State2, State2, State3, State1, State1) 0.333333 0.333333 0.333333;
   (State6, State2, State2, State3, State1, State1) 0.333333 0.333333 0.333333;
   (State7, State2, State2, State3, State1, State1) 0.333333 0.333333 0.333333;
   (State8, State2, State2, State3, State1, State1) 0.333333 0.333333 0.333333;
   (State1, State3, State2, State3, State1, State1) 0.333333 0.333333 0.333333;
   (State2, State3, State2, State3, State1, State1) 0.333333 0.333333 0.333333;
   (State3, State3, State2, State3, State1, State1) 0.333333 0.333333 0.333333;
   (State4, State3, State2, State3, State1, State1) 0.333333 0.333333 0.333333;
   (State5, State3, State2, State3, State1, State1) 0.333333 0.333333 0.333333;
   (State6, State3, State2, State3, State1, State1) 0.333333 0.333333 0.333333;
   (State7, State3, State2, State3, State1, State1) 0.333333 0.333333 0.333333;
   (State8, State3, State2, State3, State1, State1) 0.333333 0.333333 0.333333;
   (State1, State4, State2, State3, State1, State1) 0.333333 0.333333 0.333333;
   (State2, State4, State2, State3, State1, State1) 0.333333 0.333333 0.333333;
   (State3, State4, State2, State3, State1, State1) 0.333333 0.333333 0.333333;
   (State4, State4, State2, State3, State1, State1) 0.333333 0.333333 0.333333;
   (State5, State4, State2, State3, State1, State1) 0.333333 0.333333 0.333333;
   (State6, State4, State2, State3, State1, State1) 0.333333 0.333333 0.333333;
   (State7, State4, State2, State3, State1, State1) 0.333333 0.333333 0.333333;
   (State8, State4, State2, State3, State1, State1) 0.333333 0.333333 0.333333;
   (State1, State5, State2, State3, State1, State1) 0.333333 0.333333 0.333333;
   (State2, State5, State2, State3, State1, State1) 0.333333 0.333333 0.333333;
   (State3, State5, State2, State3, State1, State1) 0.333333 0.333333 0.333333;
   (State4, State5, State2, State3, State1, State1) 0.333333 0.333333 0.333333;
   (State5, State5, State2, State3, State1, State1) 0.333333 0.333333 0.333333;
   (State6, State5, State2, State3, State1, State1) 0.333333 0.333333 0.333333;
   (State7, State5, State2, State3, State1, State1) 0.333333 0.333333 0.333333;
   (State8, State5, State2, State3, State1, State1) 0.333333 0.333333 0.333333;
   (State1, State6, State2, State3, State1, State1) 0.333333 0.333333 0.333333;
   (State2, State6, State2, State3, State1, State1) 0.333333 0.333333 0.333333;
   (State3, State6, State2, State3, State1, State1) 0.333333 0.333333 0.333333;
   (State4, State6, State2, State3, State1, State1) 0.333333 0.333333 0.333333;
   (State5, State6, State2, State3, State1, State1) 0.333333 0.333333 0.333333;
   (State6, State6, State2, State3, State1, State1) 0.333333 0.333333 0.333333;
   (State7, State6, State2, State3, State1, State1) 0.333333 0.333333 0.333333;
   (State8, State6, State2, State3, State1, State1) 0.333333 0.333333 0.333333;
   (State1, State7, State2, State3, State1, State1) 0.333333 0.333333 0.333333;
   (State2, State7, State2, State3, State1, State1) 0.333333 0.333333 0.333333;
   (State3, State7, State2, State3, State1, State1) 0.333333 0.333333 0.333333;
   (State4, State7, State2, State3, State1, State1) 0.333333 0.333333 0.333333;
   (State5, State7, State2, State3, State1, State1) 0.333333 0.333333 0.333333;
   (State6, State7, State2, State3, State1, State1) 0.333333 0.333333 0.333333;
   (State7, State7, State2, State3, State1, State1) 0.333333 0.333333 0.333333;
   (State8, State7, State2, State3, State1, State1) 0.333333 0.333333 0.333333;
   (State1, State8, State2, State3, State1, State1) 0.333333 0.333333 0.333333;
   (State2, State8, State2, State3, State1, State1) 0.333333 0.333333 0.333333;
   (State3, State8, State2, State3, State1, State1) 0.333333 0.333333 0.333333;
   (State4, State8, State2, State3, State1, State1) 0.333333 0.333333 0.333333;
   (State5, State8, State2, State3, State1, State1) 0.333333 0.333333 0.333333;
   (State6, State8, State2, State3, State1, State1) 0.333333 0.333333 0.333333;
   (State7, State8, State2, State3, State1, State1) 0.333333 0.333333 0.333333;
   (State8, State8, State2, State3, State1, State1) 0.333333 0.333333 0.333333;
   (State1, State1, State3, State3, State1, State1) 0.333333 0.333333 0.333333;
   (State2, State1, State3, State3, State1, State1) 0.333333 0.333333 0.333333;
   (State3, State1, State3, State3, State1, State1) 0.333333 0.333333 0.333333;
   (State4, State1, State3, State3, State1, State1) 0.333333 0.333333 0.333333;
   (State5, State1, State3, State3, State1, State1) 0.333333 0.333333 0.333333;
   (State6, State1, State3, State3, State1, State1) 0.333333 0.333333 0.333333;
   (State7, State1, State3, State3, State1, State1) 0.333333 0.333333 0.333333;
   (State8, State1, State3, State3, State1, State1) 0.333333 0.333333 0.333333;
   (State1, State2, State3, State3, State1, State1) 0.333333 0.333333 0.333333;
   (State2, State2, State3, State3, State1, State1) 0.333333 0.333333 0.333333;
   (State3, State2, State3, State3, State1, State1) 0.333333 0.333333 0.333333;
   (State4, State2, State3, State3, State1, State1) 0.333333 0.333333 0.333333;
   (State5, State2, State3, State3, State1, State1) 0.333333 0.333333 0.333333;
   (State6, State2, State3, State3, State1, State1) 0.333333 0.333333 0.333333;
   (State7, State2, State3, State3, State1, State1) 0.333333 0.333333 0.333333;
   (State8, State2, State3, State3, State1, State1) 0.333333 0.333333 0.333333;
   (State1, State3, State3, State3, State1, State1) 0.333333 0.333333 0.333333;
   (State2, State3, State3, State3, State1, State1) 0.333333 0.333333 0.333333;
   (State3, State3, State3, State3, State1, State1) 0.333333 0.333333 0.333333;
   (State4, State3, State3, State3, State1, State1) 0.333333 0.333333 0.333333;
   (State5, State3, State3, State3, State1, State1) 0.333333 0.333333 0.333333;
   (State6, State3, State3, State3, State1, State1) 0.333333 0.333333 0.333333;
   (State7, State3, State3, State3, State1, State1) 0.333333 0.333333 0.333333;
   (State8, State3, State3, State3, State1, State1) 0.333333 0.333333 0.333333;
   (State1, State4, State3, State3, State1, State1) 0.333333 0.333333 0.333333;
   (State2, State4, State3, State3, State1, State1) 0.333333 0.333333 0.333333;
   (State3, State4, State3, State3, State1, State1) 0.333333 0.333333 0.333333;
   (State4, State4, State3, State3, State1, State1) 0.333333 0.333333 0.333333;
   (State5, State4, State3, State3, State1, State1) 0.333333 0.333333 0.333333;
   (State6, State4, State3, State3, State1, State1) 0.333333 0.333333 0.333333;
   (State7, State4, State3, State3, State1, State1) 0.333333 0.333333 0.333333;
   (State8, State4, State3, State3, State1, State1) 0.333333 0.333333 0.333333;
   (State1, State5, State3, State3, State1, State1) 0.333333 0.333333 0.333333;
   (State2, State5, State3, State3, State1, State1) 0.333333 0.333333 0.333333;
   (State3, State5, State3, State3, State1, State1) 0.333333 0.333333 0.333333;
   (State4, State5, State3, State3, State1, State1) 0.333333 0.333333 0.333333;
   (State5, State5, State3, State3, State1, State1) 0.333333 0.333333 0.333333;
   (State6, State5, State3, State3, State1, State1) 0.333333 0.333333 0.333333;
   (State7, State5, State3, State3, State1, State1) 0.333333 0.333333 0.333333;
   (State8, State5, State3, State3, State1, State1) 0.333333 0.333333 0.333333;
   (State1, State6, State3, State3, State1, State1) 0.333333 0.333333 0.333333;
   (State2, State6, State3, State3, State1, State1) 0.333333 0.333333 0.333333;
   (State3, State6, State3, State3, State1, State1) 0.333333 0.333333 0.333333;
   (State4, State6, State3, State3, State1, State1) 0.333333 0.333333 0.333333;
   (State5, State6, State3, State3, State1, State1) 0.333333 0.333333 0.333333;
   (State6, State6, State3, State3, State1, State1) 0.333333 0.333333 0.333333;
   (State7, State6, State3, State3, State1, State1) 0.333333 0.333333 0.333333;
   (State8, State6, State3, State3, State1, State1) 0.333333 0.333333 0.333333;
   (State1, State7, State3, State3, State1, State1) 0.333333 0.333333 0.333333;
   (State2, State7, State3, State3, State1, State1) 0.333333 0.333333 0.333333;
   (State3, State7, State3, State3, State1, State1) 0.333333 0.333333 0.333333;
   (State4, State7, State3, State3, State1, State1) 0.333333 0.333333 0.333333;
   (State5, State7, State3, State3, State1, State1) 0.333333 0.333333 0.333333;
   (State6, State7, State3, State3, State1, State1) 0.333333 0.333333 0.333333;
   (State7, State7, State3, State3, State1, State1) 0.333333 0.333333 0.333333;
   (State8, State7, State3, State3, State1, State1) 0.333333 0.333333 0.333333;
   (State1, State8, State3, State3, State1, State1) 0.333333 0.333333 0.333333;
   (State2, State8, State3, State3, State1, State1) 0.333333 0.333333 0.333333;
   (State3, State8, State3, State3, State1, State1) 0.333333 0.333333 0.333333;
   (State4, State8, State3, State3, State1, State1) 0.333333 0.333333 0.333333;
   (State5, State8, State3, State3, State1, State1) 0.333333 0.333333 0.333333;
   (State6, State8, State3, State3, State1, State1) 0.333333 0.333333 0.333333;
   (State7, State8, State3, State3, State1, State1) 0.333333 0.333333 0.333333;
   (State8, State8, State3, State3, State1, State1) 0.333333 0.333333 0.333333;
   (State1, State1, State4, State3, State1, State1) 0.333333 0.333333 0.333333;
   (State2, State1, State4, State3, State1, State1) 0.333333 0.333333 0.333333;
   (State3, State1, State4, State3, State1, State1) 0.333333 0.333333 0.333333;
   (State4, State1, State4, State3, State1, State1) 0.333333 0.333333 0.333333;
   (State5, State1, State4, State3, State1, State1) 0.333333 0.333333 0.333333;
   (State6, State1, State4, State3, State1, State1) 0.333333 0.333333 0.333333;
   (State7, State1, State4, State3, State1, State1) 0.333333 0.333333 0.333333;
   (State8, State1, State4, State3, State1, State1) 0.333333 0.333333 0.333333;
   (State1, State2, State4, State3, State1, State1) 0.333333 0.333333 0.333333;
   (State2, State2, State4, State3, State1, State1) 0.333333 0.333333 0.333333;
   (State3, State2, State4, State3, State1, State1) 0.333333 0.333333 0.333333;
   (State4, State2, State4, State3, State1, State1) 0.333333 0.333333 0.333333;
   (State5, State2, State4, State3, State1, State1) 0.333333 0.333333 0.333333;
   (State6, State2, State4, State3, State1, State1) 0.333333 0.333333 0.333333;
   (State7, State2, State4, State3, State1, State1) 0.333333 0.333333 0.333333;
   (State8, State2, State4, State3, State1, State1) 0.333333 0.333333 0.333333;
   (State1, State3, State4, State3, State1, State1) 0.333333 0.333333 0.333333;
   (State2, State3, State4, State3, State1, State1) 0.333333 0.333333 0.333333;
   (State3, State3, State4, State3, State1, State1) 0.333333 0.333333 0.333333;
   (State4, State3, State4, State3, State1, State1) 0.333333 0.333333 0.333333;
   (State5, State3, State4, State3, State1, State1) 0.333333 0.333333 0.333333;
   (State6, State3, State4, State3, State1, State1) 0.333333 0.333333 0.333333;
   (State7, State3, State4, State3, State1, State1) 0.333333 0.333333 0.333333;
   (State8, State3, State4, State3, State1, State1) 0.333333 0.333333 0.333333;
   (State1, State4, State4, State3, State1, State1) 0.333333 0.333333 0.333333;
   (State2, State4, State4, State3, State1, State1) 0.333333 0.333333 0.333333;
   (State3, State4, State4, State3, State1, State1) 0.333333 0.333333 0.333333;
   (State4, State4, State4, State3, State1, State1) 0.333333 0.333333 0.333333;
   (State5, State4, State4, State3, State1, State1) 0.333333 0.333333 0.333333;
   (State6, State4, State4, State3, State1, State1) 0.333333 0.333333 0.333333;
   (State7, State4, State4, State3, State1, State1) 0.333333 0.333333 0.333333;
   (State8, State4, State4, State3, State1, State1) 0.333333 0.333333 0.333333;
   (State1, State5, State4, State3, State1, State1) 0.333333 0.333333 0.333333;
   (State2, State5, State4, State3, State1, State1) 0.333333 0.333333 0.333333;
   (State3, State5, State4, State3, State1, State1) 0.333333 0.333333 0.333333;
   (State4, State5, State4, State3, State1, State1) 0.333333 0.333333 0.333333;
   (State5, State5, State4, State3, State1, State1) 0.333333 0.333333 0.333333;
   (State6, State5, State4, State3, State1, State1) 0.333333 0.333333 0.333333;
   (State7, State5, State4, State3, State1, State1) 0.333333 0.333333 0.333333;
   (State8, State5, State4, State3, State1, State1) 0.333333 0.333333 0.333333;
   (State1, State6, State4, State3, State1, State1) 0.333333 0.333333 0.333333;
   (State2, State6, State4, State3, State1, State1) 0.333333 0.333333 0.333333;
   (State3, State6, State4, State3, State1, State1) 0.333333 0.333333 0.333333;
   (State4, State6, State4, State3, State1, State1) 0.333333 0.333333 0.333333;
   (State5, State6, State4, State3, State1, State1) 0.333333 0.333333 0.333333;
   (State6, State6, State4, State3, State1, State1) 0.333333 0.333333 0.333333;
   (State7, State6, State4, State3, State1, State1) 0.333333 0.333333 0.333333;
   (State8, State6, State4, State3, State1, State1) 0.333333 0.333333 0.333333;
   (State1, State7, State4, State3, State1, State1) 0.333333 0.333333 0.333333;
   (State2, State7, State4, State3, State1, State1) 0.333333 0.333333 0.333333;
   (State3, State7, State4, State3, State1, State1) 0.333333 0.333333 0.333333;
   (State4, State7, State4, State3, State1, State1) 0.333333 0.333333 0.333333;
   (State5, State7, State4, State3, State1, State1) 0.333333 0.333333 0.333333;
   (State6, State7, State4, State3, State1, State1) 0.333333 0.333333 0.333333;
   (State7, State7, State4, State3, State1, State1) 0.333333 0.333333 0.333333;
   (State8, State7, State4, State3, State1, State1) 0.333333 0.333333 0.333333;
   (State1, State8, State4, State3, State1, State1) 0.333333 0.333333 0.333333;
   (State2, State8, State4, State3, State1, State1) 0.333333 0.333333 0.333333;
   (State3, State8, State4, State3, State1, State1) 0.333333 0.333333 0.333333;
   (State4, State8, State4, State3, State1, State1) 0.333333 0.333333 0.333333;
   (State5, State8, State4, State3, State1, State1) 0.333333 0.333333 0.333333;
   (State6, State8, State4, State3, State1, State1) 0.333333 0.333333 0.333333;
   (State7, State8, State4, State3, State1, State1) 0.333333 0.333333 0.333333;
   (State8, State8, State4, State3, State1, State1) 0.333333 0.333333 0.333333;
   (State1, State1, State5, State3, State1, State1) 0.333333 0.333333 0.333333;
   (State2, State1, State5, State3, State1, State1) 0.333333 0.333333 0.333333;
   (State3, State1, State5, State3, State1, State1) 0.333333 0.333333 0.333333;
   (State4, State1, State5, State3, State1, State1) 0.333333 0.333333 0.333333;
   (State5, State1, State5, State3, State1, State1) 0.333333 0.333333 0.333333;
   (State6, State1, State5, State3, State1, State1) 0.333333 0.333333 0.333333;
   (State7, State1, State5, State3, State1, State1) 0.333333 0.333333 0.333333;
   (State8, State1, State5, State3, State1, State1) 0.333333 0.333333 0.333333;
   (State1, State2, State5, State3, State1, State1) 0.333333 0.333333 0.333333;
   (State2, State2, State5, State3, State1, State1) 0.333333 0.333333 0.333333;
   (State3, State2, State5, State3, State1, State1) 0.333333 0.333333 0.333333;
   (State4, State2, State5, State3, State1, State1) 0.333333 0.333333 0.333333;
   (State5, State2, State5, State3, State1, State1) 0.333333 0.333333 0.333333;
   (State6, State2, State5, State3, State1, State1) 0.333333 0.333333 0.333333;
   (State7, State2, State5, State3, State1, State1) 0.333333 0.333333 0.333333;
   (State8, State2, State5, State3, State1, State1) 0.333333 0.333333 0.333333;
   (State1, State3, State5, State3, State1, State1) 0.333333 0.333333 0.333333;
   (State2, State3, State5, State3, State1, State1) 0.333333 0.333333 0.333333;
   (State3, State3, State5, State3, State1, State1) 0.333333 0.333333 0.333333;
   (State4, State3, State5, State3, State1, State1) 0.333333 0.333333 0.333333;
   (State5, State3, State5, State3, State1, State1) 0.333333 0.333333 0.333333;
   (State6, State3, State5, State3, State1, State1) 0.333333 0.333333 0.333333;
   (State7, State3, State5, State3, State1, State1) 0.333333 0.333333 0.333333;
   (State8, State3, State5, State3, State1, State1) 0.333333 0.333333 0.333333;
   (State1, State4, State5, State3, State1, State1) 0.333333 0.333333 0.333333;
   (State2, State4, State5, State3, State1, State1) 0.333333 0.333333 0.333333;
   (State3, State4, State5, State3, State1, State1) 0.333333 0.333333 0.333333;
   (State4, State4, State5, State3, State1, State1) 0.333333 0.333333 0.333333;
   (State5, State4, State5, State3, State1, State1) 0.333333 0.333333 0.333333;
   (State6, State4, State5, State3, State1, State1) 0.333333 0.333333 0.333333;
   (State7, State4, State5, State3, State1, State1) 0.333333 0.333333 0.333333;
   (State8, State4, State5, State3, State1, State1) 0.333333 0.333333 0.333333;
   (State1, State5, State5, State3, State1, State1) 0.333333 0.333333 0.333333;
   (State2, State5, State5, State3, State1, State1) 0.333333 0.333333 0.333333;
   (State3, State5, State5, State3, State1, State1) 0.333333 0.333333 0.333333;
   (State4, State5, State5, State3, State1, State1) 0.333333 0.333333 0.333333;
   (State5, State5, State5, State3, State1, State1) 0.333333 0.333333 0.333333;
   (State6, State5, State5, State3, State1, State1) 0.333333 0.333333 0.333333;
   (State7, State5, State5, State3, State1, State1) 0.333333 0.333333 0.333333;
   (State8, State5, State5, State3, State1, State1) 0.333333 0.333333 0.333333;
   (State1, State6, State5, State3, State1, State1) 0.333333 0.333333 0.333333;
   (State2, State6, State5, State3, State1, State1) 0.333333 0.333333 0.333333;
   (State3, State6, State5, State3, State1, State1) 0.333333 0.333333 0.333333;
   (State4, State6, State5, State3, State1, State1) 0.333333 0.333333 0.333333;
   (State5, State6, State5, State3, State1, State1) 0.333333 0.333333 0.333333;
   (State6, State6, State5, State3, State1, State1) 0.333333 0.333333 0.333333;
   (State7, State6, State5, State3, State1, State1) 0.333333 0.333333 0.333333;
   (State8, State6, State5, State3, State1, State1) 0.333333 0.333333 0.333333;
   (State1, State7, State5, State3, State1, State1) 0.333333 0.333333 0.333333;
   (State2, State7, State5, State3, State1, State1) 0.333333 0.333333 0.333333;
   (State3, State7, State5, State3, State1, State1) 0.333333 0.333333 0.333333;
   (State4, State7, State5, State3, State1, State1) 0.0833333 0.833333 0.0833333;
   (State5, State7, State5, State3, State1, State1) 0.333333 0.333333 0.333333;
   (State6, State7, State5, State3, State1, State1) 0.333333 0.333333 0.333333;
   (State7, State7, State5, State3, State1, State1) 0.333333 0.333333 0.333333;
   (State8, State7, State5, State3, State1, State1) 0.333333 0.333333 0.333333;
   (State1, State8, State5, State3, State1, State1) 0.333333 0.333333 0.333333;
   (State2, State8, State5, State3, State1, State1) 0.333333 0.333333 0.333333;
   (State3, State8, State5, State3, State1, State1) 0.333333 0.333333 0.333333;
   (State4, State8, State5, State3, State1, State1) 0.333333 0.333333 0.333333;
   (State5, State8, State5, State3, State1, State1) 0.333333 0.333333 0.333333;
   (State6, State8, State5, State3, State1, State1) 0.333333 0.333333 0.333333;
   (State7, State8, State5, State3, State1, State1) 0.333333 0.333333 0.333333;
   (State8, State8, State5, State3, State1, State1) 0.333333 0.333333 0.333333;
   (State1, State1, State6, State3, State1, State1) 0.333333 0.333333 0.333333;
   (State2, State1, State6, State3, State1, State1) 0.333333 0.333333 0.333333;
   (State3, State1, State6, State3, State1, State1) 0.333333 0.333333 0.333333;
   (State4, State1, State6, State3, State1, State1) 0.333333 0.333333 0.333333;
   (State5, State1, State6, State3, State1, State1) 0.333333 0.333333 0.333333;
   (State6, State1, State6, State3, State1, State1) 0.333333 0.333333 0.333333;
   (State7, State1, State6, State3, State1, State1) 0.333333 0.333333 0.333333;
   (State8, State1, State6, State3, State1, State1) 0.333333 0.333333 0.333333;
   (State1, State2, State6, State3, State1, State1) 0.333333 0.333333 0.333333;
   (State2, State2, State6, State3, State1, State1) 0.333333 0.333333 0.333333;
   (State3, State2, State6, State3, State1, State1) 0.333333 0.333333 0.333333;
   (State4, State2, State6, State3, State1, State1) 0.333333 0.333333 0.333333;
   (State5, State2, State6, State3, State1, State1) 0.333333 0.333333 0.333333;
   (State6, State2, State6, State3, State1, State1) 0.333333 0.333333 0.333333;
   (State7, State2, State6, State3, State1, State1) 0.333333 0.333333 0.333333;
   (State8, State2, State6, State3, State1, State1) 0.333333 0.333333 0.333333;
   (State1, State3, State6, State3, State1, State1) 0.333333 0.333333 0.333333;
   (State2, State3, State6, State3, State1, State1) 0.111111 0.777778 0.111111;
   (State3, State3, State6, State3, State1, State1) 0.333333 0.333333 0.333333;
   (State4, State3, State6, State3, State1, State1) 0.333333 0.333333 0.333333;
   (State5, State3, State6, State3, State1, State1) 0.333333 0.333333 0.333333;
   (State6, State3, State6, State3, State1, State1) 0.333333 0.333333 0.333333;
   (State7, State3, State6, State3, State1, State1) 0.333333 0.333333 0.333333;
   (State8, State3, State6, State3, State1, State1) 0.333333 0.333333 0.333333;
   (State1, State4, State6, State3, State1, State1) 0.333333 0.333333 0.333333;
   (State2, State4, State6, State3, State1, State1) 0.333333 0.333333 0.333333;
   (State3, State4, State6, State3, State1, State1) 0.333333 0.333333 0.333333;
   (State4, State4, State6, State3, State1, State1) 0.333333 0.333333 0.333333;
   (State5, State4, State6, State3, State1, State1) 0.333333 0.333333 0.333333;
   (State6, State4, State6, State3, State1, State1) 0.333333 0.333333 0.333333;
   (State7, State4, State6, State3, State1, State1) 0.333333 0.333333 0.333333;
   (State8, State4, State6, State3, State1, State1) 0.333333 0.333333 0.333333;
   (State1, State5, State6, State3, State1, State1) 0.333333 0.333333 0.333333;
   (State2, State5, State6, State3, State1, State1) 0.333333 0.333333 0.333333;
   (State3, State5, State6, State3, State1, State1) 0.333333 0.333333 0.333333;
   (State4, State5, State6, State3, State1, State1) 0.333333 0.333333 0.333333;
   (State5, State5, State6, State3, State1, State1) 0.333333 0.333333 0.333333;
   (State6, State5, State6, State3, State1, State1) 0.166667 0.666667 0.166667;
   (State7, State5, State6, State3, State1, State1) 0.333333 0.333333 0.333333;
   (State8, State5, State6, State3, State1, State1) 0.333333 0.333333 0.333333;
   (State1, State6, State6, State3, State1, State1) 0.333333 0.333333 0.333333;
   (State2, State6, State6, State3, State1, State1) 0.333333 0.333333 0.333333;
   (State3, State6, State6, State3, State1, State1) 0.333333 0.333333 0.333333;
   (State4, State6, State6, State3, State1, State1) 0.333333 0.333333 0.333333;
   (State5, State6, State6, State3, State1, State1) 0.333333 0.333333 0.333333;
   (State6, State6, State6, State3, State1, State1) 0.333333 0.333333 0.333333;
   (State7, State6, State6, State3, State1, State1) 0.333333 0.333333 0.333333;
   (State8, State6, State6, State3, State1, State1) 0.333333 0.333333 0.333333;
   (State1, State7, State6, State3, State1, State1) 0.333333 0.333333 0.333333;
   (State2, State7, State6, State3, State1, State1) 0.333333 0.333333 0.333333;
   (State3, State7, State6, State3, State1, State1) 0.333333 0.333333 0.333333;
   (State4, State7, State6, State3, State1, State1) 0.333333 0.333333 0.333333;
   (State5, State7, State6, State3, State1, State1) 0.111111 0.777778 0.111111;
   (State6, State7, State6, State3, State1, State1) 0.333333 0.333333 0.333333;
   (State7, State7, State6, State3, State1, State1) 0.333333 0.333333 0.333333;
   (State8, State7, State6, State3, State1, State1) 0.333333 0.333333 0.333333;
   (State1, State8, State6, State3, State1, State1) 0.333333 0.333333 0.333333;
   (State2, State8, State6, State3, State1, State1) 0.333333 0.333333 0.333333;
   (State3, State8, State6, State3, State1, State1) 0.333333 0.333333 0.333333;
   (State4, State8, State6, State3, State1, State1) 0.333333 0.333333 0.333333;
   (State5, State8, State6, State3, State1, State1) 0.333333 0.333333 0.333333;
   (State6, State8, State6, State3, State1, State1) 0.333333 0.333333 0.333333;
   (State7, State8, State6, State3, State1, State1) 0.333333 0.333333 0.333333;
   (State8, State8, State6, State3, State1, State1) 0.333333 0.333333 0.333333;
   (State1, State1, State1, State4, State1, State1) 0.333333 0.333333 0.333333;
   (State2, State1, State1, State4, State1, State1) 0.333333 0.333333 0.333333;
   (State3, State1, State1, State4, State1, State1) 0.333333 0.333333 0.333333;
   (State4, State1, State1, State4, State1, State1) 0.333333 0.333333 0.333333;
   (State5, State1, State1, State4, State1, State1) 0.333333 0.333333 0.333333;
   (State6, State1, State1, State4, State1, State1) 0.333333 0.333333 0.333333;
   (State7, State1, State1, State4, State1, State1) 0.333333 0.333333 0.333333;
   (State8, State1, State1, State4, State1, State1) 0.333333 0.333333 0.333333;
   (State1, State2, State1, State4, State1, State1) 0.333333 0.333333 0.333333;
   (State2, State2, State1, State4, State1, State1) 0.333333 0.333333 0.333333;
   (State3, State2, State1, State4, State1, State1) 0.333333 0.333333 0.333333;
   (State4, State2, State1, State4, State1, State1) 0.333333 0.333333 0.333333;
   (State5, State2, State1, State4, State1, State1) 0.333333 0.333333 0.333333;
